genomestart 0
trait 1 0 0 0 0 0 0 0 0 
node 1 1 1 1
node 2 1 1 1
node 3 1 1 1
node 4 1 1 1
node 5 1 1 1
node 6 1 1 1
node 7 1 1 1
node 8 1 1 1
node 9 1 1 1
node 10 1 1 1
node 11 1 1 1
node 12 1 1 1
node 13 1 1 1
node 14 1 1 1
node 15 1 1 1
node 16 1 1 1
node 17 1 1 1
node 18 1 1 1
node 19 1 1 1
node 20 1 1 1
node 21 1 1 1
node 22 1 1 1
node 23 1 1 1
node 24 1 1 1
node 25 1 1 1
node 26 1 1 1
node 27 1 1 1
node 28 1 1 1
node 29 1 1 1
node 30 1 1 1
node 31 1 1 1
node 32 1 1 1
node 33 1 1 1
node 34 1 1 1
node 35 1 1 1
node 36 1 1 1
node 37 1 1 1
node 38 1 1 1
node 39 1 1 1
node 40 1 1 1
node 41 1 1 1
node 42 1 1 1
node 43 1 1 1
node 44 1 1 1
node 45 1 1 1
node 46 1 1 1
node 47 1 1 1
node 48 1 1 1
node 49 1 1 1
node 50 1 1 1
node 51 1 1 1
node 52 1 1 1
node 53 1 1 1
node 54 1 1 1
node 55 1 1 1
node 56 1 1 1
node 57 1 1 1
node 58 1 1 1
node 59 1 1 1
node 60 1 1 1
node 61 1 1 1
node 62 1 1 1
node 63 1 1 1
node 64 1 1 1
node 65 1 1 1
node 66 1 1 1
node 67 1 1 1
node 68 1 1 1
node 69 1 1 1
node 70 1 1 1
node 71 1 1 1
node 72 1 1 1
node 73 1 1 1
node 74 1 1 1
node 75 1 1 1
node 76 1 1 1
node 77 1 1 1
node 78 1 1 1
node 79 1 1 1
node 80 1 1 1
node 81 1 1 1
node 82 1 1 1
node 83 1 1 1
node 84 1 1 1
node 85 1 1 1
node 86 1 1 1
node 87 1 1 1
node 88 1 1 1
node 89 1 1 1
node 90 1 1 1
node 91 1 1 1
node 92 1 1 1
node 93 1 1 1
node 94 1 1 1
node 95 1 1 1
node 96 1 1 1
node 97 1 1 1
node 98 1 1 1
node 99 1 1 1
node 100 1 1 1
node 101 1 1 1
node 102 1 1 1
node 103 1 1 1
node 104 1 1 1
node 105 1 1 1
node 106 1 1 1
node 107 1 1 1
node 108 1 1 1
node 109 1 1 1
node 110 1 1 1
node 111 1 1 3
node 112 1 0 0
node 140 1 0 2
node 141 1 0 2
node 142 1 0 2
node 143 1 0 2
node 144 1 0 2
node 145 1 0 2
gene 1 1 112 0.0360946 0 16095 0.0360946 1
gene 1 3 112 -0.70946 0 16097 -0.70946 1
gene 1 6 112 -0.855931 0 16100 -0.855931 1
gene 1 8 112 0.680175 0 16102 0.680175 1
gene 1 11 112 -0.416702 0 16105 -0.416702 1
gene 1 13 112 0.44616 0 16107 0.44616 1
gene 1 16 112 0.583418 0 16110 0.583418 1
gene 1 21 112 -0.847776 0 16115 -0.847776 1
gene 1 28 112 0.503214 0 16122 0.503214 1
gene 1 35 112 -0.166004 0 16129 -0.166004 1
gene 1 38 112 -0.834132 0 16132 -0.834132 1
gene 1 41 112 -0.852063 0 16135 -0.852063 1
gene 1 43 112 0.490476 0 16137 0.490476 1
gene 1 45 112 -0.250146 0 16139 -0.250146 1
gene 1 46 112 -0.337006 0 16140 -0.337006 1
gene 1 49 112 0.663082 0 16143 0.663082 1
gene 1 51 112 -0.039208 0 16145 -0.039208 1
gene 1 56 112 -0.306626 0 16150 -0.306626 1
gene 1 59 112 -0.648848 0 16153 -0.648848 1
gene 1 60 112 0.779633 0 16154 0.779633 1
gene 1 61 112 0.278202 0 16155 0.278202 1
gene 1 62 112 -0.101713 0 16156 -0.101713 1
gene 1 67 112 -0.876232 0 16161 -0.876232 1
gene 1 68 112 0.698408 0 16162 0.698408 1
gene 1 72 112 0.501932 0 16166 0.501932 1
gene 1 76 112 -0.185778 0 16170 -0.185778 1
gene 1 77 112 0.323733 0 16171 0.323733 1
gene 1 80 112 0.57913 0 16174 0.57913 1
gene 1 88 112 -0.791352 0 16182 -0.791352 1
gene 1 93 112 -0.804997 0 16187 -0.804997 1
gene 1 95 112 -0.614305 0 16189 -0.614305 1
gene 1 97 112 0.727144 0 16191 0.727144 1
gene 1 103 112 -0.516734 0 16197 -0.516734 1
gene 1 104 112 -0.132924 0 16198 -0.132924 1
gene 1 112 112 -0.219784 1 16206 -0.219784 1
gene 1 145 112 0.921986 1 16239 0.921986 1
gene 1 7 140 0.855925 0 20161 0.855925 1
gene 1 10 140 0.037262 0 20164 0.037262 1
gene 1 12 140 -0.923302 0 20166 -0.923302 1
gene 1 13 140 0.316271 0 20167 0.316271 1
gene 1 14 140 0.741428 0 20168 0.741428 1
gene 1 20 140 -0.929651 0 20174 -0.929651 1
gene 1 24 140 -0.281758 0 20178 -0.281758 1
gene 1 26 140 -0.772241 0 20180 -0.772241 1
gene 1 29 140 -0.90739 0 20183 -0.90739 1
gene 1 32 140 0.813813 0 20186 0.813813 1
gene 1 35 140 -0.505762 0 20189 -0.505762 1
gene 1 37 140 -0.157123 0 20191 -0.157123 1
gene 1 39 140 -0.493495 0 20193 -0.493495 1
gene 1 41 140 0.42323 0 20195 0.42323 1
gene 1 43 140 0.204988 0 20197 0.204988 1
gene 1 46 140 -0.970832 0 20200 -0.970832 1
gene 1 52 140 0.675289 0 20206 0.675289 1
gene 1 54 140 0.405495 0 20208 0.405495 1
gene 1 57 140 0.0438572 0 20211 0.0438572 1
gene 1 58 140 0.761016 0 20212 0.761016 1
gene 1 60 140 0.343908 0 20214 0.343908 1
gene 1 62 140 -0.275405 0 20216 -0.275405 1
gene 1 68 140 0.376813 0 20222 0.376813 1
gene 1 69 140 0.182918 0 20223 0.182918 1
gene 1 71 140 0.351994 0 20225 0.351994 1
gene 1 83 140 -0.277644 0 20237 -0.277644 1
gene 1 87 140 -0.189173 0 20241 -0.189173 1
gene 1 90 140 -0.157365 0 20244 -0.157365 1
gene 1 103 140 0.22982 0 20257 0.22982 1
gene 1 109 140 -0.0919024 0 20263 -0.0919024 1
gene 1 111 140 -0.876991 0 20265 -0.876991 1
gene 1 141 140 -0.740706 1 20295 -0.740706 1
gene 1 143 140 0.531881 1 20297 0.531881 1
gene 1 2 141 -0.181431 0 20301 -0.181431 1
gene 1 7 141 0.157507 0 20306 0.157507 1
gene 1 10 141 -0.634731 0 20309 -0.634731 1
gene 1 11 141 0.56623 0 20310 0.56623 1
gene 1 12 141 0.435239 0 20311 0.435239 1
gene 1 23 141 0.161344 0 20322 0.161344 1
gene 1 35 141 0.258147 0 20334 0.258147 1
gene 1 36 141 0.613287 0 20335 0.613287 1
gene 1 38 141 0.910412 0 20337 0.910412 1
gene 1 41 141 -0.788565 0 20340 -0.788565 1
gene 1 44 141 0.15499 0 20343 0.15499 1
gene 1 46 141 0.713305 0 20345 0.713305 1
gene 1 48 141 -0.909792 0 20347 -0.909792 1
gene 1 49 141 0.771075 0 20348 0.771075 1
gene 1 54 141 -0.784207 0 20353 -0.784207 1
gene 1 56 141 0.44488 0 20355 0.44488 1
gene 1 64 141 -0.155588 0 20363 -0.155588 1
gene 1 67 141 0.388674 0 20366 0.388674 1
gene 1 68 141 0.0663364 0 20367 0.0663364 1
gene 1 69 141 0.950103 0 20368 0.950103 1
gene 1 70 141 0.342329 0 20369 0.342329 1
gene 1 72 141 -0.975685 0 20371 -0.975685 1
gene 1 74 141 0.916858 0 20373 0.916858 1
gene 1 76 141 0.739103 0 20375 0.739103 1
gene 1 83 141 0.0700417 0 20382 0.0700417 1
gene 1 88 141 0.464416 0 20387 0.464416 1
gene 1 91 141 0.360927 0 20390 0.360927 1
gene 1 99 141 0.785724 0 20398 0.785724 1
gene 1 105 141 0.782223 0 20404 0.782223 1
gene 1 107 141 0.138715 0 20406 0.138715 1
gene 1 110 141 -0.939257 0 20409 -0.939257 1
gene 1 141 141 -0.137079 1 20440 -0.137079 1
gene 1 142 141 -0.308087 1 20441 -0.308087 1
gene 1 3 142 -0.0451624 0 20447 -0.0451624 1
gene 1 4 142 -0.186226 0 20448 -0.186226 1
gene 1 12 142 0.974199 0 20456 0.974199 1
gene 1 14 142 -0.331956 0 20458 -0.331956 1
gene 1 15 142 -0.261542 0 20459 -0.261542 1
gene 1 16 142 -0.881579 0 20460 -0.881579 1
gene 1 17 142 -0.760402 0 20461 -0.760402 1
gene 1 19 142 0.152564 0 20463 0.152564 1
gene 1 21 142 -0.151627 0 20465 -0.151627 1
gene 1 28 142 -0.844491 0 20472 -0.844491 1
gene 1 29 142 -0.95842 0 20473 -0.95842 1
gene 1 30 142 -0.409198 0 20474 -0.409198 1
gene 1 33 142 -0.0799366 0 20477 -0.0799366 1
gene 1 34 142 0.675307 0 20478 0.675307 1
gene 1 38 142 0.594346 0 20482 0.594346 1
gene 1 44 142 0.606162 0 20488 0.606162 1
gene 1 51 142 -0.56446 0 20495 -0.56446 1
gene 1 56 142 0.320865 0 20500 0.320865 1
gene 1 58 142 -0.619893 0 20502 -0.619893 1
gene 1 65 142 0.655283 0 20509 0.655283 1
gene 1 68 142 -0.729604 0 20512 -0.729604 1
gene 1 69 142 0.470282 0 20513 0.470282 1
gene 1 71 142 0.0830991 0 20515 0.0830991 1
gene 1 75 142 -0.71723 0 20519 -0.71723 1
gene 1 76 142 -0.850363 0 20520 -0.850363 1
gene 1 79 142 -0.686192 0 20523 -0.686192 1
gene 1 86 142 -0.123815 0 20530 -0.123815 1
gene 1 87 142 0.0602108 0 20531 0.0602108 1
gene 1 94 142 -0.829521 0 20538 -0.829521 1
gene 1 95 142 0.947214 0 20539 0.947214 1
gene 1 97 142 0.849165 0 20541 0.849165 1
gene 1 100 142 0.656222 0 20544 0.656222 1
gene 1 102 142 -0.0819605 0 20546 -0.0819605 1
gene 1 104 142 -0.744487 0 20548 -0.744487 1
gene 1 105 142 -0.29167 0 20549 -0.29167 1
gene 1 143 142 -0.690015 1 20587 -0.690015 1
gene 1 3 143 0.324008 0 20592 0.324008 1
gene 1 4 143 -0.29835 0 20593 -0.29835 1
gene 1 5 143 0.445085 0 20594 0.445085 1
gene 1 7 143 0.874368 0 20596 0.874368 1
gene 1 10 143 0.310471 0 20599 0.310471 1
gene 1 17 143 -0.255877 0 20606 -0.255877 1
gene 1 24 143 0.274946 0 20613 0.274946 1
gene 1 25 143 0.397265 0 20614 0.397265 1
gene 1 32 143 -0.0450835 0 20621 -0.0450835 1
gene 1 35 143 0.685424 0 20624 0.685424 1
gene 1 38 143 0.474695 0 20627 0.474695 1
gene 1 48 143 0.780259 0 20637 0.780259 1
gene 1 50 143 -0.085781 0 20639 -0.085781 1
gene 1 53 143 0.182469 0 20642 0.182469 1
gene 1 57 143 -0.312509 0 20646 -0.312509 1
gene 1 59 143 -0.788363 0 20648 -0.788363 1
gene 1 62 143 0.174448 0 20651 0.174448 1
gene 1 67 143 0.635537 0 20656 0.635537 1
gene 1 68 143 0.25203 0 20657 0.25203 1
gene 1 70 143 0.481376 0 20659 0.481376 1
gene 1 80 143 -0.635684 0 20669 -0.635684 1
gene 1 83 143 -0.895726 0 20672 -0.895726 1
gene 1 91 143 0.99926 0 20680 0.99926 1
gene 1 97 143 -0.230836 0 20686 -0.230836 1
gene 1 98 143 -0.0680684 0 20687 -0.0680684 1
gene 1 99 143 -0.221054 0 20688 -0.221054 1
gene 1 100 143 0.367569 0 20689 0.367569 1
gene 1 102 143 0.975092 0 20691 0.975092 1
gene 1 103 143 -0.183455 0 20692 -0.183455 1
gene 1 108 143 0.368347 0 20697 0.368347 1
gene 1 141 143 0.74387 0 20730 0.74387 1
gene 1 13 144 0.528895 0 20747 0.528895 1
gene 1 14 144 -0.724745 0 20748 -0.724745 1
gene 1 22 144 0.207684 0 20756 0.207684 1
gene 1 26 144 -0.0723442 0 20760 -0.0723442 1
gene 1 32 144 0.455912 0 20766 0.455912 1
gene 1 36 144 -0.769399 0 20770 -0.769399 1
gene 1 37 144 -0.27006 0 20771 -0.27006 1
gene 1 39 144 0.917175 0 20773 0.917175 1
gene 1 47 144 0.794706 0 20781 0.794706 1
gene 1 49 144 -0.00177282 0 20783 -0.00177282 1
gene 1 59 144 -0.86433 0 20793 -0.86433 1
gene 1 61 144 -0.239471 0 20795 -0.239471 1
gene 1 62 144 -0.851604 0 20796 -0.851604 1
gene 1 63 144 -0.316282 0 20797 -0.316282 1
gene 1 64 144 0.81391 0 20798 0.81391 1
gene 1 67 144 -0.559193 0 20801 -0.559193 1
gene 1 69 144 0.715034 0 20803 0.715034 1
gene 1 78 144 0.97476 0 20812 0.97476 1
gene 1 83 144 0.0279091 0 20817 0.0279091 1
gene 1 87 144 -0.788482 0 20821 -0.788482 1
gene 1 89 144 0.029033 0 20823 0.029033 1
gene 1 91 144 -0.00934487 0 20825 -0.00934487 1
gene 1 92 144 -0.376324 0 20826 -0.376324 1
gene 1 95 144 -0.39023 0 20829 -0.39023 1
gene 1 99 144 -0.576762 0 20833 -0.576762 1
gene 1 106 144 0.0735347 0 20840 0.0735347 1
gene 1 108 144 0.524828 0 20842 0.524828 1
gene 1 110 144 -0.829309 0 20844 -0.829309 1
gene 1 111 144 0.0397794 0 20845 0.0397794 1
gene 1 112 144 0.817695 0 20846 0.817695 1
gene 1 140 144 0.559174 0 20874 0.559174 1
gene 1 141 144 -0.229129 0 20875 -0.229129 1
gene 1 3 145 0.789126 0 20882 0.789126 1
gene 1 6 145 -0.270564 0 20885 -0.270564 1
gene 1 9 145 -0.386874 0 20888 -0.386874 1
gene 1 18 145 -0.368554 0 20897 -0.368554 1
gene 1 20 145 -0.0246738 0 20899 -0.0246738 1
gene 1 22 145 0.634024 0 20901 0.634024 1
gene 1 24 145 0.69403 0 20903 0.69403 1
gene 1 27 145 -0.727929 0 20906 -0.727929 1
gene 1 36 145 -0.944021 0 20915 -0.944021 1
gene 1 46 145 0.121288 0 20925 0.121288 1
gene 1 47 145 -0.681828 0 20926 -0.681828 1
gene 1 48 145 0.189618 0 20927 0.189618 1
gene 1 50 145 -0.684062 0 20929 -0.684062 1
gene 1 52 145 -0.522524 0 20931 -0.522524 1
gene 1 53 145 0.0265114 0 20932 0.0265114 1
gene 1 56 145 -0.556004 0 20935 -0.556004 1
gene 1 58 145 -0.407194 0 20937 -0.407194 1
gene 1 59 145 0.325846 0 20938 0.325846 1
gene 1 60 145 -0.426701 0 20939 -0.426701 1
gene 1 66 145 -0.43902 0 20945 -0.43902 1
gene 1 70 145 0.265568 0 20949 0.265568 1
gene 1 75 145 -0.409327 0 20954 -0.409327 1
gene 1 76 145 0.18089 0 20955 0.18089 1
gene 1 78 145 0.776683 0 20957 0.776683 1
gene 1 79 145 0.751332 0 20958 0.751332 1
gene 1 82 145 0.167726 0 20961 0.167726 1
gene 1 95 145 0.18305 0 20974 0.18305 1
gene 1 98 145 0.492597 0 20977 0.492597 1
gene 1 100 145 0.542179 0 20979 0.542179 1
gene 1 107 145 0.694616 0 20986 0.694616 1
gene 1 108 145 0.210594 0 20987 0.210594 1
gene 1 143 145 0.124331 0 21022 0.124331 1
gene 1 145 145 0.74564 1 21024 0.74564 1
genomeend 0
