genomestart 0
trait 1 0 0 0 0 0 0 0 0 
node 1 1 1 1
node 2 1 1 1
node 3 1 1 1
node 4 1 1 1
node 5 1 1 1
node 6 1 1 1
node 7 1 1 1
node 8 1 1 1
node 9 1 1 1
node 10 1 1 1
node 11 1 1 1
node 12 1 1 1
node 13 1 1 1
node 14 1 1 1
node 15 1 1 1
node 16 1 1 1
node 17 1 1 1
node 18 1 1 1
node 19 1 1 1
node 20 1 1 1
node 21 1 1 1
node 22 1 1 1
node 23 1 1 1
node 24 1 1 1
node 25 1 1 1
node 26 1 1 1
node 27 1 1 1
node 28 1 1 1
node 29 1 1 1
node 30 1 1 1
node 31 1 1 1
node 32 1 1 1
node 33 1 1 1
node 34 1 1 1
node 35 1 1 1
node 36 1 1 1
node 37 1 1 1
node 38 1 1 1
node 39 1 1 1
node 40 1 1 1
node 41 1 1 1
node 42 1 1 1
node 43 1 1 1
node 44 1 1 1
node 45 1 1 1
node 46 1 1 1
node 47 1 1 1
node 48 1 1 1
node 49 1 1 1
node 50 1 1 1
node 51 1 1 1
node 52 1 1 1
node 53 1 1 1
node 54 1 1 1
node 55 1 1 1
node 56 1 1 1
node 57 1 1 1
node 58 1 1 1
node 59 1 1 1
node 60 1 1 1
node 61 1 1 1
node 62 1 1 1
node 63 1 1 1
node 64 1 1 1
node 65 1 1 1
node 66 1 1 1
node 67 1 1 1
node 68 1 1 1
node 69 1 1 1
node 70 1 1 1
node 71 1 1 1
node 72 1 1 1
node 73 1 1 1
node 74 1 1 1
node 75 1 1 1
node 76 1 1 1
node 77 1 1 1
node 78 1 1 1
node 79 1 1 1
node 80 1 1 1
node 81 1 1 1
node 82 1 1 1
node 83 1 1 1
node 84 1 1 1
node 85 1 1 1
node 86 1 1 1
node 87 1 1 1
node 88 1 1 1
node 89 1 1 1
node 90 1 1 1
node 91 1 1 1
node 92 1 1 1
node 93 1 1 1
node 94 1 1 1
node 95 1 1 1
node 96 1 1 1
node 97 1 1 1
node 98 1 1 1
node 99 1 1 1
node 100 1 1 1
node 101 1 1 1
node 102 1 1 1
node 103 1 1 1
node 104 1 1 1
node 105 1 1 1
node 106 1 1 1
node 107 1 1 1
node 108 1 1 1
node 109 1 1 1
node 110 1 1 1
node 111 1 1 3
node 112 1 0 0
node 144 1 0 2
node 145 1 0 2
node 146 1 0 2
node 147 1 0 2
node 148 1 0 2
node 149 1 0 2
node 150 1 0 2
node 151 1 0 2
gene 1 4 112 -0.980601 0 16764 -0.980601 1
gene 1 7 112 -0.78706 0 16767 -0.78706 1
gene 1 8 112 0.393453 0 16768 0.393453 1
gene 1 10 112 0.0961821 0 16770 0.0961821 1
gene 1 11 112 -0.533757 0 16771 -0.533757 1
gene 1 13 112 -0.171001 0 16773 -0.171001 1
gene 1 26 112 -0.651626 0 16786 -0.651626 1
gene 1 34 112 -0.0537939 0 16794 -0.0537939 1
gene 1 37 112 -0.123707 0 16797 -0.123707 1
gene 1 38 112 0.631887 0 16798 0.631887 1
gene 1 39 112 0.0731604 0 16799 0.0731604 1
gene 1 42 112 -0.88978 0 16802 -0.88978 1
gene 1 43 112 -0.317553 0 16803 -0.317553 1
gene 1 45 112 0.831008 0 16805 0.831008 1
gene 1 51 112 -0.406885 0 16811 -0.406885 1
gene 1 52 112 -0.984715 0 16812 -0.984715 1
gene 1 57 112 0.405928 0 16817 0.405928 1
gene 1 67 112 -0.540818 0 16827 -0.540818 1
gene 1 76 112 0.936355 0 16836 0.936355 1
gene 1 81 112 0.29774 0 16841 0.29774 1
gene 1 86 112 0.197493 0 16846 0.197493 1
gene 1 88 112 0.675123 0 16848 0.675123 1
gene 1 89 112 0.538278 0 16849 0.538278 1
gene 1 94 112 0.637948 0 16854 0.637948 1
gene 1 97 112 0.745779 0 16857 0.745779 1
gene 1 101 112 -0.310893 0 16861 -0.310893 1
gene 1 107 112 -0.7245 0 16867 -0.7245 1
gene 1 109 112 -0.816018 0 16869 -0.816018 1
gene 1 110 112 -0.168305 0 16870 -0.168305 1
gene 1 111 112 0.233297 0 16871 0.233297 1
gene 1 112 112 0.104226 1 16872 0.104226 1
gene 1 146 112 -0.962135 1 16906 -0.962135 1
gene 1 148 112 0.0457895 1 16908 0.0457895 1
gene 1 1 144 0.329684 0 21593 0.329684 1
gene 1 4 144 -0.478684 0 21596 -0.478684 1
gene 1 6 144 0.457041 0 21598 0.457041 1
gene 1 7 144 0.872517 0 21599 0.872517 1
gene 1 9 144 -0.675471 0 21601 -0.675471 1
gene 1 10 144 0.334941 0 21602 0.334941 1
gene 1 14 144 0.470984 0 21606 0.470984 1
gene 1 15 144 -0.838447 0 21607 -0.838447 1
gene 1 16 144 0.605948 0 21608 0.605948 1
gene 1 17 144 -0.75956 0 21609 -0.75956 1
gene 1 18 144 0.262362 0 21610 0.262362 1
gene 1 24 144 -0.771548 0 21616 -0.771548 1
gene 1 25 144 0.115571 0 21617 0.115571 1
gene 1 28 144 0.767157 0 21620 0.767157 1
gene 1 32 144 -0.562318 0 21624 -0.562318 1
gene 1 37 144 0.477082 0 21629 0.477082 1
gene 1 38 144 0.90428 0 21630 0.90428 1
gene 1 39 144 0.823928 0 21631 0.823928 1
gene 1 45 144 0.877172 0 21637 0.877172 1
gene 1 46 144 0.780002 0 21638 0.780002 1
gene 1 48 144 -0.52188 0 21640 -0.52188 1
gene 1 52 144 -0.0703737 0 21644 -0.0703737 1
gene 1 54 144 -0.315107 0 21646 -0.315107 1
gene 1 55 144 0.255358 0 21647 0.255358 1
gene 1 63 144 -0.678544 0 21655 -0.678544 1
gene 1 66 144 0.545844 0 21658 0.545844 1
gene 1 67 144 0.86736 0 21659 0.86736 1
gene 1 75 144 0.484145 0 21667 0.484145 1
gene 1 76 144 0.550751 0 21668 0.550751 1
gene 1 78 144 0.701083 0 21670 0.701083 1
gene 1 83 144 0.289448 0 21675 0.289448 1
gene 1 86 144 -0.347731 0 21678 -0.347731 1
gene 1 88 144 0.0223939 0 21680 0.0223939 1
gene 1 94 144 -0.708738 0 21686 -0.708738 1
gene 1 95 144 0.956823 0 21687 0.956823 1
gene 1 99 144 -0.575921 0 21691 -0.575921 1
gene 1 100 144 -0.229792 0 21692 -0.229792 1
gene 1 110 144 0.51407 0 21702 0.51407 1
gene 1 1 145 0.933235 0 21744 0.933235 1
gene 1 5 145 0.717476 0 21748 0.717476 1
gene 1 15 145 0.479702 0 21758 0.479702 1
gene 1 20 145 0.0589451 0 21763 0.0589451 1
gene 1 21 145 0.827971 0 21764 0.827971 1
gene 1 23 145 0.624222 0 21766 0.624222 1
gene 1 24 145 -0.736292 0 21767 -0.736292 1
gene 1 25 145 -0.36224 0 21768 -0.36224 1
gene 1 27 145 -0.605692 0 21770 -0.605692 1
gene 1 31 145 0.107516 0 21774 0.107516 1
gene 1 36 145 0.00216133 0 21779 0.00216133 1
gene 1 45 145 0.66899 0 21788 0.66899 1
gene 1 47 145 -0.780674 0 21790 -0.780674 1
gene 1 48 145 0.744177 0 21791 0.744177 1
gene 1 55 145 -0.265491 0 21798 -0.265491 1
gene 1 56 145 -0.997185 0 21799 -0.997185 1
gene 1 58 145 -0.180755 0 21801 -0.180755 1
gene 1 61 145 -0.881017 0 21804 -0.881017 1
gene 1 64 145 -0.324252 0 21807 -0.324252 1
gene 1 65 145 0.179739 0 21808 0.179739 1
gene 1 67 145 0.602906 0 21810 0.602906 1
gene 1 74 145 -0.0818281 0 21817 -0.0818281 1
gene 1 76 145 0.88008 0 21819 0.88008 1
gene 1 82 145 0.710597 0 21825 0.710597 1
gene 1 89 145 0.911233 0 21832 0.911233 1
gene 1 91 145 0.782277 0 21834 0.782277 1
gene 1 93 145 0.266059 0 21836 0.266059 1
gene 1 96 145 0.842778 0 21839 0.842778 1
gene 1 105 145 -0.688918 0 21848 -0.688918 1
gene 1 106 145 0.274303 0 21849 0.274303 1
gene 1 112 145 0.995789 0 21855 0.995789 1
gene 1 145 145 0.600496 1 21888 0.600496 1
gene 1 148 145 0.93652 1 21891 0.93652 1
gene 1 150 145 -0.612643 1 21893 -0.612643 1
gene 1 1 146 0.690799 0 21895 0.690799 1
gene 1 3 146 -0.436994 0 21897 -0.436994 1
gene 1 7 146 -0.966557 0 21901 -0.966557 1
gene 1 9 146 0.143413 0 21903 0.143413 1
gene 1 10 146 0.50687 0 21904 0.50687 1
gene 1 11 146 0.57475 0 21905 0.57475 1
gene 1 12 146 -0.721089 0 21906 -0.721089 1
gene 1 13 146 0.329714 0 21907 0.329714 1
gene 1 14 146 0.755095 0 21908 0.755095 1
gene 1 18 146 -0.554946 0 21912 -0.554946 1
gene 1 19 146 -0.783186 0 21913 -0.783186 1
gene 1 22 146 0.80206 0 21916 0.80206 1
gene 1 23 146 0.208394 0 21917 0.208394 1
gene 1 29 146 -0.686286 0 21923 -0.686286 1
gene 1 30 146 0.0368902 0 21924 0.0368902 1
gene 1 34 146 -0.14976 0 21928 -0.14976 1
gene 1 38 146 0.414799 0 21932 0.414799 1
gene 1 39 146 -0.914012 0 21933 -0.914012 1
gene 1 45 146 0.768241 0 21939 0.768241 1
gene 1 48 146 0.066858 0 21942 0.066858 1
gene 1 49 146 0.848355 0 21943 0.848355 1
gene 1 50 146 -0.598463 0 21944 -0.598463 1
gene 1 51 146 -0.0687174 0 21945 -0.0687174 1
gene 1 53 146 0.831754 0 21947 0.831754 1
gene 1 58 146 0.606237 0 21952 0.606237 1
gene 1 59 146 0.713294 0 21953 0.713294 1
gene 1 60 146 0.0585473 0 21954 0.0585473 1
gene 1 62 146 0.545559 0 21956 0.545559 1
gene 1 63 146 0.560389 0 21957 0.560389 1
gene 1 65 146 -0.374144 0 21959 -0.374144 1
gene 1 67 146 0.0465503 0 21961 0.0465503 1
gene 1 71 146 0.415566 0 21965 0.415566 1
gene 1 74 146 0.830931 0 21968 0.830931 1
gene 1 78 146 -0.0984719 0 21972 -0.0984719 1
gene 1 79 146 0.358892 0 21973 0.358892 1
gene 1 81 146 -0.973078 0 21975 -0.973078 1
gene 1 84 146 0.30609 0 21978 0.30609 1
gene 1 85 146 -0.836616 0 21979 -0.836616 1
gene 1 86 146 0.711352 0 21980 0.711352 1
gene 1 97 146 0.245288 0 21991 0.245288 1
gene 1 107 146 0.749814 0 22001 0.749814 1
gene 1 108 146 0.982133 0 22002 0.982133 1
gene 1 112 146 -0.333696 0 22006 -0.333696 1
gene 1 145 146 -0.273833 0 22039 -0.273833 1
gene 1 146 146 0.0133734 1 22040 0.0133734 1
gene 1 148 146 -0.933662 1 22042 -0.933662 1
gene 1 151 146 -0.119734 1 22045 -0.119734 1
gene 1 2 147 0.100269 0 22047 0.100269 1
gene 1 5 147 -0.55953 0 22050 -0.55953 1
gene 1 6 147 0.265161 0 22051 0.265161 1
gene 1 9 147 0.00478023 0 22054 0.00478023 1
gene 1 13 147 -0.39952 0 22058 -0.39952 1
gene 1 15 147 0.0526991 0 22060 0.0526991 1
gene 1 16 147 0.316325 0 22061 0.316325 1
gene 1 18 147 -0.00692721 0 22063 -0.00692721 1
gene 1 24 147 0.649838 0 22069 0.649838 1
gene 1 27 147 0.0972734 0 22072 0.0972734 1
gene 1 33 147 -0.38442 0 22078 -0.38442 1
gene 1 35 147 -0.383851 0 22080 -0.383851 1
gene 1 39 147 0.199073 0 22084 0.199073 1
gene 1 42 147 -0.26503 0 22087 -0.26503 1
gene 1 45 147 0.190089 0 22090 0.190089 1
gene 1 46 147 -0.375443 0 22091 -0.375443 1
gene 1 50 147 -0.21172 0 22095 -0.21172 1
gene 1 54 147 0.520594 0 22099 0.520594 1
gene 1 55 147 0.541871 0 22100 0.541871 1
gene 1 56 147 -0.715233 0 22101 -0.715233 1
gene 1 59 147 -0.390177 0 22104 -0.390177 1
gene 1 61 147 -0.662947 0 22106 -0.662947 1
gene 1 65 147 0.877071 0 22110 0.877071 1
gene 1 66 147 -0.37736 0 22111 -0.37736 1
gene 1 76 147 0.897568 0 22121 0.897568 1
gene 1 78 147 0.753368 0 22123 0.753368 1
gene 1 92 147 0.41926 0 22137 0.41926 1
gene 1 93 147 -0.663308 0 22138 -0.663308 1
gene 1 96 147 -0.0880503 0 22141 -0.0880503 1
gene 1 98 147 -0.888045 0 22143 -0.888045 1
gene 1 101 147 -0.91206 0 22146 -0.91206 1
gene 1 103 147 -0.130134 0 22148 -0.130134 1
gene 1 105 147 0.640482 0 22150 0.640482 1
gene 1 106 147 -0.397491 0 22151 -0.397491 1
gene 1 111 147 -0.119235 0 22156 -0.119235 1
gene 1 148 147 0.768771 1 22193 0.768771 1
gene 1 151 147 -0.276028 1 22196 -0.276028 1
gene 1 1 148 -0.242428 0 22197 -0.242428 1
gene 1 2 148 -0.351708 0 22198 -0.351708 1
gene 1 5 148 -0.06791 0 22201 -0.06791 1
gene 1 6 148 -0.287775 0 22202 -0.287775 1
gene 1 10 148 -0.200514 0 22206 -0.200514 1
gene 1 12 148 -0.967087 0 22208 -0.967087 1
gene 1 13 148 0.737025 0 22209 0.737025 1
gene 1 15 148 -0.0425406 0 22211 -0.0425406 1
gene 1 19 148 0.338463 0 22215 0.338463 1
gene 1 29 148 -0.773514 0 22225 -0.773514 1
gene 1 31 148 -0.0013034 0 22227 -0.0013034 1
gene 1 33 148 0.876162 0 22229 0.876162 1
gene 1 48 148 -0.161222 0 22244 -0.161222 1
gene 1 52 148 -0.12588 0 22248 -0.12588 1
gene 1 54 148 0.829488 0 22250 0.829488 1
gene 1 59 148 -0.329125 0 22255 -0.329125 1
gene 1 62 148 0.847812 0 22258 0.847812 1
gene 1 63 148 0.648263 0 22259 0.648263 1
gene 1 64 148 -0.45722 0 22260 -0.45722 1
gene 1 67 148 -0.354877 0 22263 -0.354877 1
gene 1 68 148 0.666717 0 22264 0.666717 1
gene 1 69 148 0.1904 0 22265 0.1904 1
gene 1 71 148 0.0230191 0 22267 0.0230191 1
gene 1 73 148 -0.302852 0 22269 -0.302852 1
gene 1 74 148 0.196749 0 22270 0.196749 1
gene 1 75 148 -0.855038 0 22271 -0.855038 1
gene 1 80 148 0.315285 0 22276 0.315285 1
gene 1 83 148 0.353637 0 22279 0.353637 1
gene 1 86 148 0.404701 0 22282 0.404701 1
gene 1 93 148 0.500756 0 22289 0.500756 1
gene 1 106 148 -0.902935 0 22302 -0.902935 1
gene 1 107 148 -0.252826 0 22303 -0.252826 1
gene 1 109 148 0.0687469 0 22305 0.0687469 1
gene 1 112 148 0.540521 0 22308 0.540521 1
gene 1 145 148 0.467599 0 22341 0.467599 1
gene 1 148 148 -0.0756279 1 22344 -0.0756279 1
gene 1 2 149 -0.902172 0 22349 -0.902172 1
gene 1 3 149 0.323468 0 22350 0.323468 1
gene 1 5 149 0.6798 0 22352 0.6798 1
gene 1 14 149 0.0828715 0 22361 0.0828715 1
gene 1 17 149 -0.956004 0 22364 -0.956004 1
gene 1 20 149 -0.772838 0 22367 -0.772838 1
gene 1 29 149 0.422537 0 22376 0.422537 1
gene 1 31 149 0.999573 0 22378 0.999573 1
gene 1 36 149 0.125249 0 22383 0.125249 1
gene 1 40 149 0.755116 0 22387 0.755116 1
gene 1 43 149 -0.488165 0 22390 -0.488165 1
gene 1 47 149 -0.999988 0 22394 -0.999988 1
gene 1 49 149 0.467678 0 22396 0.467678 1
gene 1 52 149 -0.973377 0 22399 -0.973377 1
gene 1 57 149 -0.670005 0 22404 -0.670005 1
gene 1 64 149 -0.768163 0 22411 -0.768163 1
gene 1 73 149 0.353261 0 22420 0.353261 1
gene 1 84 149 0.679974 0 22431 0.679974 1
gene 1 89 149 -0.45547 0 22436 -0.45547 1
gene 1 94 149 -0.849339 0 22441 -0.849339 1
gene 1 96 149 -0.372919 0 22443 -0.372919 1
gene 1 97 149 0.396653 0 22444 0.396653 1
gene 1 105 149 -0.443574 0 22452 -0.443574 1
gene 1 107 149 0.391479 0 22454 0.391479 1
gene 1 109 149 0.232128 0 22456 0.232128 1
gene 1 110 149 0.827107 0 22457 0.827107 1
gene 1 111 149 0.140054 0 22458 0.140054 1
gene 1 148 149 -0.690219 0 22495 -0.690219 1
gene 1 1 150 0.150057 0 22499 0.150057 1
gene 1 2 150 0.437043 0 22500 0.437043 1
gene 1 6 150 0.473122 0 22504 0.473122 1
gene 1 10 150 -0.672212 0 22508 -0.672212 1
gene 1 14 150 -0.236404 0 22512 -0.236404 1
gene 1 15 150 0.393104 0 22513 0.393104 1
gene 1 21 150 0.0475464 0 22519 0.0475464 1
gene 1 22 150 0.612332 0 22520 0.612332 1
gene 1 24 150 -0.848281 0 22522 -0.848281 1
gene 1 27 150 -0.740939 0 22525 -0.740939 1
gene 1 29 150 0.638673 0 22527 0.638673 1
gene 1 30 150 -0.533287 0 22528 -0.533287 1
gene 1 31 150 0.444627 0 22529 0.444627 1
gene 1 32 150 -0.292525 0 22530 -0.292525 1
gene 1 33 150 0.263407 0 22531 0.263407 1
gene 1 34 150 -0.426592 0 22532 -0.426592 1
gene 1 35 150 -0.0635297 0 22533 -0.0635297 1
gene 1 37 150 -0.462212 0 22535 -0.462212 1
gene 1 38 150 0.330837 0 22536 0.330837 1
gene 1 41 150 0.666659 0 22539 0.666659 1
gene 1 44 150 0.277843 0 22542 0.277843 1
gene 1 58 150 -0.338139 0 22556 -0.338139 1
gene 1 67 150 0.00498967 0 22565 0.00498967 1
gene 1 77 150 0.698286 0 22575 0.698286 1
gene 1 78 150 0.504961 0 22576 0.504961 1
gene 1 80 150 -0.986698 0 22578 -0.986698 1
gene 1 81 150 -0.0143382 0 22579 -0.0143382 1
gene 1 86 150 0.593282 0 22584 0.593282 1
gene 1 90 150 -0.384895 0 22588 -0.384895 1
gene 1 93 150 0.00580549 0 22591 0.00580549 1
gene 1 94 150 -0.317783 0 22592 -0.317783 1
gene 1 100 150 -0.591508 0 22598 -0.591508 1
gene 1 102 150 -0.700909 0 22600 -0.700909 1
gene 1 103 150 -0.536321 0 22601 -0.536321 1
gene 1 112 150 -0.197355 0 22610 -0.197355 1
gene 1 147 150 0.797399 0 22645 0.797399 1
gene 1 150 150 -0.899133 1 22648 -0.899133 1
gene 1 151 150 -0.373159 1 22649 -0.373159 1
gene 1 3 151 -0.43633 0 22652 -0.43633 1
gene 1 4 151 0.131113 0 22653 0.131113 1
gene 1 5 151 0.582513 0 22654 0.582513 1
gene 1 7 151 -0.714394 0 22656 -0.714394 1
gene 1 8 151 -0.949509 0 22657 -0.949509 1
gene 1 11 151 -0.0419813 0 22660 -0.0419813 1
gene 1 12 151 0.558361 0 22661 0.558361 1
gene 1 15 151 -0.805884 0 22664 -0.805884 1
gene 1 17 151 -0.719416 0 22666 -0.719416 1
gene 1 19 151 0.73072 0 22668 0.73072 1
gene 1 22 151 0.707894 0 22671 0.707894 1
gene 1 23 151 0.739135 0 22672 0.739135 1
gene 1 24 151 0.504104 0 22673 0.504104 1
gene 1 29 151 0.255249 0 22678 0.255249 1
gene 1 38 151 0.391786 0 22687 0.391786 1
gene 1 39 151 0.469007 0 22688 0.469007 1
gene 1 40 151 -0.770224 0 22689 -0.770224 1
gene 1 48 151 -0.151349 0 22697 -0.151349 1
gene 1 49 151 -0.468698 0 22698 -0.468698 1
gene 1 58 151 -0.30142 0 22707 -0.30142 1
gene 1 62 151 -0.544339 0 22711 -0.544339 1
gene 1 68 151 -0.469369 0 22717 -0.469369 1
gene 1 81 151 0.553283 0 22730 0.553283 1
gene 1 82 151 0.232094 0 22731 0.232094 1
gene 1 86 151 0.584001 0 22735 0.584001 1
gene 1 87 151 0.413786 0 22736 0.413786 1
gene 1 91 151 0.472656 0 22740 0.472656 1
gene 1 96 151 0.143895 0 22745 0.143895 1
gene 1 98 151 -0.727508 0 22747 -0.727508 1
gene 1 101 151 0.160461 0 22750 0.160461 1
gene 1 103 151 -0.138174 0 22752 -0.138174 1
gene 1 104 151 0.485212 0 22753 0.485212 1
gene 1 107 151 -0.547184 0 22756 -0.547184 1
gene 1 108 151 0.55748 0 22757 0.55748 1
gene 1 109 151 0.139377 0 22758 0.139377 1
gene 1 111 151 -0.0606492 0 22760 -0.0606492 1
gene 1 145 151 -0.0643637 0 22794 -0.0643637 1
gene 1 151 151 -0.952689 1 22800 -0.952689 1
genomeend 0
