genomestart 0
trait 1 0 0 0 0 0 0 0 0 
node 1 1 1 1
node 2 1 1 1
node 3 1 1 1
node 4 1 1 1
node 5 1 1 1
node 6 1 1 1
node 7 1 1 1
node 8 1 1 1
node 9 1 1 1
node 10 1 1 1
node 11 1 1 1
node 12 1 1 1
node 13 1 1 1
node 14 1 1 1
node 15 1 1 1
node 16 1 1 1
node 17 1 1 1
node 18 1 1 1
node 19 1 1 1
node 20 1 1 1
node 21 1 1 1
node 22 1 1 1
node 23 1 1 1
node 24 1 1 1
node 25 1 1 1
node 26 1 1 1
node 27 1 1 1
node 28 1 1 1
node 29 1 1 1
node 30 1 1 1
node 31 1 1 1
node 32 1 1 1
node 33 1 1 1
node 34 1 1 1
node 35 1 1 1
node 36 1 1 1
node 37 1 1 1
node 38 1 1 1
node 39 1 1 1
node 40 1 1 1
node 41 1 1 1
node 42 1 1 1
node 43 1 1 1
node 44 1 1 1
node 45 1 1 1
node 46 1 1 1
node 47 1 1 1
node 48 1 1 1
node 49 1 1 1
node 50 1 1 1
node 51 1 1 1
node 52 1 1 1
node 53 1 1 1
node 54 1 1 1
node 55 1 1 1
node 56 1 1 1
node 57 1 1 1
node 58 1 1 1
node 59 1 1 1
node 60 1 1 1
node 61 1 1 1
node 62 1 1 1
node 63 1 1 1
node 64 1 1 1
node 65 1 1 1
node 66 1 1 1
node 67 1 1 1
node 68 1 1 1
node 69 1 1 1
node 70 1 1 1
node 71 1 1 1
node 72 1 1 1
node 73 1 1 1
node 74 1 1 1
node 75 1 1 1
node 76 1 1 1
node 77 1 1 1
node 78 1 1 1
node 79 1 1 1
node 80 1 1 1
node 81 1 1 1
node 82 1 1 1
node 83 1 1 1
node 84 1 1 1
node 85 1 1 1
node 86 1 1 1
node 87 1 1 1
node 88 1 1 1
node 89 1 1 1
node 90 1 1 1
node 91 1 1 1
node 92 1 1 1
node 93 1 1 1
node 94 1 1 1
node 95 1 1 1
node 96 1 1 1
node 97 1 1 1
node 98 1 1 1
node 99 1 1 1
node 100 1 1 1
node 101 1 1 1
node 102 1 1 1
node 103 1 1 1
node 104 1 1 1
node 105 1 1 1
node 106 1 1 1
node 107 1 1 1
node 108 1 1 1
node 109 1 1 1
node 110 1 1 1
node 111 1 1 3
node 112 1 0 0
node 150 1 0 2
node 151 1 0 2
node 152 1 0 2
node 153 1 0 2
node 154 1 0 2
node 155 1 0 2
node 156 1 0 2
node 157 1 0 2
node 158 1 0 2
node 159 1 0 2
node 160 1 0 2
gene 1 1 112 0.255085 0 17760 0.255085 1
gene 1 5 112 0.325507 0 17764 0.325507 1
gene 1 9 112 0.292403 0 17768 0.292403 1
gene 1 11 112 0.649115 0 17770 0.649115 1
gene 1 15 112 -0.317714 0 17774 -0.317714 1
gene 1 16 112 -0.122776 0 17775 -0.122776 1
gene 1 18 112 -0.189141 0 17777 -0.189141 1
gene 1 22 112 0.333537 0 17781 0.333537 1
gene 1 24 112 0.581024 0 17783 0.581024 1
gene 1 28 112 0.528359 0 17787 0.528359 1
gene 1 45 112 -0.901695 0 17804 -0.901695 1
gene 1 47 112 0.128561 0 17806 0.128561 1
gene 1 49 112 0.653878 0 17808 0.653878 1
gene 1 52 112 -0.910342 0 17811 -0.910342 1
gene 1 69 112 -0.40606 0 17828 -0.40606 1
gene 1 70 112 -0.534732 0 17829 -0.534732 1
gene 1 71 112 0.6859 0 17830 0.6859 1
gene 1 73 112 0.796887 0 17832 0.796887 1
gene 1 80 112 0.42576 0 17839 0.42576 1
gene 1 84 112 -0.766472 0 17843 -0.766472 1
gene 1 88 112 0.328591 0 17847 0.328591 1
gene 1 90 112 -0.211972 0 17849 -0.211972 1
gene 1 92 112 -0.147033 0 17851 -0.147033 1
gene 1 95 112 -0.719658 0 17854 -0.719658 1
gene 1 96 112 -0.628431 0 17855 -0.628431 1
gene 1 104 112 0.997876 0 17863 0.997876 1
gene 1 107 112 -0.623814 0 17866 -0.623814 1
gene 1 110 112 0.988973 0 17869 0.988973 1
gene 1 112 112 -0.887003 1 17871 -0.887003 1
gene 1 153 112 0.604622 1 17912 0.604622 1
gene 1 156 112 0.000616855 1 17915 0.000616855 1
gene 1 157 112 -0.345199 1 17916 -0.345199 1
gene 1 158 112 -0.124604 1 17917 -0.124604 1
gene 1 159 112 0.0245016 1 17918 0.0245016 1
gene 1 3 150 0.396843 0 23842 0.396843 1
gene 1 6 150 -0.109724 0 23845 -0.109724 1
gene 1 9 150 -0.87454 0 23848 -0.87454 1
gene 1 10 150 -0.52548 0 23849 -0.52548 1
gene 1 12 150 0.0517532 0 23851 0.0517532 1
gene 1 15 150 -0.321151 0 23854 -0.321151 1
gene 1 18 150 -0.78726 0 23857 -0.78726 1
gene 1 20 150 0.409647 0 23859 0.409647 1
gene 1 22 150 -0.683041 0 23861 -0.683041 1
gene 1 23 150 -0.662581 0 23862 -0.662581 1
gene 1 24 150 -0.31013 0 23863 -0.31013 1
gene 1 34 150 -0.861263 0 23873 -0.861263 1
gene 1 35 150 -0.45813 0 23874 -0.45813 1
gene 1 36 150 -0.953279 0 23875 -0.953279 1
gene 1 37 150 0.324875 0 23876 0.324875 1
gene 1 38 150 -0.542125 0 23877 -0.542125 1
gene 1 40 150 0.665541 0 23879 0.665541 1
gene 1 43 150 -0.179319 0 23882 -0.179319 1
gene 1 48 150 -0.504599 0 23887 -0.504599 1
gene 1 51 150 -0.21676 0 23890 -0.21676 1
gene 1 58 150 -0.627559 0 23897 -0.627559 1
gene 1 60 150 0.0160304 0 23899 0.0160304 1
gene 1 62 150 -0.588745 0 23901 -0.588745 1
gene 1 64 150 0.379983 0 23903 0.379983 1
gene 1 65 150 -0.231497 0 23904 -0.231497 1
gene 1 66 150 -0.418489 0 23905 -0.418489 1
gene 1 73 150 -0.136977 0 23912 -0.136977 1
gene 1 79 150 -0.373956 0 23918 -0.373956 1
gene 1 80 150 0.102951 0 23919 0.102951 1
gene 1 88 150 -0.79774 0 23927 -0.79774 1
gene 1 89 150 -0.277778 0 23928 -0.277778 1
gene 1 90 150 -0.274523 0 23929 -0.274523 1
gene 1 97 150 -0.858845 0 23936 -0.858845 1
gene 1 101 150 0.5365 0 23940 0.5365 1
gene 1 105 150 0.694635 0 23944 0.694635 1
gene 1 111 150 0.0140158 0 23950 0.0140158 1
gene 1 155 150 0.268013 1 23994 0.268013 1
gene 1 158 150 0.877616 1 23997 0.877616 1
gene 1 159 150 0.506137 1 23998 0.506137 1
gene 1 160 150 -0.538464 1 23999 -0.538464 1
gene 1 2 151 0.687571 0 24001 0.687571 1
gene 1 5 151 -0.531932 0 24004 -0.531932 1
gene 1 7 151 -0.661783 0 24006 -0.661783 1
gene 1 8 151 -0.620165 0 24007 -0.620165 1
gene 1 10 151 0.695928 0 24009 0.695928 1
gene 1 13 151 0.39946 0 24012 0.39946 1
gene 1 14 151 0.0298542 0 24013 0.0298542 1
gene 1 17 151 0.180445 0 24016 0.180445 1
gene 1 19 151 0.674798 0 24018 0.674798 1
gene 1 20 151 -0.457797 0 24019 -0.457797 1
gene 1 22 151 0.923681 0 24021 0.923681 1
gene 1 27 151 -0.0785887 0 24026 -0.0785887 1
gene 1 31 151 0.593857 0 24030 0.593857 1
gene 1 32 151 -0.670956 0 24031 -0.670956 1
gene 1 35 151 0.43298 0 24034 0.43298 1
gene 1 38 151 -0.254712 0 24037 -0.254712 1
gene 1 39 151 -0.656306 0 24038 -0.656306 1
gene 1 44 151 0.352637 0 24043 0.352637 1
gene 1 45 151 -0.459672 0 24044 -0.459672 1
gene 1 48 151 -0.315751 0 24047 -0.315751 1
gene 1 50 151 -0.566754 0 24049 -0.566754 1
gene 1 51 151 -0.00802615 0 24050 -0.00802615 1
gene 1 53 151 0.710616 0 24052 0.710616 1
gene 1 58 151 0.00795311 0 24057 0.00795311 1
gene 1 61 151 -0.0598591 0 24060 -0.0598591 1
gene 1 66 151 0.558741 0 24065 0.558741 1
gene 1 67 151 0.245636 0 24066 0.245636 1
gene 1 70 151 -0.82275 0 24069 -0.82275 1
gene 1 73 151 -0.0535758 0 24072 -0.0535758 1
gene 1 76 151 -0.830053 0 24075 -0.830053 1
gene 1 77 151 -0.174007 0 24076 -0.174007 1
gene 1 80 151 0.91369 0 24079 0.91369 1
gene 1 84 151 0.156767 0 24083 0.156767 1
gene 1 85 151 0.0431337 0 24084 0.0431337 1
gene 1 88 151 -0.0943331 0 24087 -0.0943331 1
gene 1 95 151 0.589185 0 24094 0.589185 1
gene 1 101 151 -0.496167 0 24100 -0.496167 1
gene 1 102 151 0.0624354 0 24101 0.0624354 1
gene 1 107 151 0.160555 0 24106 0.160555 1
gene 1 109 151 0.23713 0 24108 0.23713 1
gene 1 150 151 0.316168 0 24149 0.316168 1
gene 1 152 151 0.483121 1 24151 0.483121 1
gene 1 159 151 0.649279 1 24158 0.649279 1
gene 1 4 152 0.269281 0 24163 0.269281 1
gene 1 5 152 0.804694 0 24164 0.804694 1
gene 1 8 152 -0.88668 0 24167 -0.88668 1
gene 1 26 152 -0.377855 0 24185 -0.377855 1
gene 1 39 152 -0.438631 0 24198 -0.438631 1
gene 1 40 152 -0.960332 0 24199 -0.960332 1
gene 1 43 152 0.191746 0 24202 0.191746 1
gene 1 46 152 -0.632797 0 24205 -0.632797 1
gene 1 54 152 0.80051 0 24213 0.80051 1
gene 1 55 152 -0.202232 0 24214 -0.202232 1
gene 1 56 152 0.763849 0 24215 0.763849 1
gene 1 68 152 -0.564425 0 24227 -0.564425 1
gene 1 69 152 0.970786 0 24228 0.970786 1
gene 1 71 152 -0.0276107 0 24230 -0.0276107 1
gene 1 72 152 0.408352 0 24231 0.408352 1
gene 1 76 152 0.450708 0 24235 0.450708 1
gene 1 78 152 -0.658264 0 24237 -0.658264 1
gene 1 80 152 -0.283736 0 24239 -0.283736 1
gene 1 83 152 0.413421 0 24242 0.413421 1
gene 1 87 152 -0.229439 0 24246 -0.229439 1
gene 1 88 152 0.321212 0 24247 0.321212 1
gene 1 90 152 0.951267 0 24249 0.951267 1
gene 1 95 152 -0.0342286 0 24254 -0.0342286 1
gene 1 100 152 -0.0932808 0 24259 -0.0932808 1
gene 1 102 152 0.928235 0 24261 0.928235 1
gene 1 107 152 0.329855 0 24266 0.329855 1
gene 1 108 152 0.0251606 0 24267 0.0251606 1
gene 1 109 152 0.258249 0 24268 0.258249 1
gene 1 112 152 -0.969306 0 24271 -0.969306 1
gene 1 151 152 0.676001 0 24310 0.676001 1
gene 1 160 152 0.521868 1 24319 0.521868 1
gene 1 7 153 -0.663523 0 24326 -0.663523 1
gene 1 8 153 -0.87956 0 24327 -0.87956 1
gene 1 13 153 -0.792724 0 24332 -0.792724 1
gene 1 31 153 -0.385312 0 24350 -0.385312 1
gene 1 39 153 0.85852 0 24358 0.85852 1
gene 1 40 153 0.72916 0 24359 0.72916 1
gene 1 41 153 0.278365 0 24360 0.278365 1
gene 1 42 153 -0.297361 0 24361 -0.297361 1
gene 1 43 153 -0.528221 0 24362 -0.528221 1
gene 1 44 153 -0.195441 0 24363 -0.195441 1
gene 1 47 153 0.637613 0 24366 0.637613 1
gene 1 53 153 -0.778927 0 24372 -0.778927 1
gene 1 54 153 -0.392157 0 24373 -0.392157 1
gene 1 55 153 0.211341 0 24374 0.211341 1
gene 1 56 153 -0.551135 0 24375 -0.551135 1
gene 1 59 153 0.777711 0 24378 0.777711 1
gene 1 64 153 -0.743201 0 24383 -0.743201 1
gene 1 65 153 0.932507 0 24384 0.932507 1
gene 1 68 153 0.0999945 0 24387 0.0999945 1
gene 1 69 153 0.456305 0 24388 0.456305 1
gene 1 73 153 0.809668 0 24392 0.809668 1
gene 1 75 153 0.321995 0 24394 0.321995 1
gene 1 76 153 -0.673852 0 24395 -0.673852 1
gene 1 81 153 0.707068 0 24400 0.707068 1
gene 1 84 153 -0.770813 0 24403 -0.770813 1
gene 1 85 153 -0.104359 0 24404 -0.104359 1
gene 1 89 153 -0.620892 0 24408 -0.620892 1
gene 1 93 153 -0.0920128 0 24412 -0.0920128 1
gene 1 105 153 0.394843 0 24424 0.394843 1
gene 1 108 153 0.297588 0 24427 0.297588 1
gene 1 111 153 0.0408706 0 24430 0.0408706 1
gene 1 150 153 0.146822 0 24469 0.146822 1
gene 1 152 153 0.303317 0 24471 0.303317 1
gene 1 154 153 -0.987393 1 24473 -0.987393 1
gene 1 155 153 -0.473044 1 24474 -0.473044 1
gene 1 158 153 -0.988536 1 24477 -0.988536 1
gene 1 160 153 -0.0574863 1 24479 -0.0574863 1
gene 1 2 154 0.216197 0 24481 0.216197 1
gene 1 10 154 0.673203 0 24489 0.673203 1
gene 1 12 154 0.98297 0 24491 0.98297 1
gene 1 20 154 -0.949528 0 24499 -0.949528 1
gene 1 26 154 -0.296799 0 24505 -0.296799 1
gene 1 28 154 0.105259 0 24507 0.105259 1
gene 1 32 154 0.752095 0 24511 0.752095 1
gene 1 36 154 0.1991 0 24515 0.1991 1
gene 1 39 154 0.700444 0 24518 0.700444 1
gene 1 41 154 -0.619834 0 24520 -0.619834 1
gene 1 45 154 -0.228789 0 24524 -0.228789 1
gene 1 47 154 0.352426 0 24526 0.352426 1
gene 1 51 154 -0.746324 0 24530 -0.746324 1
gene 1 59 154 0.73104 0 24538 0.73104 1
gene 1 62 154 0.764203 0 24541 0.764203 1
gene 1 63 154 0.939644 0 24542 0.939644 1
gene 1 68 154 0.101599 0 24547 0.101599 1
gene 1 73 154 0.576894 0 24552 0.576894 1
gene 1 74 154 -0.670524 0 24553 -0.670524 1
gene 1 75 154 -0.70125 0 24554 -0.70125 1
gene 1 78 154 -0.655792 0 24557 -0.655792 1
gene 1 80 154 -0.388901 0 24559 -0.388901 1
gene 1 81 154 -0.957966 0 24560 -0.957966 1
gene 1 83 154 -0.951564 0 24562 -0.951564 1
gene 1 94 154 0.297894 0 24573 0.297894 1
gene 1 95 154 0.837754 0 24574 0.837754 1
gene 1 97 154 -0.497165 0 24576 -0.497165 1
gene 1 98 154 -0.301577 0 24577 -0.301577 1
gene 1 100 154 0.674166 0 24579 0.674166 1
gene 1 101 154 0.824544 0 24580 0.824544 1
gene 1 102 154 -0.151644 0 24581 -0.151644 1
gene 1 105 154 -0.0189316 0 24584 -0.0189316 1
gene 1 106 154 -0.821381 0 24585 -0.821381 1
gene 1 109 154 -0.852582 0 24588 -0.852582 1
gene 1 111 154 -0.441249 0 24590 -0.441249 1
gene 1 151 154 -0.589871 0 24630 -0.589871 1
gene 1 154 154 -0.811901 1 24633 -0.811901 1
gene 1 156 154 -0.307911 1 24635 -0.307911 1
gene 1 158 154 0.462381 1 24637 0.462381 1
gene 1 3 155 0.443458 0 24642 0.443458 1
gene 1 4 155 -0.815487 0 24643 -0.815487 1
gene 1 7 155 -0.34086 0 24646 -0.34086 1
gene 1 8 155 -0.6047 0 24647 -0.6047 1
gene 1 12 155 -0.443625 0 24651 -0.443625 1
gene 1 20 155 -0.293246 0 24659 -0.293246 1
gene 1 22 155 -0.119926 0 24661 -0.119926 1
gene 1 29 155 0.0889871 0 24668 0.0889871 1
gene 1 30 155 0.274229 0 24669 0.274229 1
gene 1 33 155 -0.788559 0 24672 -0.788559 1
gene 1 36 155 -0.283592 0 24675 -0.283592 1
gene 1 39 155 0.520804 0 24678 0.520804 1
gene 1 42 155 -0.563312 0 24681 -0.563312 1
gene 1 43 155 -0.715668 0 24682 -0.715668 1
gene 1 46 155 0.143084 0 24685 0.143084 1
gene 1 48 155 0.982982 0 24687 0.982982 1
gene 1 49 155 -0.762824 0 24688 -0.762824 1
gene 1 55 155 -0.735861 0 24694 -0.735861 1
gene 1 56 155 -0.442193 0 24695 -0.442193 1
gene 1 67 155 -0.0791875 0 24706 -0.0791875 1
gene 1 73 155 -0.806678 0 24712 -0.806678 1
gene 1 75 155 -0.108591 0 24714 -0.108591 1
gene 1 79 155 -0.985867 0 24718 -0.985867 1
gene 1 82 155 0.590589 0 24721 0.590589 1
gene 1 83 155 0.158937 0 24722 0.158937 1
gene 1 87 155 -0.422441 0 24726 -0.422441 1
gene 1 92 155 0.527029 0 24731 0.527029 1
gene 1 98 155 -0.683989 0 24737 -0.683989 1
gene 1 101 155 0.358161 0 24740 0.358161 1
gene 1 103 155 0.185745 0 24742 0.185745 1
gene 1 104 155 -0.58186 0 24743 -0.58186 1
gene 1 108 155 -0.913631 0 24747 -0.913631 1
gene 1 109 155 -0.682373 0 24748 -0.682373 1
gene 1 155 155 0.920791 1 24794 0.920791 1
gene 1 157 155 0.989118 1 24796 0.989118 1
gene 1 1 156 -0.39487 0 24800 -0.39487 1
gene 1 2 156 -0.235155 0 24801 -0.235155 1
gene 1 4 156 -0.853497 0 24803 -0.853497 1
gene 1 7 156 0.449262 0 24806 0.449262 1
gene 1 13 156 -0.573208 0 24812 -0.573208 1
gene 1 17 156 0.95411 0 24816 0.95411 1
gene 1 27 156 -0.349046 0 24826 -0.349046 1
gene 1 28 156 -0.852266 0 24827 -0.852266 1
gene 1 32 156 -0.785042 0 24831 -0.785042 1
gene 1 33 156 0.587244 0 24832 0.587244 1
gene 1 39 156 -0.340272 0 24838 -0.340272 1
gene 1 40 156 -0.993909 0 24839 -0.993909 1
gene 1 43 156 0.335288 0 24842 0.335288 1
gene 1 46 156 0.0607856 0 24845 0.0607856 1
gene 1 48 156 -0.626268 0 24847 -0.626268 1
gene 1 49 156 -0.258717 0 24848 -0.258717 1
gene 1 51 156 0.808694 0 24850 0.808694 1
gene 1 58 156 -0.253152 0 24857 -0.253152 1
gene 1 65 156 -0.618282 0 24864 -0.618282 1
gene 1 72 156 0.607773 0 24871 0.607773 1
gene 1 73 156 0.640717 0 24872 0.640717 1
gene 1 77 156 0.482195 0 24876 0.482195 1
gene 1 78 156 0.420035 0 24877 0.420035 1
gene 1 79 156 0.687933 0 24878 0.687933 1
gene 1 81 156 0.0708914 0 24880 0.0708914 1
gene 1 83 156 -0.821646 0 24882 -0.821646 1
gene 1 84 156 -0.567138 0 24883 -0.567138 1
gene 1 87 156 0.0738465 0 24886 0.0738465 1
gene 1 88 156 -0.0423578 0 24887 -0.0423578 1
gene 1 89 156 -0.048933 0 24888 -0.048933 1
gene 1 92 156 0.77671 0 24891 0.77671 1
gene 1 94 156 0.344195 0 24893 0.344195 1
gene 1 95 156 0.504967 0 24894 0.504967 1
gene 1 102 156 0.715949 0 24901 0.715949 1
gene 1 103 156 -0.0481197 0 24902 -0.0481197 1
gene 1 105 156 -0.156193 0 24904 -0.156193 1
gene 1 107 156 -0.0579225 0 24906 -0.0579225 1
gene 1 108 156 0.635943 0 24907 0.635943 1
gene 1 156 156 0.66525 1 24955 0.66525 1
gene 1 157 156 -0.213031 1 24956 -0.213031 1
gene 1 1 157 0.554332 0 24960 0.554332 1
gene 1 3 157 0.304858 0 24962 0.304858 1
gene 1 13 157 0.186783 0 24972 0.186783 1
gene 1 19 157 -0.449419 0 24978 -0.449419 1
gene 1 21 157 -0.767222 0 24980 -0.767222 1
gene 1 23 157 -0.156197 0 24982 -0.156197 1
gene 1 28 157 0.299906 0 24987 0.299906 1
gene 1 35 157 0.97784 0 24994 0.97784 1
gene 1 43 157 0.496268 0 25002 0.496268 1
gene 1 44 157 0.456673 0 25003 0.456673 1
gene 1 48 157 0.168908 0 25007 0.168908 1
gene 1 49 157 -0.803695 0 25008 -0.803695 1
gene 1 51 157 0.485853 0 25010 0.485853 1
gene 1 56 157 0.315743 0 25015 0.315743 1
gene 1 58 157 -0.104514 0 25017 -0.104514 1
gene 1 61 157 -0.585135 0 25020 -0.585135 1
gene 1 63 157 0.503384 0 25022 0.503384 1
gene 1 69 157 -0.0129147 0 25028 -0.0129147 1
gene 1 73 157 -0.209274 0 25032 -0.209274 1
gene 1 75 157 -0.148481 0 25034 -0.148481 1
gene 1 78 157 0.00249376 0 25037 0.00249376 1
gene 1 82 157 -0.245712 0 25041 -0.245712 1
gene 1 83 157 0.00986872 0 25042 0.00986872 1
gene 1 88 157 0.968493 0 25047 0.968493 1
gene 1 94 157 -0.382794 0 25053 -0.382794 1
gene 1 96 157 0.0863051 0 25055 0.0863051 1
gene 1 98 157 -0.523144 0 25057 -0.523144 1
gene 1 101 157 -0.528988 0 25060 -0.528988 1
gene 1 103 157 -0.142709 0 25062 -0.142709 1
gene 1 107 157 0.257304 0 25066 0.257304 1
gene 1 154 157 -0.904874 0 25113 -0.904874 1
gene 1 155 157 -0.506129 0 25114 -0.506129 1
gene 1 159 157 0.632379 1 25118 0.632379 1
gene 1 1 158 -0.600522 0 25120 -0.600522 1
gene 1 2 158 -0.58541 0 25121 -0.58541 1
gene 1 3 158 0.862963 0 25122 0.862963 1
gene 1 8 158 -0.787299 0 25127 -0.787299 1
gene 1 9 158 0.291027 0 25128 0.291027 1
gene 1 18 158 0.960306 0 25137 0.960306 1
gene 1 19 158 0.413918 0 25138 0.413918 1
gene 1 20 158 0.476572 0 25139 0.476572 1
gene 1 23 158 -0.806398 0 25142 -0.806398 1
gene 1 25 158 -0.170865 0 25144 -0.170865 1
gene 1 27 158 0.540293 0 25146 0.540293 1
gene 1 28 158 -0.896411 0 25147 -0.896411 1
gene 1 29 158 -0.87026 0 25148 -0.87026 1
gene 1 30 158 -0.680024 0 25149 -0.680024 1
gene 1 31 158 -0.683327 0 25150 -0.683327 1
gene 1 32 158 -0.859649 0 25151 -0.859649 1
gene 1 38 158 -0.349395 0 25157 -0.349395 1
gene 1 57 158 0.0996697 0 25176 0.0996697 1
gene 1 60 158 0.742981 0 25179 0.742981 1
gene 1 63 158 0.540703 0 25182 0.540703 1
gene 1 69 158 -0.240388 0 25188 -0.240388 1
gene 1 78 158 -0.37698 0 25197 -0.37698 1
gene 1 83 158 -0.580883 0 25202 -0.580883 1
gene 1 84 158 0.951297 0 25203 0.951297 1
gene 1 91 158 -0.545027 0 25210 -0.545027 1
gene 1 97 158 0.733729 0 25216 0.733729 1
gene 1 100 158 0.477006 0 25219 0.477006 1
gene 1 101 158 0.386539 0 25220 0.386539 1
gene 1 102 158 -0.596975 0 25221 -0.596975 1
gene 1 105 158 0.789199 0 25224 0.789199 1
gene 1 109 158 0.35122 0 25228 0.35122 1
gene 1 153 158 0.525941 0 25272 0.525941 1
gene 1 155 158 0.561162 0 25274 0.561162 1
gene 1 157 158 -0.550861 0 25276 -0.550861 1
gene 1 3 159 0.999142 0 25282 0.999142 1
gene 1 4 159 0.492195 0 25283 0.492195 1
gene 1 5 159 0.598454 0 25284 0.598454 1
gene 1 6 159 -0.212748 0 25285 -0.212748 1
gene 1 8 159 0.828168 0 25287 0.828168 1
gene 1 17 159 0.582858 0 25296 0.582858 1
gene 1 23 159 0.927685 0 25302 0.927685 1
gene 1 24 159 -0.0333669 0 25303 -0.0333669 1
gene 1 29 159 0.809798 0 25308 0.809798 1
gene 1 37 159 0.615201 0 25316 0.615201 1
gene 1 39 159 -0.439478 0 25318 -0.439478 1
gene 1 40 159 -0.30337 0 25319 -0.30337 1
gene 1 47 159 0.376569 0 25326 0.376569 1
gene 1 48 159 0.747025 0 25327 0.747025 1
gene 1 50 159 0.913368 0 25329 0.913368 1
gene 1 51 159 0.114384 0 25330 0.114384 1
gene 1 54 159 -0.886028 0 25333 -0.886028 1
gene 1 60 159 0.47594 0 25339 0.47594 1
gene 1 63 159 -0.348995 0 25342 -0.348995 1
gene 1 65 159 0.0546565 0 25344 0.0546565 1
gene 1 66 159 -0.180168 0 25345 -0.180168 1
gene 1 68 159 0.299866 0 25347 0.299866 1
gene 1 70 159 0.54599 0 25349 0.54599 1
gene 1 76 159 0.998194 0 25355 0.998194 1
gene 1 77 159 -0.565868 0 25356 -0.565868 1
gene 1 88 159 -0.538193 0 25367 -0.538193 1
gene 1 91 159 -0.191122 0 25370 -0.191122 1
gene 1 92 159 -0.867109 0 25371 -0.867109 1
gene 1 94 159 0.576938 0 25373 0.576938 1
gene 1 103 159 -0.10323 0 25382 -0.10323 1
gene 1 106 159 0.123308 0 25385 0.123308 1
gene 1 109 159 -0.778046 0 25388 -0.778046 1
gene 1 151 159 0.684772 0 25430 0.684772 1
gene 1 160 159 0.822297 1 25439 0.822297 1
gene 1 8 160 0.605756 0 25447 0.605756 1
gene 1 10 160 -0.547975 0 25449 -0.547975 1
gene 1 13 160 -0.141145 0 25452 -0.141145 1
gene 1 14 160 -0.167858 0 25453 -0.167858 1
gene 1 37 160 -0.688261 0 25476 -0.688261 1
gene 1 42 160 0.385893 0 25481 0.385893 1
gene 1 45 160 0.425948 0 25484 0.425948 1
gene 1 49 160 0.0296126 0 25488 0.0296126 1
gene 1 50 160 -0.548264 0 25489 -0.548264 1
gene 1 52 160 0.995067 0 25491 0.995067 1
gene 1 54 160 -0.740204 0 25493 -0.740204 1
gene 1 55 160 0.147949 0 25494 0.147949 1
gene 1 59 160 -0.840555 0 25498 -0.840555 1
gene 1 66 160 -0.491445 0 25505 -0.491445 1
gene 1 67 160 0.0975354 0 25506 0.0975354 1
gene 1 70 160 0.796918 0 25509 0.796918 1
gene 1 74 160 -0.892338 0 25513 -0.892338 1
gene 1 78 160 0.687633 0 25517 0.687633 1
gene 1 79 160 0.0726445 0 25518 0.0726445 1
gene 1 81 160 0.585099 0 25520 0.585099 1
gene 1 85 160 0.147169 0 25524 0.147169 1
gene 1 86 160 0.491857 0 25525 0.491857 1
gene 1 90 160 0.909606 0 25529 0.909606 1
gene 1 93 160 -0.184868 0 25532 -0.184868 1
gene 1 106 160 0.665904 0 25545 0.665904 1
gene 1 107 160 -0.402517 0 25546 -0.402517 1
gene 1 151 160 -0.440001 0 25590 -0.440001 1
gene 1 155 160 -0.246449 0 25594 -0.246449 1
gene 1 160 160 0.0152428 1 25599 0.0152428 1
genomeend 0
