genomestart 0
trait 1 0 0 0 0 0 0 0 0 
node 1 1 1 1
node 2 1 1 1
node 3 1 1 1
node 4 1 1 1
node 5 1 1 1
node 6 1 1 1
node 7 1 1 1
node 8 1 1 1
node 9 1 1 1
node 10 1 1 1
node 11 1 1 1
node 12 1 1 1
node 13 1 1 1
node 14 1 1 1
node 15 1 1 1
node 16 1 1 1
node 17 1 1 1
node 18 1 1 1
node 19 1 1 1
node 20 1 1 1
node 21 1 1 1
node 22 1 1 1
node 23 1 1 1
node 24 1 1 1
node 25 1 1 1
node 26 1 1 1
node 27 1 1 1
node 28 1 1 1
node 29 1 1 1
node 30 1 1 1
node 31 1 1 1
node 32 1 1 1
node 33 1 1 1
node 34 1 1 1
node 35 1 1 1
node 36 1 1 1
node 37 1 1 1
node 38 1 1 1
node 39 1 1 1
node 40 1 1 1
node 41 1 1 1
node 42 1 1 1
node 43 1 1 1
node 44 1 1 1
node 45 1 1 1
node 46 1 1 1
node 47 1 1 1
node 48 1 1 1
node 49 1 1 1
node 50 1 1 1
node 51 1 1 1
node 52 1 1 1
node 53 1 1 1
node 54 1 1 1
node 55 1 1 1
node 56 1 1 1
node 57 1 1 1
node 58 1 1 1
node 59 1 1 1
node 60 1 1 1
node 61 1 1 1
node 62 1 1 1
node 63 1 1 1
node 64 1 1 1
node 65 1 1 1
node 66 1 1 1
node 67 1 1 1
node 68 1 1 1
node 69 1 1 1
node 70 1 1 1
node 71 1 1 1
node 72 1 1 1
node 73 1 1 1
node 74 1 1 1
node 75 1 1 1
node 76 1 1 1
node 77 1 1 1
node 78 1 1 1
node 79 1 1 1
node 80 1 1 1
node 81 1 1 1
node 82 1 1 1
node 83 1 1 1
node 84 1 1 1
node 85 1 1 1
node 86 1 1 1
node 87 1 1 1
node 88 1 1 1
node 89 1 1 1
node 90 1 1 1
node 91 1 1 1
node 92 1 1 1
node 93 1 1 1
node 94 1 1 1
node 95 1 1 1
node 96 1 1 1
node 97 1 1 1
node 98 1 1 1
node 99 1 1 1
node 100 1 1 1
node 101 1 1 1
node 102 1 1 1
node 103 1 1 1
node 104 1 1 1
node 105 1 1 1
node 106 1 1 1
node 107 1 1 1
node 108 1 1 1
node 109 1 1 1
node 110 1 1 1
node 111 1 1 3
node 112 1 0 0
node 136 1 0 2
node 137 1 0 2
node 138 1 0 2
node 139 1 0 2
gene 1 7 112 0.249567 0 15435 0.249567 1
gene 1 8 112 0.0829754 0 15436 0.0829754 1
gene 1 9 112 0.116914 0 15437 0.116914 1
gene 1 16 112 0.968969 0 15444 0.968969 1
gene 1 21 112 -0.46728 0 15449 -0.46728 1
gene 1 23 112 -0.577207 0 15451 -0.577207 1
gene 1 24 112 0.61644 0 15452 0.61644 1
gene 1 26 112 0.933402 0 15454 0.933402 1
gene 1 28 112 0.547629 0 15456 0.547629 1
gene 1 33 112 -0.271061 0 15461 -0.271061 1
gene 1 38 112 0.75108 0 15466 0.75108 1
gene 1 45 112 0.780617 0 15473 0.780617 1
gene 1 46 112 -0.83119 0 15474 -0.83119 1
gene 1 51 112 -0.677487 0 15479 -0.677487 1
gene 1 61 112 -0.188081 0 15489 -0.188081 1
gene 1 62 112 0.731728 0 15490 0.731728 1
gene 1 63 112 0.370295 0 15491 0.370295 1
gene 1 64 112 0.924194 0 15492 0.924194 1
gene 1 67 112 0.293524 0 15495 0.293524 1
gene 1 69 112 0.726026 0 15497 0.726026 1
gene 1 73 112 0.690525 0 15501 0.690525 1
gene 1 76 112 -0.697039 0 15504 -0.697039 1
gene 1 80 112 -0.434761 0 15508 -0.434761 1
gene 1 86 112 0.189672 0 15514 0.189672 1
gene 1 93 112 -0.0454408 0 15521 -0.0454408 1
gene 1 95 112 0.275942 0 15523 0.275942 1
gene 1 98 112 -0.789784 0 15526 -0.789784 1
gene 1 103 112 -0.393138 0 15531 -0.393138 1
gene 1 104 112 -0.215954 0 15532 -0.215954 1
gene 1 106 112 -0.444634 0 15534 -0.444634 1
gene 1 108 112 0.0672728 0 15536 0.0672728 1
gene 1 109 112 0.0635638 0 15537 0.0635638 1
gene 1 136 112 -0.0373763 1 15564 -0.0373763 1
gene 1 4 136 0.97802 0 18768 0.97802 1
gene 1 6 136 0.17173 0 18770 0.17173 1
gene 1 9 136 -0.292956 0 18773 -0.292956 1
gene 1 18 136 -0.55109 0 18782 -0.55109 1
gene 1 24 136 0.553438 0 18788 0.553438 1
gene 1 26 136 -0.0507802 0 18790 -0.0507802 1
gene 1 33 136 -0.184497 0 18797 -0.184497 1
gene 1 40 136 -0.297046 0 18804 -0.297046 1
gene 1 43 136 0.132061 0 18807 0.132061 1
gene 1 44 136 0.367539 0 18808 0.367539 1
gene 1 46 136 -0.108071 0 18810 -0.108071 1
gene 1 49 136 -0.906672 0 18813 -0.906672 1
gene 1 50 136 0.145751 0 18814 0.145751 1
gene 1 52 136 -0.911292 0 18816 -0.911292 1
gene 1 56 136 0.697128 0 18820 0.697128 1
gene 1 61 136 -0.956893 0 18825 -0.956893 1
gene 1 62 136 0.397679 0 18826 0.397679 1
gene 1 63 136 -0.204883 0 18827 -0.204883 1
gene 1 66 136 0.889264 0 18830 0.889264 1
gene 1 72 136 0.371633 0 18836 0.371633 1
gene 1 73 136 0.768592 0 18837 0.768592 1
gene 1 77 136 -0.465382 0 18841 -0.465382 1
gene 1 78 136 0.210792 0 18842 0.210792 1
gene 1 80 136 -0.326509 0 18844 -0.326509 1
gene 1 82 136 0.0419316 0 18846 0.0419316 1
gene 1 83 136 0.990447 0 18847 0.990447 1
gene 1 84 136 0.159356 0 18848 0.159356 1
gene 1 87 136 -0.115407 0 18851 -0.115407 1
gene 1 88 136 0.916681 0 18852 0.916681 1
gene 1 91 136 0.146233 0 18855 0.146233 1
gene 1 96 136 -0.655332 0 18860 -0.655332 1
gene 1 97 136 -0.153795 0 18861 -0.153795 1
gene 1 106 136 -0.101408 0 18870 -0.101408 1
gene 1 107 136 0.0177182 0 18871 0.0177182 1
gene 1 4 137 0.966766 0 18907 0.966766 1
gene 1 7 137 -0.711055 0 18910 -0.711055 1
gene 1 14 137 -0.818047 0 18917 -0.818047 1
gene 1 18 137 -0.385622 0 18921 -0.385622 1
gene 1 25 137 0.734713 0 18928 0.734713 1
gene 1 28 137 0.897919 0 18931 0.897919 1
gene 1 34 137 0.606508 0 18937 0.606508 1
gene 1 35 137 0.0139974 0 18938 0.0139974 1
gene 1 37 137 -0.291529 0 18940 -0.291529 1
gene 1 38 137 -0.246348 0 18941 -0.246348 1
gene 1 42 137 -0.472615 0 18945 -0.472615 1
gene 1 47 137 0.0475462 0 18950 0.0475462 1
gene 1 49 137 -0.483447 0 18952 -0.483447 1
gene 1 51 137 -0.033562 0 18954 -0.033562 1
gene 1 54 137 -0.536696 0 18957 -0.536696 1
gene 1 60 137 0.90537 0 18963 0.90537 1
gene 1 61 137 0.812312 0 18964 0.812312 1
gene 1 65 137 0.428574 0 18968 0.428574 1
gene 1 67 137 -0.674655 0 18970 -0.674655 1
gene 1 70 137 -0.913483 0 18973 -0.913483 1
gene 1 71 137 0.522738 0 18974 0.522738 1
gene 1 77 137 0.889702 0 18980 0.889702 1
gene 1 79 137 -0.304397 0 18982 -0.304397 1
gene 1 85 137 0.473915 0 18988 0.473915 1
gene 1 88 137 0.863158 0 18991 0.863158 1
gene 1 92 137 -0.747284 0 18995 -0.747284 1
gene 1 97 137 -0.384437 0 19000 -0.384437 1
gene 1 101 137 -0.910655 0 19004 -0.910655 1
gene 1 102 137 -0.153928 0 19005 -0.153928 1
gene 1 106 137 -0.939022 0 19009 -0.939022 1
gene 1 108 137 0.572558 0 19011 0.572558 1
gene 1 2 138 -0.723284 0 19044 -0.723284 1
gene 1 3 138 -0.411986 0 19045 -0.411986 1
gene 1 4 138 0.656215 0 19046 0.656215 1
gene 1 6 138 -0.811777 0 19048 -0.811777 1
gene 1 15 138 -0.37174 0 19057 -0.37174 1
gene 1 18 138 0.384926 0 19060 0.384926 1
gene 1 21 138 -0.514905 0 19063 -0.514905 1
gene 1 22 138 -0.565336 0 19064 -0.565336 1
gene 1 23 138 0.275786 0 19065 0.275786 1
gene 1 27 138 0.0480049 0 19069 0.0480049 1
gene 1 28 138 -0.389998 0 19070 -0.389998 1
gene 1 29 138 0.40299 0 19071 0.40299 1
gene 1 30 138 -0.336082 0 19072 -0.336082 1
gene 1 31 138 -0.329658 0 19073 -0.329658 1
gene 1 36 138 0.36052 0 19078 0.36052 1
gene 1 41 138 -0.201816 0 19083 -0.201816 1
gene 1 43 138 0.115029 0 19085 0.115029 1
gene 1 46 138 -0.240957 0 19088 -0.240957 1
gene 1 47 138 -0.161644 0 19089 -0.161644 1
gene 1 52 138 -0.0519307 0 19094 -0.0519307 1
gene 1 55 138 -0.967355 0 19097 -0.967355 1
gene 1 62 138 -0.11992 0 19104 -0.11992 1
gene 1 63 138 -0.927484 0 19105 -0.927484 1
gene 1 64 138 0.837704 0 19106 0.837704 1
gene 1 66 138 -0.68169 0 19108 -0.68169 1
gene 1 68 138 -0.500213 0 19110 -0.500213 1
gene 1 71 138 -0.812097 0 19113 -0.812097 1
gene 1 72 138 -0.75395 0 19114 -0.75395 1
gene 1 74 138 -0.789476 0 19116 -0.789476 1
gene 1 77 138 0.49207 0 19119 0.49207 1
gene 1 81 138 -0.658785 0 19123 -0.658785 1
gene 1 84 138 -0.608447 0 19126 -0.608447 1
gene 1 85 138 0.944925 0 19127 0.944925 1
gene 1 91 138 0.484939 0 19133 0.484939 1
gene 1 92 138 -0.221932 0 19134 -0.221932 1
gene 1 94 138 0.0576236 0 19136 0.0576236 1
gene 1 99 138 -0.850248 0 19141 -0.850248 1
gene 1 102 138 0.526534 0 19144 0.526534 1
gene 1 104 138 0.330798 0 19146 0.330798 1
gene 1 109 138 0.79788 0 19151 0.79788 1
gene 1 112 138 0.826958 0 19154 0.826958 1
gene 1 137 138 0.566639 0 19179 0.566639 1
gene 1 139 138 -0.666433 1 19181 -0.666433 1
gene 1 13 139 0.511587 0 19194 0.511587 1
gene 1 14 139 0.329346 0 19195 0.329346 1
gene 1 16 139 0.594895 0 19197 0.594895 1
gene 1 19 139 -0.611045 0 19200 -0.611045 1
gene 1 20 139 -0.778071 0 19201 -0.778071 1
gene 1 21 139 0.472365 0 19202 0.472365 1
gene 1 22 139 0.79103 0 19203 0.79103 1
gene 1 31 139 -0.517518 0 19212 -0.517518 1
gene 1 35 139 -0.321652 0 19216 -0.321652 1
gene 1 37 139 0.732701 0 19218 0.732701 1
gene 1 40 139 0.376074 0 19221 0.376074 1
gene 1 41 139 -0.0306705 0 19222 -0.0306705 1
gene 1 45 139 0.347295 0 19226 0.347295 1
gene 1 51 139 -0.545138 0 19232 -0.545138 1
gene 1 53 139 -0.596246 0 19234 -0.596246 1
gene 1 54 139 0.987993 0 19235 0.987993 1
gene 1 57 139 0.0952223 0 19238 0.0952223 1
gene 1 58 139 -0.877731 0 19239 -0.877731 1
gene 1 59 139 0.808586 0 19240 0.808586 1
gene 1 67 139 -0.292069 0 19248 -0.292069 1
gene 1 69 139 0.202705 0 19250 0.202705 1
gene 1 77 139 -0.224572 0 19258 -0.224572 1
gene 1 78 139 -0.987491 0 19259 -0.987491 1
gene 1 80 139 -0.694295 0 19261 -0.694295 1
gene 1 82 139 0.324698 0 19263 0.324698 1
gene 1 83 139 0.592114 0 19264 0.592114 1
gene 1 85 139 -0.0188592 0 19266 -0.0188592 1
gene 1 86 139 -0.951548 0 19267 -0.951548 1
gene 1 90 139 -0.291103 0 19271 -0.291103 1
gene 1 91 139 0.074139 0 19272 0.074139 1
gene 1 96 139 0.113257 0 19277 0.113257 1
gene 1 97 139 0.401744 0 19278 0.401744 1
gene 1 110 139 -0.617719 0 19291 -0.617719 1
gene 1 112 139 0.641453 0 19293 0.641453 1
gene 1 136 139 0.574758 0 19317 0.574758 1
genomeend 0
