genomestart 0
trait 1 0 0 0 0 0 0 0 0 
node 1 1 1 1
node 2 1 1 1
node 3 1 1 1
node 4 1 1 1
node 5 1 1 1
node 6 1 1 1
node 7 1 1 1
node 8 1 1 1
node 9 1 1 1
node 10 1 1 1
node 11 1 1 1
node 12 1 1 1
node 13 1 1 1
node 14 1 1 1
node 15 1 1 1
node 16 1 1 1
node 17 1 1 1
node 18 1 1 1
node 19 1 1 1
node 20 1 1 1
node 21 1 1 1
node 22 1 1 1
node 23 1 1 1
node 24 1 1 1
node 25 1 1 1
node 26 1 1 1
node 27 1 1 1
node 28 1 1 1
node 29 1 1 1
node 30 1 1 1
node 31 1 1 1
node 32 1 1 1
node 33 1 1 1
node 34 1 1 1
node 35 1 1 1
node 36 1 1 1
node 37 1 1 1
node 38 1 1 1
node 39 1 1 1
node 40 1 1 1
node 41 1 1 1
node 42 1 1 1
node 43 1 1 1
node 44 1 1 1
node 45 1 1 1
node 46 1 1 1
node 47 1 1 1
node 48 1 1 1
node 49 1 1 1
node 50 1 1 1
node 51 1 1 1
node 52 1 1 1
node 53 1 1 1
node 54 1 1 1
node 55 1 1 1
node 56 1 1 1
node 57 1 1 1
node 58 1 1 1
node 59 1 1 1
node 60 1 1 1
node 61 1 1 1
node 62 1 1 1
node 63 1 1 1
node 64 1 1 1
node 65 1 1 1
node 66 1 1 1
node 67 1 1 1
node 68 1 1 1
node 69 1 1 1
node 70 1 1 1
node 71 1 1 1
node 72 1 1 1
node 73 1 1 1
node 74 1 1 1
node 75 1 1 1
node 76 1 1 1
node 77 1 1 1
node 78 1 1 1
node 79 1 1 1
node 80 1 1 1
node 81 1 1 1
node 82 1 1 1
node 83 1 1 1
node 84 1 1 1
node 85 1 1 1
node 86 1 1 1
node 87 1 1 1
node 88 1 1 1
node 89 1 1 1
node 90 1 1 1
node 91 1 1 1
node 92 1 1 1
node 93 1 1 1
node 94 1 1 1
node 95 1 1 1
node 96 1 1 1
node 97 1 1 1
node 98 1 1 1
node 99 1 1 1
node 100 1 1 1
node 101 1 1 1
node 102 1 1 1
node 103 1 1 1
node 104 1 1 1
node 105 1 1 1
node 106 1 1 1
node 107 1 1 1
node 108 1 1 1
node 109 1 1 1
node 110 1 1 1
node 111 1 1 3
node 112 1 0 0
node 150 1 0 2
node 151 1 0 2
node 152 1 0 2
node 153 1 0 2
node 154 1 0 2
node 155 1 0 2
node 156 1 0 2
node 157 1 0 2
node 158 1 0 2
node 159 1 0 2
node 160 1 0 2
gene 1 1 112 -0.175044 0 17760 -0.175044 1
gene 1 4 112 0.223676 0 17763 0.223676 1
gene 1 5 112 0.990629 0 17764 0.990629 1
gene 1 13 112 0.11531 0 17772 0.11531 1
gene 1 14 112 -0.161361 0 17773 -0.161361 1
gene 1 15 112 0.412077 0 17774 0.412077 1
gene 1 30 112 0.441321 0 17789 0.441321 1
gene 1 31 112 0.97287 0 17790 0.97287 1
gene 1 34 112 0.0980161 0 17793 0.0980161 1
gene 1 45 112 -0.91503 0 17804 -0.91503 1
gene 1 50 112 -0.781399 0 17809 -0.781399 1
gene 1 53 112 0.597259 0 17812 0.597259 1
gene 1 54 112 0.958653 0 17813 0.958653 1
gene 1 56 112 0.18352 0 17815 0.18352 1
gene 1 58 112 -0.504494 0 17817 -0.504494 1
gene 1 59 112 0.843149 0 17818 0.843149 1
gene 1 63 112 -0.351008 0 17822 -0.351008 1
gene 1 64 112 -0.856434 0 17823 -0.856434 1
gene 1 66 112 -0.28434 0 17825 -0.28434 1
gene 1 69 112 -0.811889 0 17828 -0.811889 1
gene 1 70 112 -0.185175 0 17829 -0.185175 1
gene 1 73 112 -0.350361 0 17832 -0.350361 1
gene 1 74 112 -0.41648 0 17833 -0.41648 1
gene 1 80 112 0.350524 0 17839 0.350524 1
gene 1 84 112 -0.834355 0 17843 -0.834355 1
gene 1 85 112 0.894399 0 17844 0.894399 1
gene 1 88 112 0.174142 0 17847 0.174142 1
gene 1 101 112 0.896717 0 17860 0.896717 1
gene 1 102 112 0.732681 0 17861 0.732681 1
gene 1 106 112 0.43539 0 17865 0.43539 1
gene 1 107 112 -0.106282 0 17866 -0.106282 1
gene 1 108 112 -0.0138496 0 17867 -0.0138496 1
gene 1 150 112 0.676886 1 17909 0.676886 1
gene 1 153 112 -0.394296 1 17912 -0.394296 1
gene 1 160 112 -0.497785 1 17919 -0.497785 1
gene 1 1 150 0.205059 0 23840 0.205059 1
gene 1 10 150 -0.318503 0 23849 -0.318503 1
gene 1 13 150 0.557704 0 23852 0.557704 1
gene 1 14 150 0.868482 0 23853 0.868482 1
gene 1 16 150 -0.619328 0 23855 -0.619328 1
gene 1 20 150 -0.662507 0 23859 -0.662507 1
gene 1 22 150 0.837314 0 23861 0.837314 1
gene 1 23 150 -0.247317 0 23862 -0.247317 1
gene 1 30 150 0.597313 0 23869 0.597313 1
gene 1 34 150 0.771949 0 23873 0.771949 1
gene 1 36 150 0.254731 0 23875 0.254731 1
gene 1 37 150 0.727043 0 23876 0.727043 1
gene 1 42 150 -0.420714 0 23881 -0.420714 1
gene 1 44 150 -0.21331 0 23883 -0.21331 1
gene 1 56 150 0.939149 0 23895 0.939149 1
gene 1 57 150 0.876032 0 23896 0.876032 1
gene 1 62 150 0.608187 0 23901 0.608187 1
gene 1 65 150 0.13215 0 23904 0.13215 1
gene 1 68 150 0.3613 0 23907 0.3613 1
gene 1 69 150 0.755169 0 23908 0.755169 1
gene 1 72 150 -0.303127 0 23911 -0.303127 1
gene 1 75 150 -0.68087 0 23914 -0.68087 1
gene 1 78 150 0.206092 0 23917 0.206092 1
gene 1 80 150 0.481459 0 23919 0.481459 1
gene 1 82 150 0.0316891 0 23921 0.0316891 1
gene 1 84 150 0.896117 0 23923 0.896117 1
gene 1 86 150 -0.453322 0 23925 -0.453322 1
gene 1 98 150 0.260853 0 23937 0.260853 1
gene 1 100 150 -0.797043 0 23939 -0.797043 1
gene 1 103 150 -0.935951 0 23942 -0.935951 1
gene 1 105 150 0.110829 0 23944 0.110829 1
gene 1 109 150 0.90714 0 23948 0.90714 1
gene 1 151 150 -0.126737 1 23990 -0.126737 1
gene 1 152 150 0.775369 1 23991 0.775369 1
gene 1 1 151 0.792055 0 24000 0.792055 1
gene 1 4 151 -0.67834 0 24003 -0.67834 1
gene 1 5 151 -0.366704 0 24004 -0.366704 1
gene 1 8 151 -0.22713 0 24007 -0.22713 1
gene 1 10 151 0.527716 0 24009 0.527716 1
gene 1 15 151 0.402507 0 24014 0.402507 1
gene 1 18 151 -0.802799 0 24017 -0.802799 1
gene 1 19 151 -0.190161 0 24018 -0.190161 1
gene 1 22 151 0.808723 0 24021 0.808723 1
gene 1 23 151 -0.654597 0 24022 -0.654597 1
gene 1 24 151 0.664931 0 24023 0.664931 1
gene 1 26 151 0.719581 0 24025 0.719581 1
gene 1 30 151 -0.184514 0 24029 -0.184514 1
gene 1 34 151 0.945223 0 24033 0.945223 1
gene 1 37 151 -0.765998 0 24036 -0.765998 1
gene 1 41 151 0.1708 0 24040 0.1708 1
gene 1 43 151 -0.41703 0 24042 -0.41703 1
gene 1 44 151 -0.405749 0 24043 -0.405749 1
gene 1 46 151 0.41269 0 24045 0.41269 1
gene 1 52 151 -0.745174 0 24051 -0.745174 1
gene 1 56 151 0.13316 0 24055 0.13316 1
gene 1 58 151 -0.0917236 0 24057 -0.0917236 1
gene 1 59 151 0.660126 0 24058 0.660126 1
gene 1 62 151 0.0646211 0 24061 0.0646211 1
gene 1 64 151 0.3017 0 24063 0.3017 1
gene 1 70 151 -0.160063 0 24069 -0.160063 1
gene 1 71 151 -0.195718 0 24070 -0.195718 1
gene 1 73 151 -0.312934 0 24072 -0.312934 1
gene 1 81 151 0.0848945 0 24080 0.0848945 1
gene 1 84 151 -0.498274 0 24083 -0.498274 1
gene 1 88 151 0.692993 0 24087 0.692993 1
gene 1 92 151 -0.183558 0 24091 -0.183558 1
gene 1 100 151 0.273315 0 24099 0.273315 1
gene 1 102 151 -0.620215 0 24101 -0.620215 1
gene 1 103 151 0.740615 0 24102 0.740615 1
gene 1 105 151 -0.563466 0 24104 -0.563466 1
gene 1 106 151 -0.363778 0 24105 -0.363778 1
gene 1 107 151 -0.265261 0 24106 -0.265261 1
gene 1 151 151 0.0650263 1 24150 0.0650263 1
gene 1 156 151 -0.989705 1 24155 -0.989705 1
gene 1 157 151 0.272143 1 24156 0.272143 1
gene 1 158 151 0.086967 1 24157 0.086967 1
gene 1 6 152 0.107931 0 24165 0.107931 1
gene 1 9 152 -0.320986 0 24168 -0.320986 1
gene 1 10 152 -0.675961 0 24169 -0.675961 1
gene 1 11 152 -0.220507 0 24170 -0.220507 1
gene 1 15 152 -0.682933 0 24174 -0.682933 1
gene 1 16 152 0.323547 0 24175 0.323547 1
gene 1 20 152 -0.115106 0 24179 -0.115106 1
gene 1 24 152 0.407812 0 24183 0.407812 1
gene 1 26 152 -0.68863 0 24185 -0.68863 1
gene 1 29 152 0.420818 0 24188 0.420818 1
gene 1 30 152 -0.338852 0 24189 -0.338852 1
gene 1 31 152 0.39187 0 24190 0.39187 1
gene 1 33 152 -0.115246 0 24192 -0.115246 1
gene 1 35 152 0.250394 0 24194 0.250394 1
gene 1 36 152 0.0793041 0 24195 0.0793041 1
gene 1 37 152 0.466305 0 24196 0.466305 1
gene 1 41 152 0.881634 0 24200 0.881634 1
gene 1 44 152 0.787389 0 24203 0.787389 1
gene 1 47 152 0.533261 0 24206 0.533261 1
gene 1 50 152 0.443939 0 24209 0.443939 1
gene 1 53 152 0.497398 0 24212 0.497398 1
gene 1 64 152 -0.0537176 0 24223 -0.0537176 1
gene 1 66 152 0.37133 0 24225 0.37133 1
gene 1 68 152 0.729501 0 24227 0.729501 1
gene 1 72 152 0.832694 0 24231 0.832694 1
gene 1 73 152 -0.0266287 0 24232 -0.0266287 1
gene 1 83 152 -0.00145082 0 24242 -0.00145082 1
gene 1 85 152 -0.987164 0 24244 -0.987164 1
gene 1 97 152 -0.0904243 0 24256 -0.0904243 1
gene 1 99 152 0.458369 0 24258 0.458369 1
gene 1 100 152 -0.912671 0 24259 -0.912671 1
gene 1 103 152 0.640864 0 24262 0.640864 1
gene 1 104 152 -0.597396 0 24263 -0.597396 1
gene 1 106 152 -0.295996 0 24265 -0.295996 1
gene 1 108 152 -0.883562 0 24267 -0.883562 1
gene 1 111 152 -0.628823 0 24270 -0.628823 1
gene 1 153 152 -0.408227 1 24312 -0.408227 1
gene 1 154 152 0.0406982 1 24313 0.0406982 1
gene 1 156 152 0.146667 1 24315 0.146667 1
gene 1 4 153 -0.602984 0 24323 -0.602984 1
gene 1 8 153 0.522351 0 24327 0.522351 1
gene 1 9 153 -0.143878 0 24328 -0.143878 1
gene 1 13 153 -0.532798 0 24332 -0.532798 1
gene 1 15 153 0.642764 0 24334 0.642764 1
gene 1 17 153 0.222209 0 24336 0.222209 1
gene 1 22 153 -0.695274 0 24341 -0.695274 1
gene 1 23 153 0.2104 0 24342 0.2104 1
gene 1 24 153 -0.15714 0 24343 -0.15714 1
gene 1 27 153 -0.487384 0 24346 -0.487384 1
gene 1 28 153 0.586582 0 24347 0.586582 1
gene 1 29 153 0.64489 0 24348 0.64489 1
gene 1 35 153 0.40748 0 24354 0.40748 1
gene 1 39 153 0.297878 0 24358 0.297878 1
gene 1 42 153 -0.697876 0 24361 -0.697876 1
gene 1 43 153 -0.284394 0 24362 -0.284394 1
gene 1 47 153 -0.954017 0 24366 -0.954017 1
gene 1 57 153 -0.886502 0 24376 -0.886502 1
gene 1 67 153 -0.634297 0 24386 -0.634297 1
gene 1 74 153 -0.348381 0 24393 -0.348381 1
gene 1 75 153 0.518591 0 24394 0.518591 1
gene 1 77 153 0.384407 0 24396 0.384407 1
gene 1 79 153 0.0504569 0 24398 0.0504569 1
gene 1 81 153 0.702727 0 24400 0.702727 1
gene 1 82 153 -0.440349 0 24401 -0.440349 1
gene 1 84 153 0.815392 0 24403 0.815392 1
gene 1 90 153 -0.506032 0 24409 -0.506032 1
gene 1 91 153 -0.497945 0 24410 -0.497945 1
gene 1 93 153 -0.941 0 24412 -0.941 1
gene 1 97 153 0.733824 0 24416 0.733824 1
gene 1 100 153 -0.134678 0 24419 -0.134678 1
gene 1 105 153 -0.945025 0 24424 -0.945025 1
gene 1 110 153 0.0787964 0 24429 0.0787964 1
gene 1 150 153 -0.846872 0 24469 -0.846872 1
gene 1 154 153 0.606342 1 24473 0.606342 1
gene 1 156 153 -0.762105 1 24475 -0.762105 1
gene 1 157 153 0.94648 1 24476 0.94648 1
gene 1 159 153 -0.240385 1 24478 -0.240385 1
gene 1 1 154 0.95505 0 24480 0.95505 1
gene 1 6 154 -0.408356 0 24485 -0.408356 1
gene 1 12 154 -0.591616 0 24491 -0.591616 1
gene 1 15 154 0.981907 0 24494 0.981907 1
gene 1 16 154 0.69244 0 24495 0.69244 1
gene 1 20 154 0.667968 0 24499 0.667968 1
gene 1 21 154 -0.1032 0 24500 -0.1032 1
gene 1 24 154 0.131359 0 24503 0.131359 1
gene 1 28 154 0.139482 0 24507 0.139482 1
gene 1 29 154 -0.340236 0 24508 -0.340236 1
gene 1 34 154 0.391485 0 24513 0.391485 1
gene 1 37 154 0.831179 0 24516 0.831179 1
gene 1 44 154 0.257731 0 24523 0.257731 1
gene 1 46 154 0.0278043 0 24525 0.0278043 1
gene 1 47 154 0.46321 0 24526 0.46321 1
gene 1 48 154 -0.976725 0 24527 -0.976725 1
gene 1 64 154 0.102899 0 24543 0.102899 1
gene 1 71 154 0.972355 0 24550 0.972355 1
gene 1 80 154 0.253863 0 24559 0.253863 1
gene 1 83 154 -0.779609 0 24562 -0.779609 1
gene 1 86 154 -0.715742 0 24565 -0.715742 1
gene 1 92 154 0.594165 0 24571 0.594165 1
gene 1 101 154 -0.551145 0 24580 -0.551145 1
gene 1 106 154 0.585977 0 24585 0.585977 1
gene 1 109 154 -0.0872544 0 24588 -0.0872544 1
gene 1 112 154 -0.197158 0 24591 -0.197158 1
gene 1 150 154 0.613354 0 24629 0.613354 1
gene 1 158 154 -0.7823 1 24637 -0.7823 1
gene 1 1 155 -0.205521 0 24640 -0.205521 1
gene 1 2 155 -0.840519 0 24641 -0.840519 1
gene 1 5 155 -0.010988 0 24644 -0.010988 1
gene 1 8 155 -0.0939578 0 24647 -0.0939578 1
gene 1 13 155 -0.887506 0 24652 -0.887506 1
gene 1 15 155 -0.544645 0 24654 -0.544645 1
gene 1 27 155 -0.850336 0 24666 -0.850336 1
gene 1 29 155 0.504008 0 24668 0.504008 1
gene 1 30 155 -0.474661 0 24669 -0.474661 1
gene 1 32 155 0.911839 0 24671 0.911839 1
gene 1 35 155 -0.0364726 0 24674 -0.0364726 1
gene 1 41 155 -0.173262 0 24680 -0.173262 1
gene 1 44 155 -0.676688 0 24683 -0.676688 1
gene 1 45 155 0.213623 0 24684 0.213623 1
gene 1 54 155 0.792448 0 24693 0.792448 1
gene 1 59 155 -0.714025 0 24698 -0.714025 1
gene 1 61 155 0.04783 0 24700 0.04783 1
gene 1 62 155 -0.502945 0 24701 -0.502945 1
gene 1 65 155 -0.213307 0 24704 -0.213307 1
gene 1 69 155 -0.816973 0 24708 -0.816973 1
gene 1 72 155 -0.172876 0 24711 -0.172876 1
gene 1 75 155 0.958703 0 24714 0.958703 1
gene 1 77 155 0.60714 0 24716 0.60714 1
gene 1 79 155 -0.153199 0 24718 -0.153199 1
gene 1 84 155 0.475947 0 24723 0.475947 1
gene 1 85 155 0.17044 0 24724 0.17044 1
gene 1 86 155 0.35667 0 24725 0.35667 1
gene 1 88 155 -0.481069 0 24727 -0.481069 1
gene 1 89 155 -0.165277 0 24728 -0.165277 1
gene 1 91 155 0.200529 0 24730 0.200529 1
gene 1 100 155 0.525078 0 24739 0.525078 1
gene 1 105 155 0.468304 0 24744 0.468304 1
gene 1 110 155 -0.602516 0 24749 -0.602516 1
gene 1 150 155 0.83555 0 24789 0.83555 1
gene 1 157 155 -0.554064 1 24796 -0.554064 1
gene 1 160 155 -0.529509 1 24799 -0.529509 1
gene 1 5 156 0.854757 0 24804 0.854757 1
gene 1 7 156 -0.280661 0 24806 -0.280661 1
gene 1 12 156 -0.628547 0 24811 -0.628547 1
gene 1 14 156 0.230044 0 24813 0.230044 1
gene 1 21 156 -0.198014 0 24820 -0.198014 1
gene 1 28 156 0.458777 0 24827 0.458777 1
gene 1 30 156 0.140383 0 24829 0.140383 1
gene 1 33 156 -0.85554 0 24832 -0.85554 1
gene 1 35 156 -0.284442 0 24834 -0.284442 1
gene 1 38 156 0.793009 0 24837 0.793009 1
gene 1 41 156 -0.482915 0 24840 -0.482915 1
gene 1 43 156 0.483158 0 24842 0.483158 1
gene 1 46 156 -0.719274 0 24845 -0.719274 1
gene 1 53 156 -0.531859 0 24852 -0.531859 1
gene 1 55 156 0.957721 0 24854 0.957721 1
gene 1 60 156 -0.228929 0 24859 -0.228929 1
gene 1 68 156 0.0575051 0 24867 0.0575051 1
gene 1 74 156 0.859525 0 24873 0.859525 1
gene 1 79 156 0.901306 0 24878 0.901306 1
gene 1 81 156 0.689355 0 24880 0.689355 1
gene 1 87 156 0.0673147 0 24886 0.0673147 1
gene 1 94 156 0.606686 0 24893 0.606686 1
gene 1 95 156 0.205754 0 24894 0.205754 1
gene 1 100 156 -0.309289 0 24899 -0.309289 1
gene 1 101 156 -0.280498 0 24900 -0.280498 1
gene 1 151 156 0.547664 0 24950 0.547664 1
gene 1 153 156 0.831825 0 24952 0.831825 1
gene 1 154 156 0.284759 0 24953 0.284759 1
gene 1 156 156 -0.762795 1 24955 -0.762795 1
gene 1 157 156 -0.0335052 1 24956 -0.0335052 1
gene 1 159 156 0.688203 1 24958 0.688203 1
gene 1 160 156 -0.339277 1 24959 -0.339277 1
gene 1 2 157 -0.950423 0 24961 -0.950423 1
gene 1 3 157 -0.819766 0 24962 -0.819766 1
gene 1 4 157 -0.461563 0 24963 -0.461563 1
gene 1 5 157 0.351958 0 24964 0.351958 1
gene 1 8 157 -0.651894 0 24967 -0.651894 1
gene 1 10 157 -0.880509 0 24969 -0.880509 1
gene 1 11 157 0.52571 0 24970 0.52571 1
gene 1 12 157 0.256929 0 24971 0.256929 1
gene 1 15 157 -0.540915 0 24974 -0.540915 1
gene 1 16 157 -0.92864 0 24975 -0.92864 1
gene 1 17 157 -0.361042 0 24976 -0.361042 1
gene 1 23 157 0.0714417 0 24982 0.0714417 1
gene 1 25 157 0.815801 0 24984 0.815801 1
gene 1 28 157 0.122632 0 24987 0.122632 1
gene 1 32 157 0.65419 0 24991 0.65419 1
gene 1 33 157 0.312402 0 24992 0.312402 1
gene 1 35 157 -0.0561296 0 24994 -0.0561296 1
gene 1 36 157 -0.498128 0 24995 -0.498128 1
gene 1 46 157 -0.0654499 0 25005 -0.0654499 1
gene 1 48 157 0.636838 0 25007 0.636838 1
gene 1 52 157 0.502801 0 25011 0.502801 1
gene 1 55 157 0.0877565 0 25014 0.0877565 1
gene 1 57 157 0.87904 0 25016 0.87904 1
gene 1 62 157 -0.209862 0 25021 -0.209862 1
gene 1 63 157 -0.029003 0 25022 -0.029003 1
gene 1 81 157 0.120894 0 25040 0.120894 1
gene 1 87 157 0.123698 0 25046 0.123698 1
gene 1 88 157 -0.161746 0 25047 -0.161746 1
gene 1 89 157 -0.351932 0 25048 -0.351932 1
gene 1 92 157 -0.302337 0 25051 -0.302337 1
gene 1 94 157 0.128338 0 25053 0.128338 1
gene 1 96 157 -0.288755 0 25055 -0.288755 1
gene 1 98 157 -0.562173 0 25057 -0.562173 1
gene 1 101 157 0.636985 0 25060 0.636985 1
gene 1 102 157 -0.561813 0 25061 -0.561813 1
gene 1 105 157 -0.741822 0 25064 -0.741822 1
gene 1 111 157 -0.65016 0 25070 -0.65016 1
gene 1 152 157 0.754409 0 25111 0.754409 1
gene 1 153 157 0.0610353 0 25112 0.0610353 1
gene 1 154 157 -0.279076 0 25113 -0.279076 1
gene 1 158 157 0.263827 1 25117 0.263827 1
gene 1 2 158 -0.794542 0 25121 -0.794542 1
gene 1 3 158 -0.122126 0 25122 -0.122126 1
gene 1 5 158 -0.232847 0 25124 -0.232847 1
gene 1 10 158 0.579661 0 25129 0.579661 1
gene 1 28 158 -0.658854 0 25147 -0.658854 1
gene 1 29 158 -0.557901 0 25148 -0.557901 1
gene 1 34 158 -0.681239 0 25153 -0.681239 1
gene 1 36 158 0.535764 0 25155 0.535764 1
gene 1 37 158 0.207179 0 25156 0.207179 1
gene 1 38 158 0.772968 0 25157 0.772968 1
gene 1 39 158 0.43259 0 25158 0.43259 1
gene 1 40 158 0.0869041 0 25159 0.0869041 1
gene 1 42 158 -0.536326 0 25161 -0.536326 1
gene 1 50 158 0.072361 0 25169 0.072361 1
gene 1 51 158 0.801497 0 25170 0.801497 1
gene 1 52 158 -0.845815 0 25171 -0.845815 1
gene 1 63 158 -0.879699 0 25182 -0.879699 1
gene 1 65 158 -0.0538095 0 25184 -0.0538095 1
gene 1 67 158 0.180066 0 25186 0.180066 1
gene 1 68 158 -0.859539 0 25187 -0.859539 1
gene 1 69 158 -0.272231 0 25188 -0.272231 1
gene 1 74 158 0.564173 0 25193 0.564173 1
gene 1 77 158 0.887291 0 25196 0.887291 1
gene 1 78 158 0.0802076 0 25197 0.0802076 1
gene 1 79 158 0.543785 0 25198 0.543785 1
gene 1 91 158 0.0468086 0 25210 0.0468086 1
gene 1 92 158 0.379076 0 25211 0.379076 1
gene 1 95 158 0.649324 0 25214 0.649324 1
gene 1 98 158 0.274297 0 25217 0.274297 1
gene 1 100 158 -0.999787 0 25219 -0.999787 1
gene 1 103 158 -0.622215 0 25222 -0.622215 1
gene 1 151 158 -0.542214 0 25270 -0.542214 1
gene 1 152 158 -0.0968242 0 25271 -0.0968242 1
gene 1 153 158 0.36623 0 25272 0.36623 1
gene 1 155 158 0.0824143 0 25274 0.0824143 1
gene 1 156 158 -0.548297 0 25275 -0.548297 1
gene 1 1 159 0.365309 0 25280 0.365309 1
gene 1 3 159 0.39804 0 25282 0.39804 1
gene 1 5 159 0.426193 0 25284 0.426193 1
gene 1 7 159 -0.360242 0 25286 -0.360242 1
gene 1 12 159 0.0388036 0 25291 0.0388036 1
gene 1 13 159 -0.750986 0 25292 -0.750986 1
gene 1 16 159 0.507632 0 25295 0.507632 1
gene 1 24 159 -0.529788 0 25303 -0.529788 1
gene 1 32 159 -0.100327 0 25311 -0.100327 1
gene 1 33 159 -0.347291 0 25312 -0.347291 1
gene 1 38 159 0.531719 0 25317 0.531719 1
gene 1 39 159 -0.710205 0 25318 -0.710205 1
gene 1 40 159 0.423065 0 25319 0.423065 1
gene 1 49 159 -0.851335 0 25328 -0.851335 1
gene 1 50 159 -0.163449 0 25329 -0.163449 1
gene 1 51 159 0.324456 0 25330 0.324456 1
gene 1 54 159 -0.25386 0 25333 -0.25386 1
gene 1 57 159 -0.0389074 0 25336 -0.0389074 1
gene 1 59 159 0.640376 0 25338 0.640376 1
gene 1 71 159 -0.0622084 0 25350 -0.0622084 1
gene 1 75 159 0.945345 0 25354 0.945345 1
gene 1 81 159 -0.837339 0 25360 -0.837339 1
gene 1 85 159 -0.116623 0 25364 -0.116623 1
gene 1 86 159 -0.233114 0 25365 -0.233114 1
gene 1 88 159 -0.750749 0 25367 -0.750749 1
gene 1 91 159 -0.371 0 25370 -0.371 1
gene 1 92 159 0.0740775 0 25371 0.0740775 1
gene 1 94 159 -0.349171 0 25373 -0.349171 1
gene 1 98 159 0.8607 0 25377 0.8607 1
gene 1 100 159 0.742725 0 25379 0.742725 1
gene 1 101 159 -0.791 0 25380 -0.791 1
gene 1 103 159 -0.501301 0 25382 -0.501301 1
gene 1 104 159 0.783771 0 25383 0.783771 1
gene 1 106 159 0.794147 0 25385 0.794147 1
gene 1 107 159 -0.691302 0 25386 -0.691302 1
gene 1 111 159 0.243609 0 25390 0.243609 1
gene 1 151 159 -0.908385 0 25430 -0.908385 1
gene 1 155 159 -0.212141 0 25434 -0.212141 1
gene 1 157 159 0.532403 0 25436 0.532403 1
gene 1 159 159 0.114308 1 25438 0.114308 1
gene 1 2 160 0.739871 0 25441 0.739871 1
gene 1 4 160 0.516326 0 25443 0.516326 1
gene 1 11 160 0.408767 0 25450 0.408767 1
gene 1 19 160 0.337267 0 25458 0.337267 1
gene 1 24 160 0.809281 0 25463 0.809281 1
gene 1 27 160 -0.761118 0 25466 -0.761118 1
gene 1 28 160 -0.463626 0 25467 -0.463626 1
gene 1 40 160 0.0342329 0 25479 0.0342329 1
gene 1 45 160 -0.314224 0 25484 -0.314224 1
gene 1 53 160 -0.676162 0 25492 -0.676162 1
gene 1 56 160 -0.922287 0 25495 -0.922287 1
gene 1 58 160 0.665311 0 25497 0.665311 1
gene 1 67 160 -0.647748 0 25506 -0.647748 1
gene 1 68 160 -0.00517042 0 25507 -0.00517042 1
gene 1 75 160 0.861954 0 25514 0.861954 1
gene 1 78 160 0.711481 0 25517 0.711481 1
gene 1 80 160 0.295849 0 25519 0.295849 1
gene 1 83 160 -0.350609 0 25522 -0.350609 1
gene 1 84 160 0.125695 0 25523 0.125695 1
gene 1 96 160 0.42114 0 25535 0.42114 1
gene 1 98 160 0.0286603 0 25537 0.0286603 1
gene 1 101 160 0.786043 0 25540 0.786043 1
gene 1 150 160 0.385966 0 25589 0.385966 1
gene 1 156 160 0.880684 0 25595 0.880684 1
gene 1 160 160 0.428864 1 25599 0.428864 1
genomeend 0
