genomestart 0
trait 1 0 0 0 0 0 0 0 0 
node 1 1 1 1
node 2 1 1 1
node 3 1 1 1
node 4 1 1 1
node 5 1 1 1
node 6 1 1 1
node 7 1 1 1
node 8 1 1 1
node 9 1 1 1
node 10 1 1 1
node 11 1 1 1
node 12 1 1 1
node 13 1 1 1
node 14 1 1 1
node 15 1 1 1
node 16 1 1 1
node 17 1 1 1
node 18 1 1 1
node 19 1 1 1
node 20 1 1 1
node 21 1 1 1
node 22 1 1 1
node 23 1 1 1
node 24 1 1 1
node 25 1 1 1
node 26 1 1 1
node 27 1 1 1
node 28 1 1 1
node 29 1 1 1
node 30 1 1 1
node 31 1 1 1
node 32 1 1 1
node 33 1 1 1
node 34 1 1 1
node 35 1 1 1
node 36 1 1 1
node 37 1 1 1
node 38 1 1 1
node 39 1 1 1
node 40 1 1 1
node 41 1 1 1
node 42 1 1 1
node 43 1 1 1
node 44 1 1 1
node 45 1 1 1
node 46 1 1 1
node 47 1 1 1
node 48 1 1 1
node 49 1 1 1
node 50 1 1 1
node 51 1 1 1
node 52 1 1 1
node 53 1 1 1
node 54 1 1 1
node 55 1 1 1
node 56 1 1 1
node 57 1 1 1
node 58 1 1 1
node 59 1 1 1
node 60 1 1 1
node 61 1 1 1
node 62 1 1 1
node 63 1 1 1
node 64 1 1 1
node 65 1 1 1
node 66 1 1 1
node 67 1 1 1
node 68 1 1 1
node 69 1 1 1
node 70 1 1 1
node 71 1 1 1
node 72 1 1 1
node 73 1 1 1
node 74 1 1 1
node 75 1 1 1
node 76 1 1 1
node 77 1 1 1
node 78 1 1 1
node 79 1 1 1
node 80 1 1 1
node 81 1 1 1
node 82 1 1 1
node 83 1 1 1
node 84 1 1 1
node 85 1 1 1
node 86 1 1 1
node 87 1 1 1
node 88 1 1 1
node 89 1 1 1
node 90 1 1 1
node 91 1 1 1
node 92 1 1 1
node 93 1 1 1
node 94 1 1 1
node 95 1 1 1
node 96 1 1 1
node 97 1 1 1
node 98 1 1 1
node 99 1 1 1
node 100 1 1 1
node 101 1 1 1
node 102 1 1 1
node 103 1 1 1
node 104 1 1 1
node 105 1 1 1
node 106 1 1 1
node 107 1 1 1
node 108 1 1 1
node 109 1 1 1
node 110 1 1 1
node 111 1 1 3
node 112 1 0 0
node 134 1 0 2
node 135 1 0 2
node 136 1 0 2
gene 1 8 112 0.154209 0 15103 0.154209 1
gene 1 11 112 -0.0300649 0 15106 -0.0300649 1
gene 1 15 112 -0.0338074 0 15110 -0.0338074 1
gene 1 16 112 -0.834254 0 15111 -0.834254 1
gene 1 17 112 0.157382 0 15112 0.157382 1
gene 1 23 112 0.806614 0 15118 0.806614 1
gene 1 32 112 0.435837 0 15127 0.435837 1
gene 1 35 112 0.849234 0 15130 0.849234 1
gene 1 39 112 -0.402767 0 15134 -0.402767 1
gene 1 41 112 -0.957393 0 15136 -0.957393 1
gene 1 43 112 0.149472 0 15138 0.149472 1
gene 1 44 112 -0.0863003 0 15139 -0.0863003 1
gene 1 46 112 0.818719 0 15141 0.818719 1
gene 1 50 112 -0.982183 0 15145 -0.982183 1
gene 1 56 112 -0.825845 0 15151 -0.825845 1
gene 1 58 112 -0.74197 0 15153 -0.74197 1
gene 1 60 112 0.223379 0 15155 0.223379 1
gene 1 61 112 0.327707 0 15156 0.327707 1
gene 1 68 112 0.854219 0 15163 0.854219 1
gene 1 73 112 0.970843 0 15168 0.970843 1
gene 1 75 112 -0.656952 0 15170 -0.656952 1
gene 1 77 112 0.389284 0 15172 0.389284 1
gene 1 79 112 -0.6295 0 15174 -0.6295 1
gene 1 84 112 -0.793618 0 15179 -0.793618 1
gene 1 88 112 -0.338034 0 15183 -0.338034 1
gene 1 91 112 -0.535804 0 15186 -0.535804 1
gene 1 94 112 -0.0197047 0 15189 -0.0197047 1
gene 1 100 112 -0.390121 0 15195 -0.390121 1
gene 1 103 112 0.15719 0 15198 0.15719 1
gene 1 106 112 -0.584307 0 15201 -0.584307 1
gene 1 111 112 -0.856928 0 15206 -0.856928 1
gene 1 1 134 0.515031 0 18088 0.515031 1
gene 1 5 134 0.112456 0 18092 0.112456 1
gene 1 7 134 -0.321159 0 18094 -0.321159 1
gene 1 8 134 0.809377 0 18095 0.809377 1
gene 1 17 134 0.482962 0 18104 0.482962 1
gene 1 18 134 -0.209068 0 18105 -0.209068 1
gene 1 19 134 0.63106 0 18106 0.63106 1
gene 1 24 134 -0.519339 0 18111 -0.519339 1
gene 1 27 134 -0.112854 0 18114 -0.112854 1
gene 1 30 134 0.0167881 0 18117 0.0167881 1
gene 1 36 134 -0.117717 0 18123 -0.117717 1
gene 1 37 134 0.940735 0 18124 0.940735 1
gene 1 40 134 -0.189101 0 18127 -0.189101 1
gene 1 48 134 0.299145 0 18135 0.299145 1
gene 1 49 134 0.250817 0 18136 0.250817 1
gene 1 54 134 -0.587252 0 18141 -0.587252 1
gene 1 56 134 -0.268242 0 18143 -0.268242 1
gene 1 59 134 -0.934523 0 18146 -0.934523 1
gene 1 60 134 0.146934 0 18147 0.146934 1
gene 1 62 134 -0.262329 0 18149 -0.262329 1
gene 1 63 134 -0.0232302 0 18150 -0.0232302 1
gene 1 67 134 -0.78064 0 18154 -0.78064 1
gene 1 68 134 -0.523936 0 18155 -0.523936 1
gene 1 69 134 -0.756265 0 18156 -0.756265 1
gene 1 74 134 -0.0875479 0 18161 -0.0875479 1
gene 1 75 134 0.208707 0 18162 0.208707 1
gene 1 79 134 -0.65758 0 18166 -0.65758 1
gene 1 80 134 -0.0189426 0 18167 -0.0189426 1
gene 1 82 134 0.399718 0 18169 0.399718 1
gene 1 86 134 0.712854 0 18173 0.712854 1
gene 1 96 134 -0.59384 0 18183 -0.59384 1
gene 1 97 134 0.0585744 0 18184 0.0585744 1
gene 1 98 134 0.980829 0 18185 0.980829 1
gene 1 99 134 -0.158641 0 18186 -0.158641 1
gene 1 102 134 -0.208641 0 18189 -0.208641 1
gene 1 109 134 -0.909191 0 18196 -0.909191 1
gene 1 110 134 0.512619 0 18197 0.512619 1
gene 1 111 134 0.62806 0 18198 0.62806 1
gene 1 112 134 -0.953422 0 18199 -0.953422 1
gene 1 136 134 0.575377 1 18223 0.575377 1
gene 1 2 135 -0.832726 0 18225 -0.832726 1
gene 1 8 135 0.0542285 0 18231 0.0542285 1
gene 1 9 135 -0.21216 0 18232 -0.21216 1
gene 1 11 135 0.98499 0 18234 0.98499 1
gene 1 15 135 -0.758993 0 18238 -0.758993 1
gene 1 16 135 0.343206 0 18239 0.343206 1
gene 1 29 135 -0.710321 0 18252 -0.710321 1
gene 1 33 135 -0.170924 0 18256 -0.170924 1
gene 1 37 135 -0.368134 0 18260 -0.368134 1
gene 1 41 135 -0.667409 0 18264 -0.667409 1
gene 1 44 135 0.319727 0 18267 0.319727 1
gene 1 45 135 -0.570604 0 18268 -0.570604 1
gene 1 46 135 0.715623 0 18269 0.715623 1
gene 1 48 135 0.0560389 0 18271 0.0560389 1
gene 1 50 135 -0.949597 0 18273 -0.949597 1
gene 1 51 135 0.252123 0 18274 0.252123 1
gene 1 55 135 0.800973 0 18278 0.800973 1
gene 1 61 135 0.99962 0 18284 0.99962 1
gene 1 63 135 0.868347 0 18286 0.868347 1
gene 1 64 135 -0.659154 0 18287 -0.659154 1
gene 1 71 135 -0.458542 0 18294 -0.458542 1
gene 1 74 135 0.919136 0 18297 0.919136 1
gene 1 82 135 0.158933 0 18305 0.158933 1
gene 1 83 135 0.0269182 0 18306 0.0269182 1
gene 1 87 135 -0.406862 0 18310 -0.406862 1
gene 1 89 135 -0.0796329 0 18312 -0.0796329 1
gene 1 95 135 -0.717301 0 18318 -0.717301 1
gene 1 98 135 -0.645181 0 18321 -0.645181 1
gene 1 102 135 -0.270221 0 18325 -0.270221 1
gene 1 105 135 0.539462 0 18328 0.539462 1
gene 1 106 135 -0.87139 0 18329 -0.87139 1
gene 1 109 135 -0.559043 0 18332 -0.559043 1
gene 1 111 135 -0.298532 0 18334 -0.298532 1
gene 1 134 135 -0.306156 0 18357 -0.306156 1
gene 1 12 136 -0.626158 0 18371 -0.626158 1
gene 1 16 136 -0.742019 0 18375 -0.742019 1
gene 1 17 136 0.229506 0 18376 0.229506 1
gene 1 20 136 0.874251 0 18379 0.874251 1
gene 1 24 136 -0.4326 0 18383 -0.4326 1
gene 1 30 136 0.0647789 0 18389 0.0647789 1
gene 1 35 136 0.124985 0 18394 0.124985 1
gene 1 37 136 -0.143123 0 18396 -0.143123 1
gene 1 41 136 -0.0640103 0 18400 -0.0640103 1
gene 1 42 136 0.980877 0 18401 0.980877 1
gene 1 44 136 -0.543226 0 18403 -0.543226 1
gene 1 47 136 0.255007 0 18406 0.255007 1
gene 1 55 136 0.331944 0 18414 0.331944 1
gene 1 56 136 0.337907 0 18415 0.337907 1
gene 1 58 136 0.380551 0 18417 0.380551 1
gene 1 62 136 0.531211 0 18421 0.531211 1
gene 1 69 136 0.220082 0 18428 0.220082 1
gene 1 76 136 -0.263644 0 18435 -0.263644 1
gene 1 80 136 -0.474537 0 18439 -0.474537 1
gene 1 92 136 -0.238918 0 18451 -0.238918 1
gene 1 93 136 0.069421 0 18452 0.069421 1
gene 1 95 136 -0.89081 0 18454 -0.89081 1
gene 1 100 136 0.216836 0 18459 0.216836 1
gene 1 101 136 -0.625713 0 18460 -0.625713 1
gene 1 107 136 0.224777 0 18466 0.224777 1
gene 1 108 136 0.512083 0 18467 0.512083 1
gene 1 110 136 -0.0702813 0 18469 -0.0702813 1
genomeend 0
