genomestart 0
trait 1 0 0 0 0 0 0 0 0 
node 1 1 1 1
node 2 1 1 1
node 3 1 1 1
node 4 1 1 1
node 5 1 1 1
node 6 1 1 1
node 7 1 1 1
node 8 1 1 1
node 9 1 1 1
node 10 1 1 1
node 11 1 1 1
node 12 1 1 1
node 13 1 1 1
node 14 1 1 1
node 15 1 1 1
node 16 1 1 1
node 17 1 1 1
node 18 1 1 1
node 19 1 1 1
node 20 1 1 1
node 21 1 1 1
node 22 1 1 1
node 23 1 1 1
node 24 1 1 1
node 25 1 1 1
node 26 1 1 1
node 27 1 1 1
node 28 1 1 1
node 29 1 1 1
node 30 1 1 1
node 31 1 1 1
node 32 1 1 1
node 33 1 1 1
node 34 1 1 1
node 35 1 1 1
node 36 1 1 1
node 37 1 1 1
node 38 1 1 1
node 39 1 1 1
node 40 1 1 1
node 41 1 1 1
node 42 1 1 1
node 43 1 1 1
node 44 1 1 1
node 45 1 1 1
node 46 1 1 1
node 47 1 1 1
node 48 1 1 1
node 49 1 1 1
node 50 1 1 1
node 51 1 1 1
node 52 1 1 1
node 53 1 1 1
node 54 1 1 1
node 55 1 1 1
node 56 1 1 1
node 57 1 1 1
node 58 1 1 1
node 59 1 1 1
node 60 1 1 1
node 61 1 1 1
node 62 1 1 1
node 63 1 1 1
node 64 1 1 1
node 65 1 1 1
node 66 1 1 1
node 67 1 1 1
node 68 1 1 1
node 69 1 1 1
node 70 1 1 1
node 71 1 1 1
node 72 1 1 1
node 73 1 1 1
node 74 1 1 1
node 75 1 1 1
node 76 1 1 1
node 77 1 1 1
node 78 1 1 1
node 79 1 1 1
node 80 1 1 1
node 81 1 1 1
node 82 1 1 1
node 83 1 1 1
node 84 1 1 1
node 85 1 1 1
node 86 1 1 1
node 87 1 1 1
node 88 1 1 1
node 89 1 1 1
node 90 1 1 1
node 91 1 1 1
node 92 1 1 1
node 93 1 1 1
node 94 1 1 1
node 95 1 1 1
node 96 1 1 1
node 97 1 1 1
node 98 1 1 1
node 99 1 1 1
node 100 1 1 1
node 101 1 1 1
node 102 1 1 1
node 103 1 1 1
node 104 1 1 1
node 105 1 1 1
node 106 1 1 1
node 107 1 1 1
node 108 1 1 1
node 109 1 1 1
node 110 1 1 1
node 111 1 1 3
node 112 1 0 0
node 134 1 0 2
node 135 1 0 2
node 136 1 0 2
gene 1 4 112 0.0138384 0 15099 0.0138384 1
gene 1 5 112 -0.819709 0 15100 -0.819709 1
gene 1 7 112 -0.408463 0 15102 -0.408463 1
gene 1 12 112 0.703852 0 15107 0.703852 1
gene 1 14 112 -0.926131 0 15109 -0.926131 1
gene 1 16 112 -0.542842 0 15111 -0.542842 1
gene 1 19 112 0.412585 0 15114 0.412585 1
gene 1 24 112 -0.852184 0 15119 -0.852184 1
gene 1 25 112 -0.845656 0 15120 -0.845656 1
gene 1 26 112 -0.110161 0 15121 -0.110161 1
gene 1 27 112 0.620436 0 15122 0.620436 1
gene 1 30 112 -0.233161 0 15125 -0.233161 1
gene 1 31 112 -0.521208 0 15126 -0.521208 1
gene 1 36 112 -0.391998 0 15131 -0.391998 1
gene 1 39 112 -0.0367036 0 15134 -0.0367036 1
gene 1 44 112 0.992054 0 15139 0.992054 1
gene 1 46 112 0.739157 0 15141 0.739157 1
gene 1 50 112 0.62326 0 15145 0.62326 1
gene 1 53 112 -0.915079 0 15148 -0.915079 1
gene 1 55 112 0.15989 0 15150 0.15989 1
gene 1 63 112 -0.245134 0 15158 -0.245134 1
gene 1 75 112 -0.668825 0 15170 -0.668825 1
gene 1 81 112 0.500456 0 15176 0.500456 1
gene 1 83 112 -0.826623 0 15178 -0.826623 1
gene 1 88 112 -0.789768 0 15183 -0.789768 1
gene 1 89 112 -0.891967 0 15184 -0.891967 1
gene 1 92 112 -0.775437 0 15187 -0.775437 1
gene 1 102 112 -0.504806 0 15197 -0.504806 1
gene 1 104 112 -0.700509 0 15199 -0.700509 1
gene 1 105 112 0.144789 0 15200 0.144789 1
gene 1 107 112 -0.0639302 0 15202 -0.0639302 1
gene 1 136 112 0.207036 1 15231 0.207036 1
gene 1 3 134 -0.288693 0 18090 -0.288693 1
gene 1 4 134 -0.740246 0 18091 -0.740246 1
gene 1 5 134 0.71428 0 18092 0.71428 1
gene 1 9 134 0.941014 0 18096 0.941014 1
gene 1 11 134 -0.835687 0 18098 -0.835687 1
gene 1 15 134 0.446558 0 18102 0.446558 1
gene 1 22 134 0.440949 0 18109 0.440949 1
gene 1 24 134 -0.132801 0 18111 -0.132801 1
gene 1 30 134 -0.172449 0 18117 -0.172449 1
gene 1 33 134 -0.80633 0 18120 -0.80633 1
gene 1 41 134 0.189849 0 18128 0.189849 1
gene 1 42 134 -0.822901 0 18129 -0.822901 1
gene 1 43 134 0.948278 0 18130 0.948278 1
gene 1 50 134 -0.823282 0 18137 -0.823282 1
gene 1 56 134 0.389245 0 18143 0.389245 1
gene 1 67 134 -0.448533 0 18154 -0.448533 1
gene 1 68 134 -0.312858 0 18155 -0.312858 1
gene 1 69 134 0.680798 0 18156 0.680798 1
gene 1 70 134 -0.369804 0 18157 -0.369804 1
gene 1 72 134 0.285772 0 18159 0.285772 1
gene 1 75 134 0.501411 0 18162 0.501411 1
gene 1 79 134 -0.906987 0 18166 -0.906987 1
gene 1 85 134 -0.824006 0 18172 -0.824006 1
gene 1 88 134 0.727991 0 18175 0.727991 1
gene 1 89 134 -0.254394 0 18176 -0.254394 1
gene 1 96 134 -0.219349 0 18183 -0.219349 1
gene 1 98 134 0.287371 0 18185 0.287371 1
gene 1 102 134 0.309934 0 18189 0.309934 1
gene 1 103 134 0.701514 0 18190 0.701514 1
gene 1 107 134 0.641496 0 18194 0.641496 1
gene 1 109 134 0.835997 0 18196 0.835997 1
gene 1 110 134 -0.118994 0 18197 -0.118994 1
gene 1 111 134 0.0111801 0 18198 0.0111801 1
gene 1 112 134 -0.235621 0 18199 -0.235621 1
gene 1 134 134 -0.388696 1 18221 -0.388696 1
gene 1 135 134 -0.260422 1 18222 -0.260422 1
gene 1 136 134 0.696809 1 18223 0.696809 1
gene 1 3 135 0.0100509 0 18226 0.0100509 1
gene 1 7 135 -0.4609 0 18230 -0.4609 1
gene 1 21 135 -0.923856 0 18244 -0.923856 1
gene 1 25 135 -0.249792 0 18248 -0.249792 1
gene 1 26 135 0.379453 0 18249 0.379453 1
gene 1 29 135 -0.219805 0 18252 -0.219805 1
gene 1 31 135 0.509162 0 18254 0.509162 1
gene 1 33 135 0.421478 0 18256 0.421478 1
gene 1 35 135 -0.0231042 0 18258 -0.0231042 1
gene 1 37 135 -0.103333 0 18260 -0.103333 1
gene 1 39 135 0.340932 0 18262 0.340932 1
gene 1 40 135 0.200196 0 18263 0.200196 1
gene 1 41 135 0.904407 0 18264 0.904407 1
gene 1 43 135 -0.139176 0 18266 -0.139176 1
gene 1 58 135 0.163664 0 18281 0.163664 1
gene 1 59 135 -0.125417 0 18282 -0.125417 1
gene 1 60 135 0.97921 0 18283 0.97921 1
gene 1 61 135 -0.260834 0 18284 -0.260834 1
gene 1 65 135 -0.937508 0 18288 -0.937508 1
gene 1 67 135 -0.549252 0 18290 -0.549252 1
gene 1 74 135 -0.568837 0 18297 -0.568837 1
gene 1 76 135 -0.561458 0 18299 -0.561458 1
gene 1 83 135 0.509174 0 18306 0.509174 1
gene 1 87 135 -0.0872437 0 18310 -0.0872437 1
gene 1 88 135 0.627374 0 18311 0.627374 1
gene 1 90 135 -0.713757 0 18313 -0.713757 1
gene 1 91 135 -0.906255 0 18314 -0.906255 1
gene 1 92 135 0.973116 0 18315 0.973116 1
gene 1 97 135 -0.44114 0 18320 -0.44114 1
gene 1 99 135 -0.433077 0 18322 -0.433077 1
gene 1 100 135 0.363365 0 18323 0.363365 1
gene 1 102 135 0.502648 0 18325 0.502648 1
gene 1 107 135 0.882406 0 18330 0.882406 1
gene 1 108 135 0.740231 0 18331 0.740231 1
gene 1 111 135 -0.820664 0 18334 -0.820664 1
gene 1 134 135 -0.450228 0 18357 -0.450228 1
gene 1 135 135 0.235716 1 18358 0.235716 1
gene 1 5 136 -0.505123 0 18364 -0.505123 1
gene 1 9 136 0.987779 0 18368 0.987779 1
gene 1 12 136 -0.664956 0 18371 -0.664956 1
gene 1 13 136 0.519399 0 18372 0.519399 1
gene 1 15 136 -0.274864 0 18374 -0.274864 1
gene 1 16 136 0.292932 0 18375 0.292932 1
gene 1 17 136 0.659207 0 18376 0.659207 1
gene 1 19 136 0.335454 0 18378 0.335454 1
gene 1 34 136 -0.596753 0 18393 -0.596753 1
gene 1 44 136 -0.342168 0 18403 -0.342168 1
gene 1 57 136 0.903674 0 18416 0.903674 1
gene 1 58 136 0.143339 0 18417 0.143339 1
gene 1 59 136 -0.349447 0 18418 -0.349447 1
gene 1 63 136 0.494501 0 18422 0.494501 1
gene 1 65 136 -0.199583 0 18424 -0.199583 1
gene 1 67 136 0.202894 0 18426 0.202894 1
gene 1 73 136 -0.527074 0 18432 -0.527074 1
gene 1 80 136 -0.150344 0 18439 -0.150344 1
gene 1 87 136 -0.913541 0 18446 -0.913541 1
gene 1 94 136 0.038605 0 18453 0.038605 1
gene 1 104 136 0.727286 0 18463 0.727286 1
gene 1 112 136 -0.768581 0 18471 -0.768581 1
genomeend 0
