genomestart 0
trait 1 0 0 0 0 0 0 0 0 
node 1 1 1 1
node 2 1 1 1
node 3 1 1 1
node 4 1 1 1
node 5 1 1 1
node 6 1 1 1
node 7 1 1 1
node 8 1 1 1
node 9 1 1 1
node 10 1 1 1
node 11 1 1 1
node 12 1 1 1
node 13 1 1 1
node 14 1 1 1
node 15 1 1 1
node 16 1 1 1
node 17 1 1 1
node 18 1 1 1
node 19 1 1 1
node 20 1 1 1
node 21 1 1 1
node 22 1 1 1
node 23 1 1 1
node 24 1 1 1
node 25 1 1 1
node 26 1 1 1
node 27 1 1 1
node 28 1 1 1
node 29 1 1 1
node 30 1 1 1
node 31 1 1 1
node 32 1 1 1
node 33 1 1 1
node 34 1 1 1
node 35 1 1 1
node 36 1 1 1
node 37 1 1 1
node 38 1 1 1
node 39 1 1 1
node 40 1 1 1
node 41 1 1 1
node 42 1 1 1
node 43 1 1 1
node 44 1 1 1
node 45 1 1 1
node 46 1 1 1
node 47 1 1 1
node 48 1 1 1
node 49 1 1 1
node 50 1 1 1
node 51 1 1 1
node 52 1 1 1
node 53 1 1 1
node 54 1 1 1
node 55 1 1 1
node 56 1 1 1
node 57 1 1 1
node 58 1 1 1
node 59 1 1 1
node 60 1 1 1
node 61 1 1 1
node 62 1 1 1
node 63 1 1 1
node 64 1 1 1
node 65 1 1 1
node 66 1 1 1
node 67 1 1 1
node 68 1 1 1
node 69 1 1 1
node 70 1 1 1
node 71 1 1 1
node 72 1 1 1
node 73 1 1 1
node 74 1 1 1
node 75 1 1 1
node 76 1 1 1
node 77 1 1 1
node 78 1 1 1
node 79 1 1 1
node 80 1 1 1
node 81 1 1 1
node 82 1 1 1
node 83 1 1 1
node 84 1 1 1
node 85 1 1 1
node 86 1 1 1
node 87 1 1 1
node 88 1 1 1
node 89 1 1 1
node 90 1 1 1
node 91 1 1 1
node 92 1 1 1
node 93 1 1 1
node 94 1 1 1
node 95 1 1 1
node 96 1 1 1
node 97 1 1 1
node 98 1 1 1
node 99 1 1 1
node 100 1 1 1
node 101 1 1 1
node 102 1 1 1
node 103 1 1 1
node 104 1 1 1
node 105 1 1 1
node 106 1 1 1
node 107 1 1 1
node 108 1 1 1
node 109 1 1 1
node 110 1 1 1
node 111 1 1 3
node 112 1 0 0
node 134 1 0 2
node 135 1 0 2
node 136 1 0 2
gene 1 2 112 -0.477694 0 15097 -0.477694 1
gene 1 4 112 -0.425366 0 15099 -0.425366 1
gene 1 8 112 -0.795514 0 15103 -0.795514 1
gene 1 13 112 0.134792 0 15108 0.134792 1
gene 1 14 112 0.997635 0 15109 0.997635 1
gene 1 15 112 0.224809 0 15110 0.224809 1
gene 1 18 112 0.506564 0 15113 0.506564 1
gene 1 21 112 0.466654 0 15116 0.466654 1
gene 1 23 112 -0.0634217 0 15118 -0.0634217 1
gene 1 27 112 0.320761 0 15122 0.320761 1
gene 1 28 112 -0.8998 0 15123 -0.8998 1
gene 1 30 112 0.810605 0 15125 0.810605 1
gene 1 31 112 -0.104292 0 15126 -0.104292 1
gene 1 32 112 -0.547618 0 15127 -0.547618 1
gene 1 34 112 0.547868 0 15129 0.547868 1
gene 1 36 112 -0.61021 0 15131 -0.61021 1
gene 1 37 112 0.211628 0 15132 0.211628 1
gene 1 39 112 -0.355531 0 15134 -0.355531 1
gene 1 43 112 -0.397617 0 15138 -0.397617 1
gene 1 49 112 -0.428223 0 15144 -0.428223 1
gene 1 50 112 -0.131186 0 15145 -0.131186 1
gene 1 51 112 -0.377672 0 15146 -0.377672 1
gene 1 60 112 -0.60334 0 15155 -0.60334 1
gene 1 64 112 -0.253528 0 15159 -0.253528 1
gene 1 65 112 -0.491222 0 15160 -0.491222 1
gene 1 66 112 0.0534988 0 15161 0.0534988 1
gene 1 69 112 -0.126131 0 15164 -0.126131 1
gene 1 71 112 -0.0526603 0 15166 -0.0526603 1
gene 1 78 112 0.396019 0 15173 0.396019 1
gene 1 80 112 0.398907 0 15175 0.398907 1
gene 1 81 112 -0.0453404 0 15176 -0.0453404 1
gene 1 90 112 -0.587427 0 15185 -0.587427 1
gene 1 93 112 0.805781 0 15188 0.805781 1
gene 1 95 112 -0.840112 0 15190 -0.840112 1
gene 1 97 112 0.21032 0 15192 0.21032 1
gene 1 105 112 -0.268474 0 15200 -0.268474 1
gene 1 108 112 0.573202 0 15203 0.573202 1
gene 1 135 112 0.450345 1 15230 0.450345 1
gene 1 2 134 0.355796 0 18089 0.355796 1
gene 1 3 134 -0.47386 0 18090 -0.47386 1
gene 1 5 134 0.226989 0 18092 0.226989 1
gene 1 6 134 0.744087 0 18093 0.744087 1
gene 1 8 134 -0.294987 0 18095 -0.294987 1
gene 1 9 134 0.273086 0 18096 0.273086 1
gene 1 12 134 -0.702766 0 18099 -0.702766 1
gene 1 18 134 -0.0324292 0 18105 -0.0324292 1
gene 1 19 134 0.589688 0 18106 0.589688 1
gene 1 21 134 -0.628783 0 18108 -0.628783 1
gene 1 23 134 0.817395 0 18110 0.817395 1
gene 1 29 134 0.426681 0 18116 0.426681 1
gene 1 32 134 0.0598475 0 18119 0.0598475 1
gene 1 34 134 0.714578 0 18121 0.714578 1
gene 1 42 134 -0.403242 0 18129 -0.403242 1
gene 1 43 134 0.377121 0 18130 0.377121 1
gene 1 45 134 -0.574018 0 18132 -0.574018 1
gene 1 50 134 -0.0673979 0 18137 -0.0673979 1
gene 1 53 134 0.116945 0 18140 0.116945 1
gene 1 56 134 -0.630595 0 18143 -0.630595 1
gene 1 59 134 0.216482 0 18146 0.216482 1
gene 1 64 134 -0.447792 0 18151 -0.447792 1
gene 1 66 134 0.84728 0 18153 0.84728 1
gene 1 68 134 0.88286 0 18155 0.88286 1
gene 1 69 134 -0.607958 0 18156 -0.607958 1
gene 1 73 134 0.777219 0 18160 0.777219 1
gene 1 78 134 -0.553676 0 18165 -0.553676 1
gene 1 81 134 -0.824198 0 18168 -0.824198 1
gene 1 83 134 0.775669 0 18170 0.775669 1
gene 1 84 134 0.541824 0 18171 0.541824 1
gene 1 86 134 -0.77537 0 18173 -0.77537 1
gene 1 96 134 -0.520095 0 18183 -0.520095 1
gene 1 99 134 -0.365013 0 18186 -0.365013 1
gene 1 101 134 -0.923062 0 18188 -0.923062 1
gene 1 104 134 -0.75332 0 18191 -0.75332 1
gene 1 111 134 0.797013 0 18198 0.797013 1
gene 1 112 134 -0.396427 0 18199 -0.396427 1
gene 1 3 135 -0.319781 0 18226 -0.319781 1
gene 1 6 135 -0.15233 0 18229 -0.15233 1
gene 1 7 135 -0.773499 0 18230 -0.773499 1
gene 1 13 135 -0.30074 0 18236 -0.30074 1
gene 1 20 135 0.124703 0 18243 0.124703 1
gene 1 22 135 0.034066 0 18245 0.034066 1
gene 1 23 135 -0.457609 0 18246 -0.457609 1
gene 1 26 135 0.0527693 0 18249 0.0527693 1
gene 1 27 135 0.666828 0 18250 0.666828 1
gene 1 28 135 -0.482121 0 18251 -0.482121 1
gene 1 32 135 0.0218527 0 18255 0.0218527 1
gene 1 35 135 0.108409 0 18258 0.108409 1
gene 1 38 135 -0.201264 0 18261 -0.201264 1
gene 1 40 135 0.75016 0 18263 0.75016 1
gene 1 45 135 0.314282 0 18268 0.314282 1
gene 1 46 135 -0.0494568 0 18269 -0.0494568 1
gene 1 48 135 0.0237457 0 18271 0.0237457 1
gene 1 54 135 0.757731 0 18277 0.757731 1
gene 1 58 135 0.184733 0 18281 0.184733 1
gene 1 59 135 -0.608856 0 18282 -0.608856 1
gene 1 61 135 -0.965157 0 18284 -0.965157 1
gene 1 68 135 -0.0601484 0 18291 -0.0601484 1
gene 1 69 135 0.300707 0 18292 0.300707 1
gene 1 72 135 -0.552672 0 18295 -0.552672 1
gene 1 73 135 0.109235 0 18296 0.109235 1
gene 1 77 135 -0.00306377 0 18300 -0.00306377 1
gene 1 81 135 0.205341 0 18304 0.205341 1
gene 1 84 135 0.878407 0 18307 0.878407 1
gene 1 89 135 0.891407 0 18312 0.891407 1
gene 1 91 135 -0.611061 0 18314 -0.611061 1
gene 1 93 135 -0.961933 0 18316 -0.961933 1
gene 1 103 135 0.244273 0 18326 0.244273 1
gene 1 104 135 0.203846 0 18327 0.203846 1
gene 1 106 135 0.831807 0 18329 0.831807 1
gene 1 107 135 -0.709677 0 18330 -0.709677 1
gene 1 110 135 0.378788 0 18333 0.378788 1
gene 1 2 136 0.504079 0 18361 0.504079 1
gene 1 3 136 0.0175338 0 18362 0.0175338 1
gene 1 4 136 0.759451 0 18363 0.759451 1
gene 1 8 136 0.427891 0 18367 0.427891 1
gene 1 11 136 0.500295 0 18370 0.500295 1
gene 1 13 136 0.872784 0 18372 0.872784 1
gene 1 15 136 0.202773 0 18374 0.202773 1
gene 1 20 136 0.324267 0 18379 0.324267 1
gene 1 24 136 -0.829157 0 18383 -0.829157 1
gene 1 29 136 0.343478 0 18388 0.343478 1
gene 1 31 136 -0.606277 0 18390 -0.606277 1
gene 1 34 136 -0.880328 0 18393 -0.880328 1
gene 1 35 136 -0.297971 0 18394 -0.297971 1
gene 1 36 136 -0.761146 0 18395 -0.761146 1
gene 1 38 136 -0.651333 0 18397 -0.651333 1
gene 1 40 136 -0.472547 0 18399 -0.472547 1
gene 1 41 136 0.981314 0 18400 0.981314 1
gene 1 48 136 -0.532165 0 18407 -0.532165 1
gene 1 49 136 0.922872 0 18408 0.922872 1
gene 1 50 136 -0.921283 0 18409 -0.921283 1
gene 1 51 136 0.412228 0 18410 0.412228 1
gene 1 52 136 0.138663 0 18411 0.138663 1
gene 1 56 136 0.477886 0 18415 0.477886 1
gene 1 58 136 0.92596 0 18417 0.92596 1
gene 1 64 136 0.599253 0 18423 0.599253 1
gene 1 66 136 -0.3473 0 18425 -0.3473 1
gene 1 68 136 0.730947 0 18427 0.730947 1
gene 1 72 136 -0.537073 0 18431 -0.537073 1
gene 1 73 136 0.800499 0 18432 0.800499 1
gene 1 74 136 0.213033 0 18433 0.213033 1
gene 1 85 136 0.0730199 0 18444 0.0730199 1
gene 1 91 136 -0.346989 0 18450 -0.346989 1
gene 1 95 136 -0.139548 0 18454 -0.139548 1
gene 1 96 136 0.351505 0 18455 0.351505 1
gene 1 97 136 -0.793609 0 18456 -0.793609 1
gene 1 98 136 -0.908572 0 18457 -0.908572 1
gene 1 100 136 0.795948 0 18459 0.795948 1
gene 1 104 136 0.364365 0 18463 0.364365 1
gene 1 106 136 -0.138237 0 18465 -0.138237 1
gene 1 135 136 0.195892 0 18494 0.195892 1
genomeend 0
