genomestart 0
trait 1 0 0 0 0 0 0 0 0 
node 1 1 1 1
node 2 1 1 1
node 3 1 1 1
node 4 1 1 1
node 5 1 1 1
node 6 1 1 1
node 7 1 1 1
node 8 1 1 1
node 9 1 1 1
node 10 1 1 1
node 11 1 1 1
node 12 1 1 1
node 13 1 1 1
node 14 1 1 1
node 15 1 1 1
node 16 1 1 1
node 17 1 1 1
node 18 1 1 1
node 19 1 1 1
node 20 1 1 1
node 21 1 1 1
node 22 1 1 1
node 23 1 1 1
node 24 1 1 1
node 25 1 1 1
node 26 1 1 1
node 27 1 1 1
node 28 1 1 1
node 29 1 1 1
node 30 1 1 1
node 31 1 1 1
node 32 1 1 1
node 33 1 1 1
node 34 1 1 1
node 35 1 1 1
node 36 1 1 1
node 37 1 1 1
node 38 1 1 1
node 39 1 1 1
node 40 1 1 1
node 41 1 1 1
node 42 1 1 1
node 43 1 1 1
node 44 1 1 1
node 45 1 1 1
node 46 1 1 1
node 47 1 1 1
node 48 1 1 1
node 49 1 1 1
node 50 1 1 1
node 51 1 1 1
node 52 1 1 1
node 53 1 1 1
node 54 1 1 1
node 55 1 1 1
node 56 1 1 1
node 57 1 1 1
node 58 1 1 1
node 59 1 1 1
node 60 1 1 1
node 61 1 1 1
node 62 1 1 1
node 63 1 1 1
node 64 1 1 1
node 65 1 1 1
node 66 1 1 1
node 67 1 1 1
node 68 1 1 1
node 69 1 1 1
node 70 1 1 1
node 71 1 1 1
node 72 1 1 1
node 73 1 1 1
node 74 1 1 1
node 75 1 1 1
node 76 1 1 1
node 77 1 1 1
node 78 1 1 1
node 79 1 1 1
node 80 1 1 1
node 81 1 1 1
node 82 1 1 1
node 83 1 1 1
node 84 1 1 1
node 85 1 1 1
node 86 1 1 1
node 87 1 1 1
node 88 1 1 1
node 89 1 1 1
node 90 1 1 1
node 91 1 1 1
node 92 1 1 1
node 93 1 1 1
node 94 1 1 1
node 95 1 1 1
node 96 1 1 1
node 97 1 1 1
node 98 1 1 1
node 99 1 1 1
node 100 1 1 1
node 101 1 1 1
node 102 1 1 1
node 103 1 1 1
node 104 1 1 1
node 105 1 1 1
node 106 1 1 1
node 107 1 1 1
node 108 1 1 1
node 109 1 1 1
node 110 1 1 1
node 111 1 1 3
node 112 1 0 0
node 140 1 0 2
node 141 1 0 2
node 142 1 0 2
node 143 1 0 2
node 144 1 0 2
node 145 1 0 2
gene 1 1 112 0.945015 0 16095 0.945015 1
gene 1 2 112 0.849077 0 16096 0.849077 1
gene 1 4 112 -0.9058 0 16098 -0.9058 1
gene 1 10 112 -0.644657 0 16104 -0.644657 1
gene 1 11 112 -0.664356 0 16105 -0.664356 1
gene 1 21 112 0.0637258 0 16115 0.0637258 1
gene 1 25 112 0.550063 0 16119 0.550063 1
gene 1 26 112 0.248347 0 16120 0.248347 1
gene 1 31 112 -0.675803 0 16125 -0.675803 1
gene 1 32 112 -0.495937 0 16126 -0.495937 1
gene 1 35 112 0.840575 0 16129 0.840575 1
gene 1 37 112 0.339579 0 16131 0.339579 1
gene 1 41 112 0.121308 0 16135 0.121308 1
gene 1 46 112 -0.165621 0 16140 -0.165621 1
gene 1 48 112 -0.490983 0 16142 -0.490983 1
gene 1 57 112 -0.174329 0 16151 -0.174329 1
gene 1 59 112 -0.51131 0 16153 -0.51131 1
gene 1 60 112 -0.387237 0 16154 -0.387237 1
gene 1 64 112 -0.137996 0 16158 -0.137996 1
gene 1 67 112 -0.620208 0 16161 -0.620208 1
gene 1 72 112 0.420738 0 16166 0.420738 1
gene 1 74 112 -0.804676 0 16168 -0.804676 1
gene 1 75 112 0.22894 0 16169 0.22894 1
gene 1 76 112 0.380663 0 16170 0.380663 1
gene 1 78 112 0.450341 0 16172 0.450341 1
gene 1 80 112 -0.80873 0 16174 -0.80873 1
gene 1 87 112 0.768233 0 16181 0.768233 1
gene 1 94 112 0.64221 0 16188 0.64221 1
gene 1 95 112 0.729899 0 16189 0.729899 1
gene 1 100 112 0.157258 0 16194 0.157258 1
gene 1 103 112 0.227428 0 16197 0.227428 1
gene 1 104 112 0.130827 0 16198 0.130827 1
gene 1 105 112 -0.927824 0 16199 -0.927824 1
gene 1 106 112 0.398619 0 16200 0.398619 1
gene 1 107 112 0.380781 0 16201 0.380781 1
gene 1 142 112 0.686298 1 16236 0.686298 1
gene 1 3 140 -0.378056 0 20157 -0.378056 1
gene 1 4 140 0.948578 0 20158 0.948578 1
gene 1 8 140 0.46144 0 20162 0.46144 1
gene 1 9 140 0.997699 0 20163 0.997699 1
gene 1 11 140 0.338015 0 20165 0.338015 1
gene 1 12 140 -0.0500037 0 20166 -0.0500037 1
gene 1 15 140 0.300144 0 20169 0.300144 1
gene 1 17 140 0.82718 0 20171 0.82718 1
gene 1 22 140 -0.472711 0 20176 -0.472711 1
gene 1 31 140 -0.660747 0 20185 -0.660747 1
gene 1 41 140 -0.0749137 0 20195 -0.0749137 1
gene 1 44 140 -0.127263 0 20198 -0.127263 1
gene 1 57 140 -0.184923 0 20211 -0.184923 1
gene 1 60 140 -0.991925 0 20214 -0.991925 1
gene 1 61 140 -0.859799 0 20215 -0.859799 1
gene 1 62 140 0.649261 0 20216 0.649261 1
gene 1 63 140 -0.70592 0 20217 -0.70592 1
gene 1 64 140 -0.965262 0 20218 -0.965262 1
gene 1 69 140 -0.252614 0 20223 -0.252614 1
gene 1 70 140 -0.111621 0 20224 -0.111621 1
gene 1 74 140 0.53222 0 20228 0.53222 1
gene 1 75 140 0.336552 0 20229 0.336552 1
gene 1 77 140 -0.189458 0 20231 -0.189458 1
gene 1 78 140 0.324685 0 20232 0.324685 1
gene 1 80 140 -0.447031 0 20234 -0.447031 1
gene 1 84 140 0.227631 0 20238 0.227631 1
gene 1 85 140 0.305014 0 20239 0.305014 1
gene 1 87 140 -0.81183 0 20241 -0.81183 1
gene 1 89 140 0.323755 0 20243 0.323755 1
gene 1 93 140 0.897753 0 20247 0.897753 1
gene 1 101 140 -0.261411 0 20255 -0.261411 1
gene 1 105 140 0.736451 0 20259 0.736451 1
gene 1 106 140 -0.933253 0 20260 -0.933253 1
gene 1 107 140 0.802835 0 20261 0.802835 1
gene 1 108 140 -0.655209 0 20262 -0.655209 1
gene 1 109 140 -0.968904 0 20263 -0.968904 1
gene 1 111 140 0.981663 0 20265 0.981663 1
gene 1 140 140 -0.302704 1 20294 -0.302704 1
gene 1 141 140 0.871632 1 20295 0.871632 1
gene 1 142 140 -0.824975 1 20296 -0.824975 1
gene 1 143 140 -0.380827 1 20297 -0.380827 1
gene 1 144 140 0.144383 1 20298 0.144383 1
gene 1 1 141 0.395942 0 20300 0.395942 1
gene 1 3 141 -0.551897 0 20302 -0.551897 1
gene 1 4 141 0.680685 0 20303 0.680685 1
gene 1 8 141 -0.302105 0 20307 -0.302105 1
gene 1 10 141 -0.999224 0 20309 -0.999224 1
gene 1 16 141 0.429195 0 20315 0.429195 1
gene 1 17 141 0.366135 0 20316 0.366135 1
gene 1 22 141 -0.455633 0 20321 -0.455633 1
gene 1 25 141 -0.0712317 0 20324 -0.0712317 1
gene 1 29 141 0.984105 0 20328 0.984105 1
gene 1 30 141 0.0634572 0 20329 0.0634572 1
gene 1 33 141 0.7047 0 20332 0.7047 1
gene 1 51 141 -0.372348 0 20350 -0.372348 1
gene 1 52 141 0.0520354 0 20351 0.0520354 1
gene 1 60 141 0.0864945 0 20359 0.0864945 1
gene 1 64 141 0.688589 0 20363 0.688589 1
gene 1 66 141 -0.0495146 0 20365 -0.0495146 1
gene 1 67 141 0.130866 0 20366 0.130866 1
gene 1 69 141 0.120941 0 20368 0.120941 1
gene 1 74 141 -0.486913 0 20373 -0.486913 1
gene 1 76 141 -0.788799 0 20375 -0.788799 1
gene 1 77 141 0.673377 0 20376 0.673377 1
gene 1 80 141 0.323477 0 20379 0.323477 1
gene 1 83 141 0.111281 0 20382 0.111281 1
gene 1 88 141 0.0125157 0 20387 0.0125157 1
gene 1 96 141 -0.693895 0 20395 -0.693895 1
gene 1 97 141 0.733571 0 20396 0.733571 1
gene 1 98 141 -0.327257 0 20397 -0.327257 1
gene 1 102 141 0.513616 0 20401 0.513616 1
gene 1 107 141 0.430454 0 20406 0.430454 1
gene 1 111 141 -0.316018 0 20410 -0.316018 1
gene 1 2 142 0.388811 0 20446 0.388811 1
gene 1 5 142 -0.404912 0 20449 -0.404912 1
gene 1 7 142 -0.906352 0 20451 -0.906352 1
gene 1 9 142 -0.17087 0 20453 -0.17087 1
gene 1 10 142 0.0565011 0 20454 0.0565011 1
gene 1 12 142 -0.623309 0 20456 -0.623309 1
gene 1 14 142 0.15454 0 20458 0.15454 1
gene 1 15 142 -0.52519 0 20459 -0.52519 1
gene 1 18 142 -0.123991 0 20462 -0.123991 1
gene 1 19 142 0.893024 0 20463 0.893024 1
gene 1 31 142 0.628642 0 20475 0.628642 1
gene 1 32 142 0.899002 0 20476 0.899002 1
gene 1 36 142 0.267136 0 20480 0.267136 1
gene 1 37 142 0.205117 0 20481 0.205117 1
gene 1 39 142 0.862638 0 20483 0.862638 1
gene 1 43 142 0.655975 0 20487 0.655975 1
gene 1 44 142 0.0499837 0 20488 0.0499837 1
gene 1 46 142 -0.685034 0 20490 -0.685034 1
gene 1 59 142 0.576052 0 20503 0.576052 1
gene 1 60 142 0.565629 0 20504 0.565629 1
gene 1 65 142 -0.558203 0 20509 -0.558203 1
gene 1 66 142 -0.569065 0 20510 -0.569065 1
gene 1 72 142 -0.822418 0 20516 -0.822418 1
gene 1 73 142 -0.512503 0 20517 -0.512503 1
gene 1 82 142 -0.528108 0 20526 -0.528108 1
gene 1 83 142 -0.689298 0 20527 -0.689298 1
gene 1 86 142 0.934442 0 20530 0.934442 1
gene 1 87 142 0.238462 0 20531 0.238462 1
gene 1 97 142 -0.57284 0 20541 -0.57284 1
gene 1 99 142 -0.809094 0 20543 -0.809094 1
gene 1 102 142 -0.206567 0 20546 -0.206567 1
gene 1 110 142 0.5207 0 20554 0.5207 1
gene 1 111 142 -0.647954 0 20555 -0.647954 1
gene 1 142 142 -0.649971 1 20586 -0.649971 1
gene 1 4 143 -0.50819 0 20593 -0.50819 1
gene 1 5 143 0.0865714 0 20594 0.0865714 1
gene 1 6 143 -0.0846309 0 20595 -0.0846309 1
gene 1 9 143 -0.876016 0 20598 -0.876016 1
gene 1 11 143 0.0978712 0 20600 0.0978712 1
gene 1 12 143 -0.274952 0 20601 -0.274952 1
gene 1 13 143 -0.0226522 0 20602 -0.0226522 1
gene 1 15 143 -0.319143 0 20604 -0.319143 1
gene 1 20 143 0.263995 0 20609 0.263995 1
gene 1 22 143 -0.930788 0 20611 -0.930788 1
gene 1 23 143 -0.87382 0 20612 -0.87382 1
gene 1 24 143 0.518193 0 20613 0.518193 1
gene 1 25 143 0.167316 0 20614 0.167316 1
gene 1 35 143 -0.471881 0 20624 -0.471881 1
gene 1 53 143 0.288577 0 20642 0.288577 1
gene 1 65 143 0.120739 0 20654 0.120739 1
gene 1 66 143 0.153982 0 20655 0.153982 1
gene 1 69 143 -0.670006 0 20658 -0.670006 1
gene 1 70 143 -0.974418 0 20659 -0.974418 1
gene 1 81 143 -0.7245 0 20670 -0.7245 1
gene 1 82 143 -0.193238 0 20671 -0.193238 1
gene 1 91 143 -0.303528 0 20680 -0.303528 1
gene 1 94 143 -0.324438 0 20683 -0.324438 1
gene 1 95 143 -0.352287 0 20684 -0.352287 1
gene 1 100 143 0.890307 0 20689 0.890307 1
gene 1 105 143 0.732722 0 20694 0.732722 1
gene 1 106 143 -0.0369225 0 20695 -0.0369225 1
gene 1 107 143 0.386886 0 20696 0.386886 1
gene 1 111 143 0.188654 0 20700 0.188654 1
gene 1 112 143 -0.0127507 0 20701 -0.0127507 1
gene 1 5 144 -0.2686 0 20739 -0.2686 1
gene 1 6 144 0.475136 0 20740 0.475136 1
gene 1 8 144 0.370101 0 20742 0.370101 1
gene 1 20 144 -0.626408 0 20754 -0.626408 1
gene 1 21 144 0.00751965 0 20755 0.00751965 1
gene 1 23 144 -0.505688 0 20757 -0.505688 1
gene 1 25 144 -0.725163 0 20759 -0.725163 1
gene 1 28 144 0.0843491 0 20762 0.0843491 1
gene 1 29 144 0.504125 0 20763 0.504125 1
gene 1 31 144 0.18046 0 20765 0.18046 1
gene 1 32 144 -0.182715 0 20766 -0.182715 1
gene 1 35 144 -0.580099 0 20769 -0.580099 1
gene 1 42 144 -0.0420635 0 20776 -0.0420635 1
gene 1 48 144 0.108247 0 20782 0.108247 1
gene 1 49 144 0.554044 0 20783 0.554044 1
gene 1 53 144 -0.674986 0 20787 -0.674986 1
gene 1 57 144 0.867337 0 20791 0.867337 1
gene 1 58 144 0.406222 0 20792 0.406222 1
gene 1 60 144 -0.539686 0 20794 -0.539686 1
gene 1 65 144 -0.41662 0 20799 -0.41662 1
gene 1 67 144 0.520488 0 20801 0.520488 1
gene 1 68 144 -0.859342 0 20802 -0.859342 1
gene 1 70 144 -0.297014 0 20804 -0.297014 1
gene 1 76 144 -0.592194 0 20810 -0.592194 1
gene 1 77 144 -0.386376 0 20811 -0.386376 1
gene 1 79 144 0.0379783 0 20813 0.0379783 1
gene 1 82 144 0.520306 0 20816 0.520306 1
gene 1 88 144 0.368944 0 20822 0.368944 1
gene 1 90 144 0.173429 0 20824 0.173429 1
gene 1 91 144 0.829043 0 20825 0.829043 1
gene 1 96 144 -0.279417 0 20830 -0.279417 1
gene 1 104 144 0.636331 0 20838 0.636331 1
gene 1 109 144 0.839943 0 20843 0.839943 1
gene 1 112 144 -0.372602 0 20846 -0.372602 1
gene 1 140 144 -0.190975 0 20874 -0.190975 1
gene 1 144 144 -0.78897 1 20878 -0.78897 1
gene 1 1 145 0.646411 0 20880 0.646411 1
gene 1 4 145 0.768667 0 20883 0.768667 1
gene 1 8 145 0.976043 0 20887 0.976043 1
gene 1 9 145 0.638107 0 20888 0.638107 1
gene 1 13 145 0.31206 0 20892 0.31206 1
gene 1 15 145 0.277607 0 20894 0.277607 1
gene 1 16 145 0.403319 0 20895 0.403319 1
gene 1 20 145 -0.805363 0 20899 -0.805363 1
gene 1 25 145 -0.276801 0 20904 -0.276801 1
gene 1 32 145 0.247254 0 20911 0.247254 1
gene 1 37 145 -0.503176 0 20916 -0.503176 1
gene 1 40 145 0.276885 0 20919 0.276885 1
gene 1 43 145 0.674898 0 20922 0.674898 1
gene 1 48 145 -0.0583861 0 20927 -0.0583861 1
gene 1 51 145 -0.373178 0 20930 -0.373178 1
gene 1 54 145 0.188672 0 20933 0.188672 1
gene 1 55 145 -0.413502 0 20934 -0.413502 1
gene 1 56 145 0.838236 0 20935 0.838236 1
gene 1 57 145 -0.58849 0 20936 -0.58849 1
gene 1 62 145 -0.970245 0 20941 -0.970245 1
gene 1 63 145 0.527273 0 20942 0.527273 1
gene 1 66 145 0.0701416 0 20945 0.0701416 1
gene 1 68 145 -0.958703 0 20947 -0.958703 1
gene 1 69 145 0.195554 0 20948 0.195554 1
gene 1 71 145 0.237904 0 20950 0.237904 1
gene 1 74 145 -0.93733 0 20953 -0.93733 1
gene 1 77 145 -0.951872 0 20956 -0.951872 1
gene 1 80 145 0.0019268 0 20959 0.0019268 1
gene 1 81 145 -0.520114 0 20960 -0.520114 1
gene 1 84 145 0.799332 0 20963 0.799332 1
gene 1 85 145 0.359787 0 20964 0.359787 1
gene 1 87 145 -0.208293 0 20966 -0.208293 1
gene 1 106 145 0.715648 0 20985 0.715648 1
gene 1 109 145 0.457101 0 20988 0.457101 1
gene 1 110 145 -0.503883 0 20989 -0.503883 1
gene 1 143 145 0.822032 0 21022 0.822032 1
gene 1 145 145 0.180728 1 21024 0.180728 1
genomeend 0
