genomestart 0
trait 1 0 0 0 0 0 0 0 0 
node 1 1 1 1
node 2 1 1 1
node 3 1 1 1
node 4 1 1 1
node 5 1 1 1
node 6 1 1 1
node 7 1 1 1
node 8 1 1 1
node 9 1 1 1
node 10 1 1 1
node 11 1 1 1
node 12 1 1 1
node 13 1 1 1
node 14 1 1 1
node 15 1 1 1
node 16 1 1 1
node 17 1 1 1
node 18 1 1 1
node 19 1 1 1
node 20 1 1 1
node 21 1 1 1
node 22 1 1 1
node 23 1 1 1
node 24 1 1 1
node 25 1 1 1
node 26 1 1 1
node 27 1 1 1
node 28 1 1 1
node 29 1 1 1
node 30 1 1 1
node 31 1 1 1
node 32 1 1 1
node 33 1 1 1
node 34 1 1 1
node 35 1 1 1
node 36 1 1 1
node 37 1 1 1
node 38 1 1 1
node 39 1 1 1
node 40 1 1 1
node 41 1 1 1
node 42 1 1 1
node 43 1 1 1
node 44 1 1 1
node 45 1 1 1
node 46 1 1 1
node 47 1 1 1
node 48 1 1 1
node 49 1 1 1
node 50 1 1 1
node 51 1 1 1
node 52 1 1 1
node 53 1 1 1
node 54 1 1 1
node 55 1 1 1
node 56 1 1 1
node 57 1 1 1
node 58 1 1 1
node 59 1 1 1
node 60 1 1 1
node 61 1 1 1
node 62 1 1 1
node 63 1 1 1
node 64 1 1 1
node 65 1 1 1
node 66 1 1 1
node 67 1 1 1
node 68 1 1 1
node 69 1 1 1
node 70 1 1 1
node 71 1 1 1
node 72 1 1 1
node 73 1 1 1
node 74 1 1 1
node 75 1 1 1
node 76 1 1 1
node 77 1 1 1
node 78 1 1 1
node 79 1 1 1
node 80 1 1 1
node 81 1 1 1
node 82 1 1 1
node 83 1 1 1
node 84 1 1 1
node 85 1 1 1
node 86 1 1 1
node 87 1 1 1
node 88 1 1 1
node 89 1 1 1
node 90 1 1 1
node 91 1 1 1
node 92 1 1 1
node 93 1 1 1
node 94 1 1 1
node 95 1 1 1
node 96 1 1 1
node 97 1 1 1
node 98 1 1 1
node 99 1 1 1
node 100 1 1 1
node 101 1 1 1
node 102 1 1 1
node 103 1 1 1
node 104 1 1 1
node 105 1 1 1
node 106 1 1 1
node 107 1 1 1
node 108 1 1 1
node 109 1 1 1
node 110 1 1 1
node 111 1 1 3
node 112 1 0 0
node 150 1 0 2
node 151 1 0 2
node 152 1 0 2
node 153 1 0 2
node 154 1 0 2
node 155 1 0 2
node 156 1 0 2
node 157 1 0 2
node 158 1 0 2
node 159 1 0 2
node 160 1 0 2
gene 1 10 112 -0.233876 0 17769 -0.233876 1
gene 1 11 112 0.473264 0 17770 0.473264 1
gene 1 12 112 0.613561 0 17771 0.613561 1
gene 1 13 112 0.0175062 0 17772 0.0175062 1
gene 1 14 112 0.351761 0 17773 0.351761 1
gene 1 18 112 0.922305 0 17777 0.922305 1
gene 1 29 112 -0.297548 0 17788 -0.297548 1
gene 1 34 112 -0.573883 0 17793 -0.573883 1
gene 1 41 112 -0.462283 0 17800 -0.462283 1
gene 1 44 112 -0.536263 0 17803 -0.536263 1
gene 1 46 112 -0.11292 0 17805 -0.11292 1
gene 1 49 112 0.465897 0 17808 0.465897 1
gene 1 59 112 0.477377 0 17818 0.477377 1
gene 1 70 112 -0.478309 0 17829 -0.478309 1
gene 1 71 112 0.228482 0 17830 0.228482 1
gene 1 72 112 -0.116527 0 17831 -0.116527 1
gene 1 74 112 -0.909113 0 17833 -0.909113 1
gene 1 79 112 0.437683 0 17838 0.437683 1
gene 1 81 112 0.936279 0 17840 0.936279 1
gene 1 82 112 -0.228571 0 17841 -0.228571 1
gene 1 84 112 0.1844 0 17843 0.1844 1
gene 1 87 112 -0.77226 0 17846 -0.77226 1
gene 1 92 112 -0.0161691 0 17851 -0.0161691 1
gene 1 100 112 -0.767514 0 17859 -0.767514 1
gene 1 103 112 0.563382 0 17862 0.563382 1
gene 1 108 112 0.158532 0 17867 0.158532 1
gene 1 109 112 -0.853428 0 17868 -0.853428 1
gene 1 157 112 0.816152 1 17916 0.816152 1
gene 1 158 112 -0.421276 1 17917 -0.421276 1
gene 1 159 112 0.98875 1 17918 0.98875 1
gene 1 1 150 0.501065 0 23840 0.501065 1
gene 1 2 150 0.0944632 0 23841 0.0944632 1
gene 1 5 150 -0.11014 0 23844 -0.11014 1
gene 1 6 150 0.319228 0 23845 0.319228 1
gene 1 11 150 -0.223968 0 23850 -0.223968 1
gene 1 13 150 -0.172233 0 23852 -0.172233 1
gene 1 19 150 0.912293 0 23858 0.912293 1
gene 1 22 150 0.30141 0 23861 0.30141 1
gene 1 23 150 0.693195 0 23862 0.693195 1
gene 1 24 150 -0.232817 0 23863 -0.232817 1
gene 1 26 150 0.039144 0 23865 0.039144 1
gene 1 34 150 0.392543 0 23873 0.392543 1
gene 1 38 150 0.797645 0 23877 0.797645 1
gene 1 47 150 0.402723 0 23886 0.402723 1
gene 1 54 150 -0.103466 0 23893 -0.103466 1
gene 1 55 150 0.145543 0 23894 0.145543 1
gene 1 63 150 -0.200652 0 23902 -0.200652 1
gene 1 64 150 0.206795 0 23903 0.206795 1
gene 1 66 150 -0.681023 0 23905 -0.681023 1
gene 1 69 150 -0.112072 0 23908 -0.112072 1
gene 1 75 150 -0.514515 0 23914 -0.514515 1
gene 1 78 150 -0.509889 0 23917 -0.509889 1
gene 1 79 150 -0.175046 0 23918 -0.175046 1
gene 1 81 150 0.616316 0 23920 0.616316 1
gene 1 94 150 -0.269494 0 23933 -0.269494 1
gene 1 100 150 0.502633 0 23939 0.502633 1
gene 1 103 150 0.133586 0 23942 0.133586 1
gene 1 108 150 -0.258549 0 23947 -0.258549 1
gene 1 152 150 -0.156072 1 23991 -0.156072 1
gene 1 153 150 -0.762001 1 23992 -0.762001 1
gene 1 155 150 0.827015 1 23994 0.827015 1
gene 1 157 150 -0.47698 1 23996 -0.47698 1
gene 1 9 151 0.947346 0 24008 0.947346 1
gene 1 11 151 0.257807 0 24010 0.257807 1
gene 1 12 151 -0.323175 0 24011 -0.323175 1
gene 1 16 151 0.892761 0 24015 0.892761 1
gene 1 17 151 -0.59487 0 24016 -0.59487 1
gene 1 18 151 -0.153306 0 24017 -0.153306 1
gene 1 19 151 0.443164 0 24018 0.443164 1
gene 1 22 151 0.083384 0 24021 0.083384 1
gene 1 23 151 0.392415 0 24022 0.392415 1
gene 1 24 151 -0.278878 0 24023 -0.278878 1
gene 1 28 151 -0.891825 0 24027 -0.891825 1
gene 1 31 151 0.478098 0 24030 0.478098 1
gene 1 34 151 0.317344 0 24033 0.317344 1
gene 1 36 151 0.775393 0 24035 0.775393 1
gene 1 42 151 0.91153 0 24041 0.91153 1
gene 1 47 151 -0.824963 0 24046 -0.824963 1
gene 1 52 151 -0.249244 0 24051 -0.249244 1
gene 1 54 151 0.226504 0 24053 0.226504 1
gene 1 58 151 0.929181 0 24057 0.929181 1
gene 1 65 151 -0.666555 0 24064 -0.666555 1
gene 1 71 151 0.0712347 0 24070 0.0712347 1
gene 1 76 151 -0.798573 0 24075 -0.798573 1
gene 1 79 151 0.542815 0 24078 0.542815 1
gene 1 81 151 0.917245 0 24080 0.917245 1
gene 1 84 151 0.521009 0 24083 0.521009 1
gene 1 93 151 0.677554 0 24092 0.677554 1
gene 1 94 151 -0.49737 0 24093 -0.49737 1
gene 1 95 151 0.278126 0 24094 0.278126 1
gene 1 99 151 -0.133975 0 24098 -0.133975 1
gene 1 102 151 0.119416 0 24101 0.119416 1
gene 1 104 151 -0.90276 0 24103 -0.90276 1
gene 1 105 151 -0.0254415 0 24104 -0.0254415 1
gene 1 107 151 0.704256 0 24106 0.704256 1
gene 1 108 151 -0.360122 0 24107 -0.360122 1
gene 1 112 151 0.146092 0 24111 0.146092 1
gene 1 154 151 -0.653646 1 24153 -0.653646 1
gene 1 159 151 0.0303337 1 24158 0.0303337 1
gene 1 4 152 -0.536876 0 24163 -0.536876 1
gene 1 11 152 0.677953 0 24170 0.677953 1
gene 1 16 152 -0.721637 0 24175 -0.721637 1
gene 1 27 152 0.334495 0 24186 0.334495 1
gene 1 30 152 -0.62611 0 24189 -0.62611 1
gene 1 31 152 0.902857 0 24190 0.902857 1
gene 1 33 152 0.574075 0 24192 0.574075 1
gene 1 39 152 0.765377 0 24198 0.765377 1
gene 1 40 152 -0.543161 0 24199 -0.543161 1
gene 1 42 152 0.646005 0 24201 0.646005 1
gene 1 43 152 0.648193 0 24202 0.648193 1
gene 1 45 152 0.738693 0 24204 0.738693 1
gene 1 47 152 0.146848 0 24206 0.146848 1
gene 1 49 152 -0.268283 0 24208 -0.268283 1
gene 1 52 152 -0.7837 0 24211 -0.7837 1
gene 1 55 152 0.00100094 0 24214 0.00100094 1
gene 1 56 152 0.425501 0 24215 0.425501 1
gene 1 63 152 -0.139237 0 24222 -0.139237 1
gene 1 64 152 -0.946008 0 24223 -0.946008 1
gene 1 66 152 0.922232 0 24225 0.922232 1
gene 1 68 152 0.858571 0 24227 0.858571 1
gene 1 69 152 -0.267372 0 24228 -0.267372 1
gene 1 70 152 0.299489 0 24229 0.299489 1
gene 1 73 152 0.309823 0 24232 0.309823 1
gene 1 74 152 0.339915 0 24233 0.339915 1
gene 1 79 152 -0.794595 0 24238 -0.794595 1
gene 1 82 152 -0.476983 0 24241 -0.476983 1
gene 1 85 152 -0.35207 0 24244 -0.35207 1
gene 1 95 152 0.315317 0 24254 0.315317 1
gene 1 97 152 -0.323624 0 24256 -0.323624 1
gene 1 99 152 -0.602654 0 24258 -0.602654 1
gene 1 101 152 0.907701 0 24260 0.907701 1
gene 1 105 152 -0.306764 0 24264 -0.306764 1
gene 1 108 152 -0.590349 0 24267 -0.590349 1
gene 1 109 152 0.0941447 0 24268 0.0941447 1
gene 1 110 152 -0.153363 0 24269 -0.153363 1
gene 1 157 152 -0.795644 1 24316 -0.795644 1
gene 1 159 152 -0.352225 1 24318 -0.352225 1
gene 1 160 152 0.960063 1 24319 0.960063 1
gene 1 5 153 0.314447 0 24324 0.314447 1
gene 1 6 153 0.659061 0 24325 0.659061 1
gene 1 11 153 -0.900904 0 24330 -0.900904 1
gene 1 18 153 0.159155 0 24337 0.159155 1
gene 1 21 153 0.132528 0 24340 0.132528 1
gene 1 22 153 0.725242 0 24341 0.725242 1
gene 1 23 153 0.730382 0 24342 0.730382 1
gene 1 27 153 0.98131 0 24346 0.98131 1
gene 1 30 153 -0.440051 0 24349 -0.440051 1
gene 1 33 153 -0.316884 0 24352 -0.316884 1
gene 1 40 153 -0.273497 0 24359 -0.273497 1
gene 1 47 153 0.144158 0 24366 0.144158 1
gene 1 50 153 0.29425 0 24369 0.29425 1
gene 1 51 153 -0.188828 0 24370 -0.188828 1
gene 1 53 153 -0.415671 0 24372 -0.415671 1
gene 1 57 153 0.550686 0 24376 0.550686 1
gene 1 58 153 0.859813 0 24377 0.859813 1
gene 1 59 153 -0.333649 0 24378 -0.333649 1
gene 1 60 153 0.563489 0 24379 0.563489 1
gene 1 61 153 -0.951753 0 24380 -0.951753 1
gene 1 62 153 0.35219 0 24381 0.35219 1
gene 1 68 153 0.480355 0 24387 0.480355 1
gene 1 70 153 0.16597 0 24389 0.16597 1
gene 1 73 153 -0.950756 0 24392 -0.950756 1
gene 1 74 153 0.744813 0 24393 0.744813 1
gene 1 76 153 -0.431079 0 24395 -0.431079 1
gene 1 79 153 0.677057 0 24398 0.677057 1
gene 1 81 153 0.0121962 0 24400 0.0121962 1
gene 1 83 153 0.361706 0 24402 0.361706 1
gene 1 86 153 -0.749322 0 24405 -0.749322 1
gene 1 88 153 0.285779 0 24407 0.285779 1
gene 1 108 153 -0.784562 0 24427 -0.784562 1
gene 1 109 153 0.272969 0 24428 0.272969 1
gene 1 111 153 0.678325 0 24430 0.678325 1
gene 1 112 153 0.18017 0 24431 0.18017 1
gene 1 152 153 -0.739353 0 24471 -0.739353 1
gene 1 156 153 -0.246661 1 24475 -0.246661 1
gene 1 3 154 -0.811596 0 24482 -0.811596 1
gene 1 5 154 -0.302296 0 24484 -0.302296 1
gene 1 8 154 0.675244 0 24487 0.675244 1
gene 1 9 154 0.579273 0 24488 0.579273 1
gene 1 10 154 0.0454917 0 24489 0.0454917 1
gene 1 14 154 -0.159482 0 24493 -0.159482 1
gene 1 15 154 -0.0153379 0 24494 -0.0153379 1
gene 1 17 154 0.869973 0 24496 0.869973 1
gene 1 20 154 -0.0743515 0 24499 -0.0743515 1
gene 1 24 154 -0.179279 0 24503 -0.179279 1
gene 1 27 154 0.144031 0 24506 0.144031 1
gene 1 29 154 0.630377 0 24508 0.630377 1
gene 1 31 154 -0.241636 0 24510 -0.241636 1
gene 1 33 154 -0.682996 0 24512 -0.682996 1
gene 1 36 154 -0.496778 0 24515 -0.496778 1
gene 1 38 154 0.627856 0 24517 0.627856 1
gene 1 50 154 0.245333 0 24529 0.245333 1
gene 1 51 154 0.826159 0 24530 0.826159 1
gene 1 53 154 -0.00865802 0 24532 -0.00865802 1
gene 1 59 154 -0.0473099 0 24538 -0.0473099 1
gene 1 67 154 -0.000840671 0 24546 -0.000840671 1
gene 1 71 154 -0.724762 0 24550 -0.724762 1
gene 1 72 154 -0.162115 0 24551 -0.162115 1
gene 1 73 154 0.549313 0 24552 0.549313 1
gene 1 74 154 -0.0253105 0 24553 -0.0253105 1
gene 1 76 154 0.472947 0 24555 0.472947 1
gene 1 80 154 0.573266 0 24559 0.573266 1
gene 1 82 154 0.0694714 0 24561 0.0694714 1
gene 1 93 154 0.775971 0 24572 0.775971 1
gene 1 98 154 0.207229 0 24577 0.207229 1
gene 1 107 154 -0.117977 0 24586 -0.117977 1
gene 1 112 154 0.774214 0 24591 0.774214 1
gene 1 151 154 0.288131 0 24630 0.288131 1
gene 1 152 154 0.676816 0 24631 0.676816 1
gene 1 155 154 -0.266278 1 24634 -0.266278 1
gene 1 159 154 -0.771914 1 24638 -0.771914 1
gene 1 160 154 0.606968 1 24639 0.606968 1
gene 1 4 155 -0.595926 0 24643 -0.595926 1
gene 1 9 155 -0.722209 0 24648 -0.722209 1
gene 1 10 155 -0.284 0 24649 -0.284 1
gene 1 11 155 0.303918 0 24650 0.303918 1
gene 1 13 155 0.0226976 0 24652 0.0226976 1
gene 1 19 155 -0.693575 0 24658 -0.693575 1
gene 1 21 155 0.535083 0 24660 0.535083 1
gene 1 31 155 0.717752 0 24670 0.717752 1
gene 1 34 155 -0.972672 0 24673 -0.972672 1
gene 1 39 155 -0.0303333 0 24678 -0.0303333 1
gene 1 40 155 0.0872925 0 24679 0.0872925 1
gene 1 42 155 0.326452 0 24681 0.326452 1
gene 1 43 155 -0.696485 0 24682 -0.696485 1
gene 1 45 155 0.779089 0 24684 0.779089 1
gene 1 46 155 -0.840315 0 24685 -0.840315 1
gene 1 51 155 0.131787 0 24690 0.131787 1
gene 1 63 155 0.434204 0 24702 0.434204 1
gene 1 65 155 -0.899878 0 24704 -0.899878 1
gene 1 67 155 0.93742 0 24706 0.93742 1
gene 1 70 155 -0.31439 0 24709 -0.31439 1
gene 1 71 155 -0.764276 0 24710 -0.764276 1
gene 1 72 155 -0.232568 0 24711 -0.232568 1
gene 1 74 155 0.944325 0 24713 0.944325 1
gene 1 75 155 0.249741 0 24714 0.249741 1
gene 1 84 155 0.731783 0 24723 0.731783 1
gene 1 86 155 0.261769 0 24725 0.261769 1
gene 1 87 155 -0.298686 0 24726 -0.298686 1
gene 1 88 155 0.656406 0 24727 0.656406 1
gene 1 89 155 -0.90326 0 24728 -0.90326 1
gene 1 104 155 -0.483422 0 24743 -0.483422 1
gene 1 150 155 0.0903101 0 24789 0.0903101 1
gene 1 153 155 0.872409 0 24792 0.872409 1
gene 1 156 155 0.0026794 1 24795 0.0026794 1
gene 1 2 156 0.558737 0 24801 0.558737 1
gene 1 8 156 0.901905 0 24807 0.901905 1
gene 1 9 156 0.491424 0 24808 0.491424 1
gene 1 11 156 -0.218081 0 24810 -0.218081 1
gene 1 18 156 -0.919013 0 24817 -0.919013 1
gene 1 26 156 -0.861018 0 24825 -0.861018 1
gene 1 36 156 -0.546651 0 24835 -0.546651 1
gene 1 38 156 -0.965262 0 24837 -0.965262 1
gene 1 42 156 0.626026 0 24841 0.626026 1
gene 1 44 156 0.0560842 0 24843 0.0560842 1
gene 1 50 156 -0.525517 0 24849 -0.525517 1
gene 1 54 156 0.359563 0 24853 0.359563 1
gene 1 67 156 -0.234264 0 24866 -0.234264 1
gene 1 68 156 0.288796 0 24867 0.288796 1
gene 1 70 156 -0.330516 0 24869 -0.330516 1
gene 1 71 156 0.774407 0 24870 0.774407 1
gene 1 79 156 0.818552 0 24878 0.818552 1
gene 1 85 156 -0.130871 0 24884 -0.130871 1
gene 1 90 156 -0.115575 0 24889 -0.115575 1
gene 1 95 156 0.159348 0 24894 0.159348 1
gene 1 98 156 0.40573 0 24897 0.40573 1
gene 1 101 156 -0.628103 0 24900 -0.628103 1
gene 1 103 156 -0.0845464 0 24902 -0.0845464 1
gene 1 109 156 -0.5819 0 24908 -0.5819 1
gene 1 112 156 0.439557 0 24911 0.439557 1
gene 1 150 156 -0.512248 0 24949 -0.512248 1
gene 1 152 156 -0.785221 0 24951 -0.785221 1
gene 1 153 156 0.12292 0 24952 0.12292 1
gene 1 158 156 0.716132 1 24957 0.716132 1
gene 1 160 156 -0.485949 1 24959 -0.485949 1
gene 1 1 157 -0.168377 0 24960 -0.168377 1
gene 1 2 157 0.436158 0 24961 0.436158 1
gene 1 10 157 -0.967762 0 24969 -0.967762 1
gene 1 18 157 0.0807137 0 24977 0.0807137 1
gene 1 20 157 -0.22943 0 24979 -0.22943 1
gene 1 22 157 0.103553 0 24981 0.103553 1
gene 1 24 157 0.843458 0 24983 0.843458 1
gene 1 25 157 -0.513946 0 24984 -0.513946 1
gene 1 30 157 -0.923787 0 24989 -0.923787 1
gene 1 32 157 -0.205703 0 24991 -0.205703 1
gene 1 34 157 0.681519 0 24993 0.681519 1
gene 1 37 157 0.0855907 0 24996 0.0855907 1
gene 1 39 157 0.21966 0 24998 0.21966 1
gene 1 41 157 -0.0295563 0 25000 -0.0295563 1
gene 1 49 157 0.760937 0 25008 0.760937 1
gene 1 51 157 -0.310895 0 25010 -0.310895 1
gene 1 52 157 -0.526159 0 25011 -0.526159 1
gene 1 61 157 0.440115 0 25020 0.440115 1
gene 1 66 157 -0.508478 0 25025 -0.508478 1
gene 1 76 157 -0.409875 0 25035 -0.409875 1
gene 1 83 157 0.609745 0 25042 0.609745 1
gene 1 84 157 -0.395634 0 25043 -0.395634 1
gene 1 85 157 -0.539118 0 25044 -0.539118 1
gene 1 90 157 -0.785855 0 25049 -0.785855 1
gene 1 94 157 0.65461 0 25053 0.65461 1
gene 1 102 157 0.209445 0 25061 0.209445 1
gene 1 103 157 -0.756392 0 25062 -0.756392 1
gene 1 106 157 0.855963 0 25065 0.855963 1
gene 1 108 157 -0.833077 0 25067 -0.833077 1
gene 1 154 157 0.0749414 0 25113 0.0749414 1
gene 1 1 158 0.567819 0 25120 0.567819 1
gene 1 12 158 -0.207149 0 25131 -0.207149 1
gene 1 14 158 -0.935519 0 25133 -0.935519 1
gene 1 18 158 -0.707024 0 25137 -0.707024 1
gene 1 19 158 0.273772 0 25138 0.273772 1
gene 1 20 158 0.452392 0 25139 0.452392 1
gene 1 30 158 -0.842548 0 25149 -0.842548 1
gene 1 46 158 -0.580222 0 25165 -0.580222 1
gene 1 51 158 -0.692504 0 25170 -0.692504 1
gene 1 54 158 -0.731528 0 25173 -0.731528 1
gene 1 56 158 0.223708 0 25175 0.223708 1
gene 1 58 158 0.47999 0 25177 0.47999 1
gene 1 62 158 0.0168055 0 25181 0.0168055 1
gene 1 66 158 0.10418 0 25185 0.10418 1
gene 1 68 158 -0.344958 0 25187 -0.344958 1
gene 1 72 158 -0.919103 0 25191 -0.919103 1
gene 1 77 158 -0.755479 0 25196 -0.755479 1
gene 1 84 158 0.588531 0 25203 0.588531 1
gene 1 87 158 0.468737 0 25206 0.468737 1
gene 1 88 158 -0.285471 0 25207 -0.285471 1
gene 1 93 158 0.430108 0 25212 0.430108 1
gene 1 97 158 -0.403168 0 25216 -0.403168 1
gene 1 101 158 0.389961 0 25220 0.389961 1
gene 1 104 158 -0.368815 0 25223 -0.368815 1
gene 1 105 158 -0.51594 0 25224 -0.51594 1
gene 1 109 158 -0.50661 0 25228 -0.50661 1
gene 1 110 158 -0.139461 0 25229 -0.139461 1
gene 1 112 158 -0.476892 0 25231 -0.476892 1
gene 1 150 158 -0.952197 0 25269 -0.952197 1
gene 1 154 158 -0.298738 0 25273 -0.298738 1
gene 1 155 158 -0.858856 0 25274 -0.858856 1
gene 1 160 158 0.558199 1 25279 0.558199 1
gene 1 1 159 0.363088 0 25280 0.363088 1
gene 1 4 159 0.628659 0 25283 0.628659 1
gene 1 5 159 -0.916956 0 25284 -0.916956 1
gene 1 14 159 0.223131 0 25293 0.223131 1
gene 1 20 159 0.800795 0 25299 0.800795 1
gene 1 25 159 -0.822133 0 25304 -0.822133 1
gene 1 32 159 0.129348 0 25311 0.129348 1
gene 1 43 159 0.908448 0 25322 0.908448 1
gene 1 44 159 -0.101992 0 25323 -0.101992 1
gene 1 47 159 -0.293923 0 25326 -0.293923 1
gene 1 48 159 -0.582803 0 25327 -0.582803 1
gene 1 49 159 0.47195 0 25328 0.47195 1
gene 1 53 159 -0.446969 0 25332 -0.446969 1
gene 1 55 159 -0.378091 0 25334 -0.378091 1
gene 1 56 159 -0.137596 0 25335 -0.137596 1
gene 1 60 159 0.467514 0 25339 0.467514 1
gene 1 64 159 0.851384 0 25343 0.851384 1
gene 1 65 159 0.879576 0 25344 0.879576 1
gene 1 70 159 0.695386 0 25349 0.695386 1
gene 1 74 159 -0.107 0 25353 -0.107 1
gene 1 76 159 -0.319438 0 25355 -0.319438 1
gene 1 81 159 -0.484373 0 25360 -0.484373 1
gene 1 82 159 0.187131 0 25361 0.187131 1
gene 1 87 159 0.195124 0 25366 0.195124 1
gene 1 91 159 -0.214903 0 25370 -0.214903 1
gene 1 92 159 0.617386 0 25371 0.617386 1
gene 1 96 159 0.729964 0 25375 0.729964 1
gene 1 97 159 0.933575 0 25376 0.933575 1
gene 1 99 159 0.759866 0 25378 0.759866 1
gene 1 100 159 0.471794 0 25379 0.471794 1
gene 1 106 159 0.134406 0 25385 0.134406 1
gene 1 107 159 0.534699 0 25386 0.534699 1
gene 1 110 159 -0.841129 0 25389 -0.841129 1
gene 1 111 159 0.147472 0 25390 0.147472 1
gene 1 152 159 -0.827636 0 25431 -0.827636 1
gene 1 154 159 -0.680802 0 25433 -0.680802 1
gene 1 155 159 0.545342 0 25434 0.545342 1
gene 1 1 160 0.773238 0 25440 0.773238 1
gene 1 2 160 0.981459 0 25441 0.981459 1
gene 1 3 160 -0.363902 0 25442 -0.363902 1
gene 1 5 160 -0.74191 0 25444 -0.74191 1
gene 1 10 160 -0.76104 0 25449 -0.76104 1
gene 1 12 160 0.122656 0 25451 0.122656 1
gene 1 13 160 0.84598 0 25452 0.84598 1
gene 1 25 160 0.874341 0 25464 0.874341 1
gene 1 28 160 -0.248712 0 25467 -0.248712 1
gene 1 31 160 -0.39628 0 25470 -0.39628 1
gene 1 32 160 -0.865774 0 25471 -0.865774 1
gene 1 38 160 0.761645 0 25477 0.761645 1
gene 1 39 160 0.0358793 0 25478 0.0358793 1
gene 1 40 160 -0.765617 0 25479 -0.765617 1
gene 1 41 160 -0.648932 0 25480 -0.648932 1
gene 1 47 160 0.0459407 0 25486 0.0459407 1
gene 1 48 160 -0.733355 0 25487 -0.733355 1
gene 1 51 160 -0.229703 0 25490 -0.229703 1
gene 1 52 160 0.22626 0 25491 0.22626 1
gene 1 55 160 0.85121 0 25494 0.85121 1
gene 1 56 160 -0.101022 0 25495 -0.101022 1
gene 1 63 160 0.200551 0 25502 0.200551 1
gene 1 65 160 0.329415 0 25504 0.329415 1
gene 1 67 160 0.617714 0 25506 0.617714 1
gene 1 72 160 0.875454 0 25511 0.875454 1
gene 1 78 160 0.672686 0 25517 0.672686 1
gene 1 82 160 0.0600607 0 25521 0.0600607 1
gene 1 86 160 -0.767677 0 25525 -0.767677 1
gene 1 90 160 0.299154 0 25529 0.299154 1
gene 1 95 160 0.955792 0 25534 0.955792 1
gene 1 100 160 0.227459 0 25539 0.227459 1
gene 1 105 160 0.074314 0 25544 0.074314 1
gene 1 151 160 0.570393 0 25590 0.570393 1
gene 1 156 160 -0.268519 0 25595 -0.268519 1
gene 1 160 160 0.813967 1 25599 0.813967 1
genomeend 0
