genomestart 0
trait 1 0 0 0 0 0 0 0 0 
node 1 1 1 1
node 2 1 1 1
node 3 1 1 1
node 4 1 1 1
node 5 1 1 1
node 6 1 1 1
node 7 1 1 1
node 8 1 1 1
node 9 1 1 1
node 10 1 1 1
node 11 1 1 1
node 12 1 1 1
node 13 1 1 1
node 14 1 1 1
node 15 1 1 1
node 16 1 1 1
node 17 1 1 1
node 18 1 1 1
node 19 1 1 1
node 20 1 1 1
node 21 1 1 1
node 22 1 1 1
node 23 1 1 1
node 24 1 1 1
node 25 1 1 1
node 26 1 1 1
node 27 1 1 1
node 28 1 1 1
node 29 1 1 1
node 30 1 1 1
node 31 1 1 1
node 32 1 1 1
node 33 1 1 1
node 34 1 1 1
node 35 1 1 1
node 36 1 1 1
node 37 1 1 1
node 38 1 1 1
node 39 1 1 1
node 40 1 1 1
node 41 1 1 1
node 42 1 1 1
node 43 1 1 1
node 44 1 1 1
node 45 1 1 1
node 46 1 1 1
node 47 1 1 1
node 48 1 1 1
node 49 1 1 1
node 50 1 1 1
node 51 1 1 1
node 52 1 1 1
node 53 1 1 1
node 54 1 1 1
node 55 1 1 1
node 56 1 1 1
node 57 1 1 1
node 58 1 1 1
node 59 1 1 1
node 60 1 1 1
node 61 1 1 1
node 62 1 1 1
node 63 1 1 1
node 64 1 1 1
node 65 1 1 1
node 66 1 1 1
node 67 1 1 1
node 68 1 1 1
node 69 1 1 1
node 70 1 1 1
node 71 1 1 1
node 72 1 1 1
node 73 1 1 1
node 74 1 1 1
node 75 1 1 1
node 76 1 1 1
node 77 1 1 1
node 78 1 1 1
node 79 1 1 1
node 80 1 1 1
node 81 1 1 1
node 82 1 1 1
node 83 1 1 1
node 84 1 1 1
node 85 1 1 1
node 86 1 1 1
node 87 1 1 1
node 88 1 1 1
node 89 1 1 1
node 90 1 1 1
node 91 1 1 1
node 92 1 1 1
node 93 1 1 1
node 94 1 1 1
node 95 1 1 1
node 96 1 1 1
node 97 1 1 1
node 98 1 1 1
node 99 1 1 1
node 100 1 1 1
node 101 1 1 1
node 102 1 1 1
node 103 1 1 1
node 104 1 1 1
node 105 1 1 1
node 106 1 1 1
node 107 1 1 1
node 108 1 1 1
node 109 1 1 1
node 110 1 1 1
node 111 1 1 3
node 112 1 0 0
node 140 1 0 2
node 141 1 0 2
node 142 1 0 2
node 143 1 0 2
node 144 1 0 2
node 145 1 0 2
gene 1 2 112 -0.839065 0 16096 -0.839065 1
gene 1 3 112 -0.0242557 0 16097 -0.0242557 1
gene 1 4 112 0.125804 0 16098 0.125804 1
gene 1 5 112 0.136918 0 16099 0.136918 1
gene 1 14 112 -0.387074 0 16108 -0.387074 1
gene 1 15 112 -0.990134 0 16109 -0.990134 1
gene 1 17 112 0.822958 0 16111 0.822958 1
gene 1 21 112 0.762902 0 16115 0.762902 1
gene 1 24 112 0.0145805 0 16118 0.0145805 1
gene 1 28 112 -0.307018 0 16122 -0.307018 1
gene 1 29 112 0.549821 0 16123 0.549821 1
gene 1 35 112 0.0677186 0 16129 0.0677186 1
gene 1 37 112 -0.480141 0 16131 -0.480141 1
gene 1 41 112 0.851941 0 16135 0.851941 1
gene 1 45 112 0.758851 0 16139 0.758851 1
gene 1 47 112 -0.804343 0 16141 -0.804343 1
gene 1 51 112 -0.534787 0 16145 -0.534787 1
gene 1 57 112 -0.702563 0 16151 -0.702563 1
gene 1 63 112 0.864605 0 16157 0.864605 1
gene 1 65 112 -0.781772 0 16159 -0.781772 1
gene 1 72 112 -0.600619 0 16166 -0.600619 1
gene 1 74 112 0.47759 0 16168 0.47759 1
gene 1 75 112 -0.780287 0 16169 -0.780287 1
gene 1 76 112 -0.813224 0 16170 -0.813224 1
gene 1 80 112 -0.45514 0 16174 -0.45514 1
gene 1 81 112 -0.553166 0 16175 -0.553166 1
gene 1 84 112 0.634265 0 16178 0.634265 1
gene 1 90 112 -0.619364 0 16184 -0.619364 1
gene 1 91 112 -0.474877 0 16185 -0.474877 1
gene 1 93 112 0.128639 0 16187 0.128639 1
gene 1 95 112 -0.118329 0 16189 -0.118329 1
gene 1 97 112 0.357789 0 16191 0.357789 1
gene 1 98 112 0.1013 0 16192 0.1013 1
gene 1 102 112 -0.917219 0 16196 -0.917219 1
gene 1 103 112 0.762887 0 16197 0.762887 1
gene 1 105 112 -0.451232 0 16199 -0.451232 1
gene 1 106 112 0.00351587 0 16200 0.00351587 1
gene 1 111 112 -0.696464 0 16205 -0.696464 1
gene 1 112 112 0.432689 1 16206 0.432689 1
gene 1 140 112 0.22713 1 16234 0.22713 1
gene 1 143 112 0.369613 1 16237 0.369613 1
gene 1 145 112 0.688019 1 16239 0.688019 1
gene 1 1 140 0.240257 0 20155 0.240257 1
gene 1 4 140 0.386219 0 20158 0.386219 1
gene 1 7 140 0.0665172 0 20161 0.0665172 1
gene 1 15 140 -0.365854 0 20169 -0.365854 1
gene 1 16 140 -0.0655866 0 20170 -0.0655866 1
gene 1 19 140 -0.863555 0 20173 -0.863555 1
gene 1 23 140 -0.126036 0 20177 -0.126036 1
gene 1 24 140 0.28461 0 20178 0.28461 1
gene 1 26 140 -0.159008 0 20180 -0.159008 1
gene 1 31 140 -0.501223 0 20185 -0.501223 1
gene 1 37 140 0.149738 0 20191 0.149738 1
gene 1 38 140 0.0321757 0 20192 0.0321757 1
gene 1 41 140 -0.718518 0 20195 -0.718518 1
gene 1 47 140 0.624596 0 20201 0.624596 1
gene 1 55 140 -0.826926 0 20209 -0.826926 1
gene 1 59 140 -0.134882 0 20213 -0.134882 1
gene 1 62 140 0.916491 0 20216 0.916491 1
gene 1 64 140 0.191123 0 20218 0.191123 1
gene 1 65 140 -0.0133125 0 20219 -0.0133125 1
gene 1 66 140 0.74959 0 20220 0.74959 1
gene 1 67 140 -0.454124 0 20221 -0.454124 1
gene 1 68 140 -0.674843 0 20222 -0.674843 1
gene 1 70 140 -0.137774 0 20224 -0.137774 1
gene 1 76 140 -0.555586 0 20230 -0.555586 1
gene 1 89 140 0.5973 0 20243 0.5973 1
gene 1 92 140 -0.542114 0 20246 -0.542114 1
gene 1 94 140 0.828604 0 20248 0.828604 1
gene 1 101 140 -0.767564 0 20255 -0.767564 1
gene 1 102 140 -0.0419427 0 20256 -0.0419427 1
gene 1 103 140 -0.957986 0 20257 -0.957986 1
gene 1 106 140 -0.733895 0 20260 -0.733895 1
gene 1 108 140 0.89492 0 20262 0.89492 1
gene 1 111 140 -0.706406 0 20265 -0.706406 1
gene 1 143 140 -0.0875103 1 20297 -0.0875103 1
gene 1 1 141 -0.218664 0 20300 -0.218664 1
gene 1 2 141 -0.790999 0 20301 -0.790999 1
gene 1 4 141 0.671642 0 20303 0.671642 1
gene 1 6 141 -0.171487 0 20305 -0.171487 1
gene 1 11 141 0.224233 0 20310 0.224233 1
gene 1 12 141 0.284461 0 20311 0.284461 1
gene 1 14 141 0.781837 0 20313 0.781837 1
gene 1 15 141 0.254405 0 20314 0.254405 1
gene 1 22 141 0.0414882 0 20321 0.0414882 1
gene 1 24 141 0.319489 0 20323 0.319489 1
gene 1 27 141 -0.0440018 0 20326 -0.0440018 1
gene 1 29 141 -0.803819 0 20328 -0.803819 1
gene 1 31 141 -0.839379 0 20330 -0.839379 1
gene 1 33 141 -0.392375 0 20332 -0.392375 1
gene 1 35 141 -0.0537143 0 20334 -0.0537143 1
gene 1 40 141 -0.596263 0 20339 -0.596263 1
gene 1 43 141 0.149406 0 20342 0.149406 1
gene 1 48 141 0.627205 0 20347 0.627205 1
gene 1 52 141 -0.912356 0 20351 -0.912356 1
gene 1 53 141 0.941043 0 20352 0.941043 1
gene 1 55 141 -0.761513 0 20354 -0.761513 1
gene 1 57 141 -0.52265 0 20356 -0.52265 1
gene 1 59 141 -0.326838 0 20358 -0.326838 1
gene 1 60 141 -0.374387 0 20359 -0.374387 1
gene 1 66 141 0.33553 0 20365 0.33553 1
gene 1 70 141 0.480555 0 20369 0.480555 1
gene 1 71 141 -0.379018 0 20370 -0.379018 1
gene 1 74 141 0.549296 0 20373 0.549296 1
gene 1 76 141 0.340958 0 20375 0.340958 1
gene 1 88 141 -0.609456 0 20387 -0.609456 1
gene 1 101 141 -0.740731 0 20400 -0.740731 1
gene 1 105 141 0.0439571 0 20404 0.0439571 1
gene 1 108 141 -0.832969 0 20407 -0.832969 1
gene 1 111 141 0.399665 0 20410 0.399665 1
gene 1 112 141 -0.746239 0 20411 -0.746239 1
gene 1 143 141 0.13643 1 20442 0.13643 1
gene 1 144 141 0.53508 1 20443 0.53508 1
gene 1 145 141 0.45518 1 20444 0.45518 1
gene 1 2 142 0.0978082 0 20446 0.0978082 1
gene 1 3 142 0.561747 0 20447 0.561747 1
gene 1 4 142 -0.658334 0 20448 -0.658334 1
gene 1 6 142 0.495815 0 20450 0.495815 1
gene 1 7 142 0.573189 0 20451 0.573189 1
gene 1 8 142 0.933139 0 20452 0.933139 1
gene 1 9 142 -0.314282 0 20453 -0.314282 1
gene 1 13 142 0.299264 0 20457 0.299264 1
gene 1 16 142 0.14092 0 20460 0.14092 1
gene 1 17 142 -0.00645775 0 20461 -0.00645775 1
gene 1 21 142 0.381606 0 20465 0.381606 1
gene 1 23 142 0.00378396 0 20467 0.00378396 1
gene 1 24 142 -0.893104 0 20468 -0.893104 1
gene 1 32 142 0.855366 0 20476 0.855366 1
gene 1 34 142 -0.100375 0 20478 -0.100375 1
gene 1 36 142 -0.82609 0 20480 -0.82609 1
gene 1 38 142 0.599649 0 20482 0.599649 1
gene 1 43 142 -0.632541 0 20487 -0.632541 1
gene 1 48 142 -0.153496 0 20492 -0.153496 1
gene 1 51 142 0.91958 0 20495 0.91958 1
gene 1 52 142 0.391796 0 20496 0.391796 1
gene 1 54 142 0.35922 0 20498 0.35922 1
gene 1 57 142 -0.128575 0 20501 -0.128575 1
gene 1 60 142 0.367878 0 20504 0.367878 1
gene 1 62 142 -0.104181 0 20506 -0.104181 1
gene 1 64 142 0.00829061 0 20508 0.00829061 1
gene 1 66 142 0.622686 0 20510 0.622686 1
gene 1 70 142 0.993786 0 20514 0.993786 1
gene 1 72 142 -0.833985 0 20516 -0.833985 1
gene 1 76 142 0.720846 0 20520 0.720846 1
gene 1 81 142 0.549466 0 20525 0.549466 1
gene 1 84 142 -0.676439 0 20528 -0.676439 1
gene 1 91 142 -0.280068 0 20535 -0.280068 1
gene 1 92 142 -0.162476 0 20536 -0.162476 1
gene 1 104 142 -0.322676 0 20548 -0.322676 1
gene 1 106 142 0.0626838 0 20550 0.0626838 1
gene 1 111 142 0.24108 0 20555 0.24108 1
gene 1 140 142 -0.11048 0 20584 -0.11048 1
gene 1 144 142 0.705163 1 20588 0.705163 1
gene 1 17 143 -0.569429 0 20606 -0.569429 1
gene 1 26 143 -0.580523 0 20615 -0.580523 1
gene 1 27 143 -0.524722 0 20616 -0.524722 1
gene 1 32 143 0.794955 0 20621 0.794955 1
gene 1 33 143 0.667044 0 20622 0.667044 1
gene 1 40 143 -0.366944 0 20629 -0.366944 1
gene 1 41 143 -0.925901 0 20630 -0.925901 1
gene 1 48 143 0.918536 0 20637 0.918536 1
gene 1 51 143 -0.346381 0 20640 -0.346381 1
gene 1 53 143 0.778731 0 20642 0.778731 1
gene 1 56 143 0.736922 0 20645 0.736922 1
gene 1 60 143 -0.735764 0 20649 -0.735764 1
gene 1 63 143 -0.455776 0 20652 -0.455776 1
gene 1 64 143 -0.980432 0 20653 -0.980432 1
gene 1 65 143 0.04961 0 20654 0.04961 1
gene 1 67 143 0.919237 0 20656 0.919237 1
gene 1 68 143 -0.460754 0 20657 -0.460754 1
gene 1 76 143 0.624863 0 20665 0.624863 1
gene 1 81 143 -0.979945 0 20670 -0.979945 1
gene 1 82 143 -0.401503 0 20671 -0.401503 1
gene 1 84 143 -0.342329 0 20673 -0.342329 1
gene 1 86 143 0.439008 0 20675 0.439008 1
gene 1 90 143 -0.839843 0 20679 -0.839843 1
gene 1 91 143 0.28935 0 20680 0.28935 1
gene 1 96 143 0.870511 0 20685 0.870511 1
gene 1 97 143 -0.0646981 0 20686 -0.0646981 1
gene 1 100 143 -0.145526 0 20689 -0.145526 1
gene 1 103 143 0.976577 0 20692 0.976577 1
gene 1 104 143 0.119469 0 20693 0.119469 1
gene 1 105 143 -0.12018 0 20694 -0.12018 1
gene 1 106 143 -0.601942 0 20695 -0.601942 1
gene 1 111 143 -0.63843 0 20700 -0.63843 1
gene 1 140 143 0.114947 0 20729 0.114947 1
gene 1 4 144 -0.712801 0 20738 -0.712801 1
gene 1 8 144 0.831263 0 20742 0.831263 1
gene 1 9 144 0.191039 0 20743 0.191039 1
gene 1 11 144 0.586651 0 20745 0.586651 1
gene 1 12 144 -0.560542 0 20746 -0.560542 1
gene 1 14 144 0.857197 0 20748 0.857197 1
gene 1 18 144 -0.206202 0 20752 -0.206202 1
gene 1 21 144 -0.823397 0 20755 -0.823397 1
gene 1 26 144 0.0668183 0 20760 0.0668183 1
gene 1 29 144 -0.590839 0 20763 -0.590839 1
gene 1 30 144 0.767359 0 20764 0.767359 1
gene 1 34 144 0.547396 0 20768 0.547396 1
gene 1 35 144 -0.729825 0 20769 -0.729825 1
gene 1 38 144 -0.774995 0 20772 -0.774995 1
gene 1 40 144 -0.835144 0 20774 -0.835144 1
gene 1 45 144 0.395834 0 20779 0.395834 1
gene 1 46 144 -0.33435 0 20780 -0.33435 1
gene 1 47 144 -0.97565 0 20781 -0.97565 1
gene 1 50 144 0.869939 0 20784 0.869939 1
gene 1 54 144 0.63562 0 20788 0.63562 1
gene 1 56 144 0.833006 0 20790 0.833006 1
gene 1 57 144 -0.504499 0 20791 -0.504499 1
gene 1 58 144 -0.348221 0 20792 -0.348221 1
gene 1 63 144 -0.349989 0 20797 -0.349989 1
gene 1 65 144 0.813839 0 20799 0.813839 1
gene 1 88 144 -0.501802 0 20822 -0.501802 1
gene 1 90 144 0.221241 0 20824 0.221241 1
gene 1 96 144 0.173442 0 20830 0.173442 1
gene 1 99 144 0.481233 0 20833 0.481233 1
gene 1 100 144 -0.678105 0 20834 -0.678105 1
gene 1 101 144 0.902911 0 20835 0.902911 1
gene 1 109 144 0.648174 0 20843 0.648174 1
gene 1 110 144 -0.619681 0 20844 -0.619681 1
gene 1 142 144 0.611532 0 20876 0.611532 1
gene 1 3 145 0.528391 0 20882 0.528391 1
gene 1 6 145 0.492481 0 20885 0.492481 1
gene 1 9 145 0.0956334 0 20888 0.0956334 1
gene 1 10 145 -0.904136 0 20889 -0.904136 1
gene 1 11 145 -0.465247 0 20890 -0.465247 1
gene 1 15 145 0.543273 0 20894 0.543273 1
gene 1 17 145 0.263116 0 20896 0.263116 1
gene 1 25 145 0.814448 0 20904 0.814448 1
gene 1 26 145 0.927644 0 20905 0.927644 1
gene 1 30 145 -0.7097 0 20909 -0.7097 1
gene 1 31 145 0.100858 0 20910 0.100858 1
gene 1 34 145 0.464538 0 20913 0.464538 1
gene 1 39 145 0.750462 0 20918 0.750462 1
gene 1 40 145 -0.461102 0 20919 -0.461102 1
gene 1 46 145 0.288077 0 20925 0.288077 1
gene 1 47 145 0.33515 0 20926 0.33515 1
gene 1 53 145 0.894809 0 20932 0.894809 1
gene 1 54 145 0.181199 0 20933 0.181199 1
gene 1 57 145 -0.921161 0 20936 -0.921161 1
gene 1 68 145 0.528368 0 20947 0.528368 1
gene 1 74 145 -0.403868 0 20953 -0.403868 1
gene 1 75 145 0.509333 0 20954 0.509333 1
gene 1 81 145 0.908914 0 20960 0.908914 1
gene 1 82 145 -0.603656 0 20961 -0.603656 1
gene 1 85 145 0.0815029 0 20964 0.0815029 1
gene 1 90 145 -0.106887 0 20969 -0.106887 1
gene 1 95 145 -0.104709 0 20974 -0.104709 1
gene 1 98 145 -0.827487 0 20977 -0.827487 1
gene 1 104 145 0.4405 0 20983 0.4405 1
gene 1 107 145 0.715046 0 20986 0.715046 1
gene 1 108 145 0.49838 0 20987 0.49838 1
gene 1 110 145 0.647316 0 20989 0.647316 1
gene 1 111 145 0.413573 0 20990 0.413573 1
gene 1 112 145 0.36923 0 20991 0.36923 1
genomeend 0
