genomestart 0
trait 1 0 0 0 0 0 0 0 0 
node 1 1 1 1
node 2 1 1 1
node 3 1 1 1
node 4 1 1 1
node 5 1 1 1
node 6 1 1 1
node 7 1 1 1
node 8 1 1 1
node 9 1 1 1
node 10 1 1 1
node 11 1 1 1
node 12 1 1 1
node 13 1 1 1
node 14 1 1 1
node 15 1 1 1
node 16 1 1 1
node 17 1 1 1
node 18 1 1 1
node 19 1 1 1
node 20 1 1 1
node 21 1 1 1
node 22 1 1 1
node 23 1 1 1
node 24 1 1 1
node 25 1 1 1
node 26 1 1 1
node 27 1 1 1
node 28 1 1 1
node 29 1 1 1
node 30 1 1 1
node 31 1 1 1
node 32 1 1 1
node 33 1 1 1
node 34 1 1 1
node 35 1 1 1
node 36 1 1 1
node 37 1 1 1
node 38 1 1 1
node 39 1 1 1
node 40 1 1 1
node 41 1 1 1
node 42 1 1 1
node 43 1 1 1
node 44 1 1 1
node 45 1 1 1
node 46 1 1 1
node 47 1 1 1
node 48 1 1 1
node 49 1 1 1
node 50 1 1 1
node 51 1 1 1
node 52 1 1 1
node 53 1 1 1
node 54 1 1 1
node 55 1 1 1
node 56 1 1 1
node 57 1 1 1
node 58 1 1 1
node 59 1 1 1
node 60 1 1 1
node 61 1 1 1
node 62 1 1 1
node 63 1 1 1
node 64 1 1 1
node 65 1 1 1
node 66 1 1 1
node 67 1 1 1
node 68 1 1 1
node 69 1 1 1
node 70 1 1 1
node 71 1 1 1
node 72 1 1 1
node 73 1 1 1
node 74 1 1 1
node 75 1 1 1
node 76 1 1 1
node 77 1 1 1
node 78 1 1 1
node 79 1 1 1
node 80 1 1 1
node 81 1 1 1
node 82 1 1 1
node 83 1 1 1
node 84 1 1 1
node 85 1 1 1
node 86 1 1 1
node 87 1 1 1
node 88 1 1 1
node 89 1 1 1
node 90 1 1 1
node 91 1 1 1
node 92 1 1 1
node 93 1 1 1
node 94 1 1 1
node 95 1 1 1
node 96 1 1 1
node 97 1 1 1
node 98 1 1 1
node 99 1 1 1
node 100 1 1 1
node 101 1 1 1
node 102 1 1 1
node 103 1 1 1
node 104 1 1 1
node 105 1 1 1
node 106 1 1 1
node 107 1 1 1
node 108 1 1 1
node 109 1 1 1
node 110 1 1 1
node 111 1 1 3
node 112 1 0 0
node 136 1 0 2
node 137 1 0 2
node 138 1 0 2
node 139 1 0 2
gene 1 4 112 -0.725681 0 15432 -0.725681 1
gene 1 5 112 0.664963 0 15433 0.664963 1
gene 1 9 112 0.25288 0 15437 0.25288 1
gene 1 12 112 0.696336 0 15440 0.696336 1
gene 1 13 112 0.913525 0 15441 0.913525 1
gene 1 17 112 -0.209668 0 15445 -0.209668 1
gene 1 18 112 -0.262378 0 15446 -0.262378 1
gene 1 21 112 0.655635 0 15449 0.655635 1
gene 1 24 112 0.740835 0 15452 0.740835 1
gene 1 31 112 0.493643 0 15459 0.493643 1
gene 1 32 112 -0.0842192 0 15460 -0.0842192 1
gene 1 36 112 0.264258 0 15464 0.264258 1
gene 1 37 112 -0.919008 0 15465 -0.919008 1
gene 1 38 112 -0.130438 0 15466 -0.130438 1
gene 1 39 112 -0.804857 0 15467 -0.804857 1
gene 1 45 112 0.586772 0 15473 0.586772 1
gene 1 46 112 0.771209 0 15474 0.771209 1
gene 1 52 112 0.916969 0 15480 0.916969 1
gene 1 54 112 -0.452202 0 15482 -0.452202 1
gene 1 56 112 0.699946 0 15484 0.699946 1
gene 1 58 112 0.571939 0 15486 0.571939 1
gene 1 60 112 0.394479 0 15488 0.394479 1
gene 1 61 112 -0.549332 0 15489 -0.549332 1
gene 1 63 112 0.928773 0 15491 0.928773 1
gene 1 64 112 -0.966152 0 15492 -0.966152 1
gene 1 65 112 -0.474183 0 15493 -0.474183 1
gene 1 70 112 0.374288 0 15498 0.374288 1
gene 1 72 112 0.747618 0 15500 0.747618 1
gene 1 81 112 0.519759 0 15509 0.519759 1
gene 1 89 112 0.219982 0 15517 0.219982 1
gene 1 91 112 -0.274677 0 15519 -0.274677 1
gene 1 92 112 0.601305 0 15520 0.601305 1
gene 1 93 112 -0.1759 0 15521 -0.1759 1
gene 1 98 112 -0.70124 0 15526 -0.70124 1
gene 1 101 112 -0.496291 0 15529 -0.496291 1
gene 1 103 112 -0.724073 0 15531 -0.724073 1
gene 1 105 112 -0.543323 0 15533 -0.543323 1
gene 1 107 112 0.798951 0 15535 0.798951 1
gene 1 109 112 0.807825 0 15537 0.807825 1
gene 1 110 112 0.66211 0 15538 0.66211 1
gene 1 111 112 0.970173 0 15539 0.970173 1
gene 1 112 112 -0.671797 1 15540 -0.671797 1
gene 1 137 112 -0.643227 1 15565 -0.643227 1
gene 1 139 112 -0.0455443 1 15567 -0.0455443 1
gene 1 2 136 0.207151 0 18766 0.207151 1
gene 1 13 136 0.900523 0 18777 0.900523 1
gene 1 18 136 -0.493143 0 18782 -0.493143 1
gene 1 24 136 -0.970688 0 18788 -0.970688 1
gene 1 27 136 -0.433476 0 18791 -0.433476 1
gene 1 29 136 -0.291874 0 18793 -0.291874 1
gene 1 39 136 0.204846 0 18803 0.204846 1
gene 1 41 136 0.353508 0 18805 0.353508 1
gene 1 43 136 0.993178 0 18807 0.993178 1
gene 1 44 136 -0.219431 0 18808 -0.219431 1
gene 1 53 136 -0.780805 0 18817 -0.780805 1
gene 1 58 136 -0.55328 0 18822 -0.55328 1
gene 1 64 136 -0.887761 0 18828 -0.887761 1
gene 1 65 136 0.204147 0 18829 0.204147 1
gene 1 68 136 -0.365457 0 18832 -0.365457 1
gene 1 70 136 0.829438 0 18834 0.829438 1
gene 1 71 136 -0.292001 0 18835 -0.292001 1
gene 1 76 136 0.496126 0 18840 0.496126 1
gene 1 84 136 -0.968505 0 18848 -0.968505 1
gene 1 85 136 -0.902522 0 18849 -0.902522 1
gene 1 90 136 -0.222157 0 18854 -0.222157 1
gene 1 93 136 0.916302 0 18857 0.916302 1
gene 1 94 136 -0.450411 0 18858 -0.450411 1
gene 1 97 136 0.982888 0 18861 0.982888 1
gene 1 103 136 -0.674878 0 18867 -0.674878 1
gene 1 105 136 0.852453 0 18869 0.852453 1
gene 1 109 136 0.863143 0 18873 0.863143 1
gene 1 138 136 -0.96644 1 18902 -0.96644 1
gene 1 1 137 -0.164938 0 18904 -0.164938 1
gene 1 2 137 -0.867636 0 18905 -0.867636 1
gene 1 3 137 -0.32433 0 18906 -0.32433 1
gene 1 4 137 0.943858 0 18907 0.943858 1
gene 1 6 137 0.967378 0 18909 0.967378 1
gene 1 10 137 0.34237 0 18913 0.34237 1
gene 1 12 137 0.93316 0 18915 0.93316 1
gene 1 16 137 0.701813 0 18919 0.701813 1
gene 1 17 137 0.958585 0 18920 0.958585 1
gene 1 21 137 -0.682875 0 18924 -0.682875 1
gene 1 28 137 0.682446 0 18931 0.682446 1
gene 1 31 137 0.683034 0 18934 0.683034 1
gene 1 35 137 -0.135253 0 18938 -0.135253 1
gene 1 38 137 -0.504652 0 18941 -0.504652 1
gene 1 39 137 0.241731 0 18942 0.241731 1
gene 1 41 137 0.380203 0 18944 0.380203 1
gene 1 44 137 0.838492 0 18947 0.838492 1
gene 1 48 137 0.925845 0 18951 0.925845 1
gene 1 49 137 -0.0702154 0 18952 -0.0702154 1
gene 1 50 137 -0.215799 0 18953 -0.215799 1
gene 1 52 137 0.2187 0 18955 0.2187 1
gene 1 53 137 0.81774 0 18956 0.81774 1
gene 1 54 137 0.929898 0 18957 0.929898 1
gene 1 55 137 0.934819 0 18958 0.934819 1
gene 1 56 137 -0.813192 0 18959 -0.813192 1
gene 1 58 137 0.35177 0 18961 0.35177 1
gene 1 62 137 -0.391206 0 18965 -0.391206 1
gene 1 67 137 0.311802 0 18970 0.311802 1
gene 1 68 137 -0.856256 0 18971 -0.856256 1
gene 1 69 137 0.489498 0 18972 0.489498 1
gene 1 71 137 0.100601 0 18974 0.100601 1
gene 1 81 137 0.116629 0 18984 0.116629 1
gene 1 84 137 0.842858 0 18987 0.842858 1
gene 1 85 137 -0.0594889 0 18988 -0.0594889 1
gene 1 89 137 -0.363086 0 18992 -0.363086 1
gene 1 91 137 0.124908 0 18994 0.124908 1
gene 1 92 137 0.668111 0 18995 0.668111 1
gene 1 108 137 0.0604412 0 19011 0.0604412 1
gene 1 110 137 0.483178 0 19013 0.483178 1
gene 1 136 137 0.682513 0 19039 0.682513 1
gene 1 137 137 -0.956862 1 19040 -0.956862 1
gene 1 5 138 -0.157406 0 19047 -0.157406 1
gene 1 6 138 0.699957 0 19048 0.699957 1
gene 1 11 138 0.0724965 0 19053 0.0724965 1
gene 1 12 138 0.264145 0 19054 0.264145 1
gene 1 19 138 0.951723 0 19061 0.951723 1
gene 1 21 138 -0.0771208 0 19063 -0.0771208 1
gene 1 24 138 0.860469 0 19066 0.860469 1
gene 1 26 138 -0.484214 0 19068 -0.484214 1
gene 1 28 138 0.67338 0 19070 0.67338 1
gene 1 37 138 -0.580142 0 19079 -0.580142 1
gene 1 39 138 0.821851 0 19081 0.821851 1
gene 1 44 138 -0.248424 0 19086 -0.248424 1
gene 1 46 138 0.442603 0 19088 0.442603 1
gene 1 57 138 -0.927296 0 19099 -0.927296 1
gene 1 58 138 -0.520779 0 19100 -0.520779 1
gene 1 62 138 0.736414 0 19104 0.736414 1
gene 1 68 138 0.552627 0 19110 0.552627 1
gene 1 70 138 0.0455278 0 19112 0.0455278 1
gene 1 72 138 -0.978751 0 19114 -0.978751 1
gene 1 76 138 -0.652873 0 19118 -0.652873 1
gene 1 77 138 -0.709952 0 19119 -0.709952 1
gene 1 80 138 -0.114344 0 19122 -0.114344 1
gene 1 87 138 0.421224 0 19129 0.421224 1
gene 1 93 138 -0.524466 0 19135 -0.524466 1
gene 1 94 138 -0.792978 0 19136 -0.792978 1
gene 1 95 138 -0.215451 0 19137 -0.215451 1
gene 1 96 138 0.612933 0 19138 0.612933 1
gene 1 97 138 -0.0922028 0 19139 -0.0922028 1
gene 1 103 138 -0.598395 0 19145 -0.598395 1
gene 1 108 138 0.797211 0 19150 0.797211 1
gene 1 110 138 0.182847 0 19152 0.182847 1
gene 1 136 138 0.154215 0 19178 0.154215 1
gene 1 1 139 -0.157079 0 19182 -0.157079 1
gene 1 2 139 -0.428697 0 19183 -0.428697 1
gene 1 10 139 0.69065 0 19191 0.69065 1
gene 1 13 139 0.93357 0 19194 0.93357 1
gene 1 15 139 0.807644 0 19196 0.807644 1
gene 1 18 139 0.56356 0 19199 0.56356 1
gene 1 20 139 -0.88394 0 19201 -0.88394 1
gene 1 21 139 0.370526 0 19202 0.370526 1
gene 1 24 139 0.570238 0 19205 0.570238 1
gene 1 26 139 -0.4951 0 19207 -0.4951 1
gene 1 28 139 0.409907 0 19209 0.409907 1
gene 1 31 139 -0.26173 0 19212 -0.26173 1
gene 1 37 139 -0.277249 0 19218 -0.277249 1
gene 1 44 139 0.271863 0 19225 0.271863 1
gene 1 48 139 -0.9278 0 19229 -0.9278 1
gene 1 52 139 -0.454946 0 19233 -0.454946 1
gene 1 53 139 0.354259 0 19234 0.354259 1
gene 1 61 139 -0.987383 0 19242 -0.987383 1
gene 1 63 139 0.94271 0 19244 0.94271 1
gene 1 67 139 -0.737294 0 19248 -0.737294 1
gene 1 70 139 0.812055 0 19251 0.812055 1
gene 1 75 139 -0.850086 0 19256 -0.850086 1
gene 1 77 139 0.738018 0 19258 0.738018 1
gene 1 80 139 0.667027 0 19261 0.667027 1
gene 1 83 139 0.955554 0 19264 0.955554 1
gene 1 85 139 -0.777828 0 19266 -0.777828 1
gene 1 89 139 0.774783 0 19270 0.774783 1
gene 1 91 139 -0.935903 0 19272 -0.935903 1
gene 1 93 139 -0.517937 0 19274 -0.517937 1
gene 1 96 139 0.993718 0 19277 0.993718 1
gene 1 97 139 0.457376 0 19278 0.457376 1
gene 1 102 139 0.800265 0 19283 0.800265 1
gene 1 107 139 0.893865 0 19288 0.893865 1
gene 1 108 139 0.667105 0 19289 0.667105 1
gene 1 109 139 -0.290213 0 19290 -0.290213 1
gene 1 111 139 -0.763407 0 19292 -0.763407 1
gene 1 112 139 -0.500569 0 19293 -0.500569 1
genomeend 0
