genomestart 0
trait 1 0 0 0 0 0 0 0 0 
node 1 1 1 1
node 2 1 1 1
node 3 1 1 1
node 4 1 1 1
node 5 1 1 1
node 6 1 1 1
node 7 1 1 1
node 8 1 1 1
node 9 1 1 1
node 10 1 1 1
node 11 1 1 1
node 12 1 1 1
node 13 1 1 1
node 14 1 1 1
node 15 1 1 1
node 16 1 1 1
node 17 1 1 1
node 18 1 1 1
node 19 1 1 1
node 20 1 1 1
node 21 1 1 1
node 22 1 1 1
node 23 1 1 1
node 24 1 1 1
node 25 1 1 1
node 26 1 1 1
node 27 1 1 1
node 28 1 1 1
node 29 1 1 1
node 30 1 1 1
node 31 1 1 1
node 32 1 1 1
node 33 1 1 1
node 34 1 1 1
node 35 1 1 1
node 36 1 1 1
node 37 1 1 1
node 38 1 1 1
node 39 1 1 1
node 40 1 1 1
node 41 1 1 1
node 42 1 1 1
node 43 1 1 1
node 44 1 1 1
node 45 1 1 1
node 46 1 1 1
node 47 1 1 1
node 48 1 1 1
node 49 1 1 1
node 50 1 1 1
node 51 1 1 1
node 52 1 1 1
node 53 1 1 1
node 54 1 1 1
node 55 1 1 1
node 56 1 1 1
node 57 1 1 1
node 58 1 1 1
node 59 1 1 1
node 60 1 1 1
node 61 1 1 1
node 62 1 1 1
node 63 1 1 1
node 64 1 1 1
node 65 1 1 1
node 66 1 1 1
node 67 1 1 1
node 68 1 1 1
node 69 1 1 1
node 70 1 1 1
node 71 1 1 1
node 72 1 1 1
node 73 1 1 1
node 74 1 1 1
node 75 1 1 1
node 76 1 1 1
node 77 1 1 1
node 78 1 1 1
node 79 1 1 1
node 80 1 1 1
node 81 1 1 1
node 82 1 1 1
node 83 1 1 1
node 84 1 1 1
node 85 1 1 1
node 86 1 1 1
node 87 1 1 1
node 88 1 1 1
node 89 1 1 1
node 90 1 1 1
node 91 1 1 1
node 92 1 1 1
node 93 1 1 1
node 94 1 1 1
node 95 1 1 1
node 96 1 1 1
node 97 1 1 1
node 98 1 1 1
node 99 1 1 1
node 100 1 1 1
node 101 1 1 1
node 102 1 1 1
node 103 1 1 1
node 104 1 1 1
node 105 1 1 1
node 106 1 1 1
node 107 1 1 1
node 108 1 1 1
node 109 1 1 1
node 110 1 1 1
node 111 1 1 3
node 112 1 0 0
node 136 1 0 2
node 137 1 0 2
node 138 1 0 2
node 139 1 0 2
gene 1 2 112 -0.93768 0 15430 -0.93768 1
gene 1 7 112 -0.954247 0 15435 -0.954247 1
gene 1 9 112 -0.638304 0 15437 -0.638304 1
gene 1 10 112 0.0763007 0 15438 0.0763007 1
gene 1 11 112 0.753097 0 15439 0.753097 1
gene 1 19 112 -0.358043 0 15447 -0.358043 1
gene 1 21 112 -0.407554 0 15449 -0.407554 1
gene 1 22 112 -0.517791 0 15450 -0.517791 1
gene 1 23 112 0.358478 0 15451 0.358478 1
gene 1 25 112 -0.0413026 0 15453 -0.0413026 1
gene 1 27 112 -0.266082 0 15455 -0.266082 1
gene 1 30 112 -0.265656 0 15458 -0.265656 1
gene 1 34 112 -0.656503 0 15462 -0.656503 1
gene 1 41 112 -0.336756 0 15469 -0.336756 1
gene 1 45 112 -0.527335 0 15473 -0.527335 1
gene 1 56 112 -0.281438 0 15484 -0.281438 1
gene 1 57 112 -0.366211 0 15485 -0.366211 1
gene 1 59 112 0.404071 0 15487 0.404071 1
gene 1 68 112 -0.500407 0 15496 -0.500407 1
gene 1 69 112 0.164027 0 15497 0.164027 1
gene 1 78 112 -0.74316 0 15506 -0.74316 1
gene 1 79 112 -0.0845097 0 15507 -0.0845097 1
gene 1 84 112 0.875165 0 15512 0.875165 1
gene 1 85 112 -0.576592 0 15513 -0.576592 1
gene 1 89 112 -0.323221 0 15517 -0.323221 1
gene 1 91 112 0.280167 0 15519 0.280167 1
gene 1 93 112 0.204078 0 15521 0.204078 1
gene 1 95 112 0.189155 0 15523 0.189155 1
gene 1 101 112 0.553886 0 15529 0.553886 1
gene 1 103 112 -0.299506 0 15531 -0.299506 1
gene 1 107 112 0.47956 0 15535 0.47956 1
gene 1 108 112 -0.383014 0 15536 -0.383014 1
gene 1 109 112 -0.130246 0 15537 -0.130246 1
gene 1 112 112 0.977851 1 15540 0.977851 1
gene 1 139 112 0.959746 1 15567 0.959746 1
gene 1 4 136 -0.744642 0 18768 -0.744642 1
gene 1 6 136 -0.533951 0 18770 -0.533951 1
gene 1 11 136 0.518503 0 18775 0.518503 1
gene 1 12 136 0.807767 0 18776 0.807767 1
gene 1 14 136 0.68326 0 18778 0.68326 1
gene 1 15 136 0.105616 0 18779 0.105616 1
gene 1 18 136 0.192363 0 18782 0.192363 1
gene 1 19 136 -0.86231 0 18783 -0.86231 1
gene 1 20 136 0.70055 0 18784 0.70055 1
gene 1 24 136 0.511396 0 18788 0.511396 1
gene 1 25 136 0.213876 0 18789 0.213876 1
gene 1 26 136 0.641834 0 18790 0.641834 1
gene 1 28 136 -0.792752 0 18792 -0.792752 1
gene 1 31 136 -0.0825863 0 18795 -0.0825863 1
gene 1 32 136 0.327673 0 18796 0.327673 1
gene 1 34 136 0.0194366 0 18798 0.0194366 1
gene 1 37 136 -0.519668 0 18801 -0.519668 1
gene 1 43 136 -0.164599 0 18807 -0.164599 1
gene 1 44 136 0.527126 0 18808 0.527126 1
gene 1 47 136 -0.454266 0 18811 -0.454266 1
gene 1 50 136 0.221559 0 18814 0.221559 1
gene 1 51 136 -0.540155 0 18815 -0.540155 1
gene 1 61 136 -0.570672 0 18825 -0.570672 1
gene 1 62 136 0.0573579 0 18826 0.0573579 1
gene 1 65 136 0.906061 0 18829 0.906061 1
gene 1 66 136 -0.421635 0 18830 -0.421635 1
gene 1 70 136 -0.774168 0 18834 -0.774168 1
gene 1 73 136 -0.417051 0 18837 -0.417051 1
gene 1 75 136 0.047558 0 18839 0.047558 1
gene 1 76 136 0.387776 0 18840 0.387776 1
gene 1 79 136 0.138752 0 18843 0.138752 1
gene 1 83 136 -0.0261095 0 18847 -0.0261095 1
gene 1 84 136 0.87594 0 18848 0.87594 1
gene 1 85 136 0.355276 0 18849 0.355276 1
gene 1 87 136 -0.884908 0 18851 -0.884908 1
gene 1 91 136 -0.274622 0 18855 -0.274622 1
gene 1 92 136 -0.934747 0 18856 -0.934747 1
gene 1 97 136 0.766533 0 18861 0.766533 1
gene 1 103 136 0.494425 0 18867 0.494425 1
gene 1 104 136 -0.37452 0 18868 -0.37452 1
gene 1 106 136 -0.302735 0 18870 -0.302735 1
gene 1 108 136 0.0550734 0 18872 0.0550734 1
gene 1 109 136 0.399991 0 18873 0.399991 1
gene 1 111 136 0.696577 0 18875 0.696577 1
gene 1 137 136 -0.697248 1 18901 -0.697248 1
gene 1 2 137 -0.127223 0 18905 -0.127223 1
gene 1 3 137 0.360751 0 18906 0.360751 1
gene 1 13 137 -0.839404 0 18916 -0.839404 1
gene 1 14 137 -0.737281 0 18917 -0.737281 1
gene 1 24 137 0.390828 0 18927 0.390828 1
gene 1 26 137 -0.509729 0 18929 -0.509729 1
gene 1 27 137 0.118634 0 18930 0.118634 1
gene 1 31 137 0.157992 0 18934 0.157992 1
gene 1 32 137 0.118148 0 18935 0.118148 1
gene 1 34 137 -0.0477574 0 18937 -0.0477574 1
gene 1 43 137 -0.88423 0 18946 -0.88423 1
gene 1 45 137 0.118945 0 18948 0.118945 1
gene 1 48 137 -0.748373 0 18951 -0.748373 1
gene 1 49 137 -0.853017 0 18952 -0.853017 1
gene 1 53 137 0.199024 0 18956 0.199024 1
gene 1 54 137 0.449693 0 18957 0.449693 1
gene 1 56 137 -0.681119 0 18959 -0.681119 1
gene 1 65 137 -0.88138 0 18968 -0.88138 1
gene 1 68 137 0.448815 0 18971 0.448815 1
gene 1 78 137 -0.343136 0 18981 -0.343136 1
gene 1 84 137 0.937942 0 18987 0.937942 1
gene 1 95 137 -0.366203 0 18998 -0.366203 1
gene 1 96 137 0.581005 0 18999 0.581005 1
gene 1 106 137 0.323472 0 19009 0.323472 1
gene 1 136 137 -0.431815 0 19039 -0.431815 1
gene 1 4 138 -0.381558 0 19046 -0.381558 1
gene 1 11 138 -0.952053 0 19053 -0.952053 1
gene 1 14 138 0.00365328 0 19056 0.00365328 1
gene 1 20 138 0.766102 0 19062 0.766102 1
gene 1 22 138 -0.352063 0 19064 -0.352063 1
gene 1 23 138 -0.379334 0 19065 -0.379334 1
gene 1 24 138 -0.935986 0 19066 -0.935986 1
gene 1 26 138 -0.109058 0 19068 -0.109058 1
gene 1 27 138 -0.233683 0 19069 -0.233683 1
gene 1 29 138 0.443141 0 19071 0.443141 1
gene 1 30 138 0.453525 0 19072 0.453525 1
gene 1 32 138 -0.443042 0 19074 -0.443042 1
gene 1 35 138 -0.0962011 0 19077 -0.0962011 1
gene 1 37 138 -0.417933 0 19079 -0.417933 1
gene 1 44 138 -0.447976 0 19086 -0.447976 1
gene 1 45 138 0.835543 0 19087 0.835543 1
gene 1 48 138 -0.00642743 0 19090 -0.00642743 1
gene 1 52 138 0.241847 0 19094 0.241847 1
gene 1 53 138 -0.094075 0 19095 -0.094075 1
gene 1 57 138 0.286759 0 19099 0.286759 1
gene 1 61 138 -0.760828 0 19103 -0.760828 1
gene 1 62 138 -0.456501 0 19104 -0.456501 1
gene 1 65 138 0.0544839 0 19107 0.0544839 1
gene 1 66 138 0.358704 0 19108 0.358704 1
gene 1 79 138 0.957729 0 19121 0.957729 1
gene 1 80 138 0.063966 0 19122 0.063966 1
gene 1 81 138 -0.977756 0 19123 -0.977756 1
gene 1 85 138 -0.303051 0 19127 -0.303051 1
gene 1 89 138 -0.902986 0 19131 -0.902986 1
gene 1 91 138 -0.174134 0 19133 -0.174134 1
gene 1 96 138 0.248393 0 19138 0.248393 1
gene 1 97 138 -0.553679 0 19139 -0.553679 1
gene 1 100 138 0.108264 0 19142 0.108264 1
gene 1 101 138 0.212869 0 19143 0.212869 1
gene 1 103 138 -0.864455 0 19145 -0.864455 1
gene 1 108 138 -0.383934 0 19150 -0.383934 1
gene 1 111 138 -0.764403 0 19153 -0.764403 1
gene 1 136 138 0.246947 0 19178 0.246947 1
gene 1 137 138 0.663118 0 19179 0.663118 1
gene 1 2 139 -0.489243 0 19183 -0.489243 1
gene 1 3 139 0.0167156 0 19184 0.0167156 1
gene 1 14 139 0.650771 0 19195 0.650771 1
gene 1 16 139 0.272351 0 19197 0.272351 1
gene 1 18 139 0.296053 0 19199 0.296053 1
gene 1 19 139 -0.432228 0 19200 -0.432228 1
gene 1 21 139 -0.182878 0 19202 -0.182878 1
gene 1 22 139 0.215988 0 19203 0.215988 1
gene 1 29 139 0.50112 0 19210 0.50112 1
gene 1 30 139 -0.332369 0 19211 -0.332369 1
gene 1 33 139 0.362751 0 19214 0.362751 1
gene 1 34 139 0.28168 0 19215 0.28168 1
gene 1 35 139 -0.543367 0 19216 -0.543367 1
gene 1 38 139 -0.0424679 0 19219 -0.0424679 1
gene 1 39 139 0.379193 0 19220 0.379193 1
gene 1 46 139 -0.949914 0 19227 -0.949914 1
gene 1 50 139 -0.203799 0 19231 -0.203799 1
gene 1 51 139 0.196795 0 19232 0.196795 1
gene 1 52 139 -0.11146 0 19233 -0.11146 1
gene 1 56 139 -0.351703 0 19237 -0.351703 1
gene 1 59 139 0.80383 0 19240 0.80383 1
gene 1 61 139 -0.359978 0 19242 -0.359978 1
gene 1 62 139 0.865297 0 19243 0.865297 1
gene 1 64 139 -0.415944 0 19245 -0.415944 1
gene 1 70 139 0.420742 0 19251 0.420742 1
gene 1 77 139 0.886292 0 19258 0.886292 1
gene 1 78 139 -0.169464 0 19259 -0.169464 1
gene 1 88 139 -0.666533 0 19269 -0.666533 1
gene 1 93 139 0.17659 0 19274 0.17659 1
gene 1 96 139 -0.288905 0 19277 -0.288905 1
gene 1 101 139 -0.104189 0 19282 -0.104189 1
gene 1 102 139 -0.122215 0 19283 -0.122215 1
gene 1 104 139 0.842416 0 19285 0.842416 1
gene 1 109 139 -0.699213 0 19290 -0.699213 1
genomeend 0
