genomestart 0
trait 1 0 0 0 0 0 0 0 0 
node 1 1 1 1
node 2 1 1 1
node 3 1 1 1
node 4 1 1 1
node 5 1 1 1
node 6 1 1 1
node 7 1 1 1
node 8 1 1 1
node 9 1 1 1
node 10 1 1 1
node 11 1 1 1
node 12 1 1 1
node 13 1 1 1
node 14 1 1 1
node 15 1 1 1
node 16 1 1 1
node 17 1 1 1
node 18 1 1 1
node 19 1 1 1
node 20 1 1 1
node 21 1 1 1
node 22 1 1 1
node 23 1 1 1
node 24 1 1 1
node 25 1 1 1
node 26 1 1 1
node 27 1 1 1
node 28 1 1 1
node 29 1 1 1
node 30 1 1 1
node 31 1 1 1
node 32 1 1 1
node 33 1 1 1
node 34 1 1 1
node 35 1 1 1
node 36 1 1 1
node 37 1 1 1
node 38 1 1 1
node 39 1 1 1
node 40 1 1 1
node 41 1 1 1
node 42 1 1 1
node 43 1 1 1
node 44 1 1 1
node 45 1 1 1
node 46 1 1 1
node 47 1 1 1
node 48 1 1 1
node 49 1 1 1
node 50 1 1 1
node 51 1 1 1
node 52 1 1 1
node 53 1 1 1
node 54 1 1 1
node 55 1 1 1
node 56 1 1 1
node 57 1 1 1
node 58 1 1 1
node 59 1 1 1
node 60 1 1 1
node 61 1 1 1
node 62 1 1 1
node 63 1 1 1
node 64 1 1 1
node 65 1 1 1
node 66 1 1 1
node 67 1 1 1
node 68 1 1 1
node 69 1 1 1
node 70 1 1 1
node 71 1 1 1
node 72 1 1 1
node 73 1 1 1
node 74 1 1 1
node 75 1 1 1
node 76 1 1 1
node 77 1 1 1
node 78 1 1 1
node 79 1 1 1
node 80 1 1 1
node 81 1 1 1
node 82 1 1 1
node 83 1 1 1
node 84 1 1 1
node 85 1 1 1
node 86 1 1 1
node 87 1 1 1
node 88 1 1 1
node 89 1 1 1
node 90 1 1 1
node 91 1 1 1
node 92 1 1 1
node 93 1 1 1
node 94 1 1 1
node 95 1 1 1
node 96 1 1 1
node 97 1 1 1
node 98 1 1 1
node 99 1 1 1
node 100 1 1 1
node 101 1 1 1
node 102 1 1 1
node 103 1 1 1
node 104 1 1 1
node 105 1 1 1
node 106 1 1 1
node 107 1 1 1
node 108 1 1 1
node 109 1 1 1
node 110 1 1 1
node 111 1 1 3
node 112 1 0 0
node 140 1 0 2
node 141 1 0 2
node 142 1 0 2
node 143 1 0 2
node 144 1 0 2
node 145 1 0 2
gene 1 5 112 0.0529902 0 16099 0.0529902 1
gene 1 6 112 -0.951782 0 16100 -0.951782 1
gene 1 7 112 0.427531 0 16101 0.427531 1
gene 1 11 112 0.0554612 0 16105 0.0554612 1
gene 1 14 112 0.432701 0 16108 0.432701 1
gene 1 16 112 0.000255741 0 16110 0.000255741 1
gene 1 21 112 -0.315137 0 16115 -0.315137 1
gene 1 24 112 0.414833 0 16118 0.414833 1
gene 1 25 112 -0.491585 0 16119 -0.491585 1
gene 1 28 112 -0.661851 0 16122 -0.661851 1
gene 1 31 112 0.114929 0 16125 0.114929 1
gene 1 35 112 0.482199 0 16129 0.482199 1
gene 1 42 112 0.361629 0 16136 0.361629 1
gene 1 43 112 0.471546 0 16137 0.471546 1
gene 1 44 112 0.636385 0 16138 0.636385 1
gene 1 50 112 0.916825 0 16144 0.916825 1
gene 1 56 112 -0.562897 0 16150 -0.562897 1
gene 1 58 112 -0.569994 0 16152 -0.569994 1
gene 1 60 112 -0.351714 0 16154 -0.351714 1
gene 1 66 112 -0.240334 0 16160 -0.240334 1
gene 1 75 112 0.876083 0 16169 0.876083 1
gene 1 78 112 -0.611563 0 16172 -0.611563 1
gene 1 79 112 -0.822142 0 16173 -0.822142 1
gene 1 80 112 -0.282063 0 16174 -0.282063 1
gene 1 84 112 0.425977 0 16178 0.425977 1
gene 1 85 112 -0.260063 0 16179 -0.260063 1
gene 1 86 112 0.767593 0 16180 0.767593 1
gene 1 88 112 0.760067 0 16182 0.760067 1
gene 1 91 112 0.621176 0 16185 0.621176 1
gene 1 96 112 0.262549 0 16190 0.262549 1
gene 1 99 112 -0.837817 0 16193 -0.837817 1
gene 1 108 112 0.199257 0 16202 0.199257 1
gene 1 111 112 0.483793 0 16205 0.483793 1
gene 1 140 112 0.988823 1 16234 0.988823 1
gene 1 144 112 -0.0930836 1 16238 -0.0930836 1
gene 1 3 140 -0.194783 0 20157 -0.194783 1
gene 1 5 140 -0.78124 0 20159 -0.78124 1
gene 1 6 140 -0.723226 0 20160 -0.723226 1
gene 1 7 140 0.19727 0 20161 0.19727 1
gene 1 9 140 0.1174 0 20163 0.1174 1
gene 1 11 140 -0.452025 0 20165 -0.452025 1
gene 1 13 140 -0.728646 0 20167 -0.728646 1
gene 1 14 140 -0.0434486 0 20168 -0.0434486 1
gene 1 18 140 -0.0855623 0 20172 -0.0855623 1
gene 1 19 140 0.954312 0 20173 0.954312 1
gene 1 20 140 0.701148 0 20174 0.701148 1
gene 1 25 140 0.0905628 0 20179 0.0905628 1
gene 1 28 140 -0.124131 0 20182 -0.124131 1
gene 1 29 140 -0.202348 0 20183 -0.202348 1
gene 1 33 140 0.0202251 0 20187 0.0202251 1
gene 1 34 140 0.492055 0 20188 0.492055 1
gene 1 36 140 0.583245 0 20190 0.583245 1
gene 1 37 140 0.86542 0 20191 0.86542 1
gene 1 38 140 0.382841 0 20192 0.382841 1
gene 1 43 140 -0.674015 0 20197 -0.674015 1
gene 1 49 140 -0.352291 0 20203 -0.352291 1
gene 1 51 140 0.835246 0 20205 0.835246 1
gene 1 52 140 -0.177339 0 20206 -0.177339 1
gene 1 55 140 0.873864 0 20209 0.873864 1
gene 1 56 140 0.573466 0 20210 0.573466 1
gene 1 59 140 0.487708 0 20213 0.487708 1
gene 1 60 140 0.567245 0 20214 0.567245 1
gene 1 62 140 0.59846 0 20216 0.59846 1
gene 1 63 140 0.582712 0 20217 0.582712 1
gene 1 71 140 -0.20288 0 20225 -0.20288 1
gene 1 72 140 -0.14326 0 20226 -0.14326 1
gene 1 75 140 0.979705 0 20229 0.979705 1
gene 1 79 140 0.167397 0 20233 0.167397 1
gene 1 84 140 -0.398817 0 20238 -0.398817 1
gene 1 85 140 -0.853427 0 20239 -0.853427 1
gene 1 88 140 0.0761502 0 20242 0.0761502 1
gene 1 89 140 0.34695 0 20243 0.34695 1
gene 1 90 140 0.0647609 0 20244 0.0647609 1
gene 1 92 140 0.780135 0 20246 0.780135 1
gene 1 96 140 0.117103 0 20250 0.117103 1
gene 1 100 140 -0.698338 0 20254 -0.698338 1
gene 1 101 140 0.827006 0 20255 0.827006 1
gene 1 103 140 -0.689949 0 20257 -0.689949 1
gene 1 104 140 0.528425 0 20258 0.528425 1
gene 1 106 140 -0.826231 0 20260 -0.826231 1
gene 1 107 140 0.0617496 0 20261 0.0617496 1
gene 1 144 140 -0.172234 1 20298 -0.172234 1
gene 1 1 141 -0.367593 0 20300 -0.367593 1
gene 1 2 141 -0.695484 0 20301 -0.695484 1
gene 1 3 141 -0.680895 0 20302 -0.680895 1
gene 1 7 141 -0.274465 0 20306 -0.274465 1
gene 1 9 141 0.458763 0 20308 0.458763 1
gene 1 11 141 -0.286135 0 20310 -0.286135 1
gene 1 12 141 -0.580956 0 20311 -0.580956 1
gene 1 16 141 -0.235167 0 20315 -0.235167 1
gene 1 22 141 -0.707218 0 20321 -0.707218 1
gene 1 23 141 -0.384962 0 20322 -0.384962 1
gene 1 26 141 0.75234 0 20325 0.75234 1
gene 1 29 141 0.431789 0 20328 0.431789 1
gene 1 33 141 0.00293156 0 20332 0.00293156 1
gene 1 42 141 0.774262 0 20341 0.774262 1
gene 1 45 141 0.199186 0 20344 0.199186 1
gene 1 49 141 0.139772 0 20348 0.139772 1
gene 1 52 141 0.420259 0 20351 0.420259 1
gene 1 55 141 0.188305 0 20354 0.188305 1
gene 1 56 141 -0.0774265 0 20355 -0.0774265 1
gene 1 62 141 -0.290573 0 20361 -0.290573 1
gene 1 69 141 -0.963359 0 20368 -0.963359 1
gene 1 72 141 -0.43397 0 20371 -0.43397 1
gene 1 73 141 -0.579429 0 20372 -0.579429 1
gene 1 74 141 0.375019 0 20373 0.375019 1
gene 1 81 141 0.869707 0 20380 0.869707 1
gene 1 84 141 0.543628 0 20383 0.543628 1
gene 1 95 141 -0.979714 0 20394 -0.979714 1
gene 1 104 141 0.416681 0 20403 0.416681 1
gene 1 105 141 0.382405 0 20404 0.382405 1
gene 1 111 141 0.14511 0 20410 0.14511 1
gene 1 112 141 -0.297262 0 20411 -0.297262 1
gene 1 144 141 -0.282914 1 20443 -0.282914 1
gene 1 145 141 -0.635491 1 20444 -0.635491 1
gene 1 2 142 0.258749 0 20446 0.258749 1
gene 1 6 142 0.446417 0 20450 0.446417 1
gene 1 7 142 0.638979 0 20451 0.638979 1
gene 1 9 142 -0.19253 0 20453 -0.19253 1
gene 1 18 142 0.386166 0 20462 0.386166 1
gene 1 19 142 0.935707 0 20463 0.935707 1
gene 1 23 142 -0.193507 0 20467 -0.193507 1
gene 1 24 142 0.636637 0 20468 0.636637 1
gene 1 28 142 0.611946 0 20472 0.611946 1
gene 1 35 142 0.0459154 0 20479 0.0459154 1
gene 1 38 142 0.714427 0 20482 0.714427 1
gene 1 40 142 -0.544358 0 20484 -0.544358 1
gene 1 47 142 0.315132 0 20491 0.315132 1
gene 1 48 142 0.751748 0 20492 0.751748 1
gene 1 53 142 0.463713 0 20497 0.463713 1
gene 1 55 142 0.460201 0 20499 0.460201 1
gene 1 56 142 0.638871 0 20500 0.638871 1
gene 1 58 142 0.427569 0 20502 0.427569 1
gene 1 61 142 -0.817761 0 20505 -0.817761 1
gene 1 63 142 -0.399864 0 20507 -0.399864 1
gene 1 65 142 0.182592 0 20509 0.182592 1
gene 1 66 142 0.129197 0 20510 0.129197 1
gene 1 67 142 0.373328 0 20511 0.373328 1
gene 1 77 142 -0.0716843 0 20521 -0.0716843 1
gene 1 79 142 0.576996 0 20523 0.576996 1
gene 1 81 142 -0.396098 0 20525 -0.396098 1
gene 1 84 142 0.200446 0 20528 0.200446 1
gene 1 89 142 0.231349 0 20533 0.231349 1
gene 1 90 142 -0.413484 0 20534 -0.413484 1
gene 1 94 142 -0.734554 0 20538 -0.734554 1
gene 1 100 142 0.54915 0 20544 0.54915 1
gene 1 102 142 -0.722457 0 20546 -0.722457 1
gene 1 106 142 -0.375618 0 20550 -0.375618 1
gene 1 110 142 0.466422 0 20554 0.466422 1
gene 1 111 142 -0.837728 0 20555 -0.837728 1
gene 1 145 142 0.531049 1 20589 0.531049 1
gene 1 3 143 -0.117777 0 20592 -0.117777 1
gene 1 5 143 0.628817 0 20594 0.628817 1
gene 1 6 143 -0.967325 0 20595 -0.967325 1
gene 1 7 143 -0.543275 0 20596 -0.543275 1
gene 1 10 143 -0.613713 0 20599 -0.613713 1
gene 1 13 143 0.524671 0 20602 0.524671 1
gene 1 14 143 -0.0652598 0 20603 -0.0652598 1
gene 1 16 143 -0.655049 0 20605 -0.655049 1
gene 1 19 143 0.508452 0 20608 0.508452 1
gene 1 21 143 0.402438 0 20610 0.402438 1
gene 1 36 143 -0.218556 0 20625 -0.218556 1
gene 1 38 143 -0.362986 0 20627 -0.362986 1
gene 1 39 143 0.193416 0 20628 0.193416 1
gene 1 41 143 -0.590803 0 20630 -0.590803 1
gene 1 48 143 -0.691641 0 20637 -0.691641 1
gene 1 51 143 0.642327 0 20640 0.642327 1
gene 1 53 143 0.811514 0 20642 0.811514 1
gene 1 55 143 0.536739 0 20644 0.536739 1
gene 1 56 143 -0.204486 0 20645 -0.204486 1
gene 1 62 143 -0.0617324 0 20651 -0.0617324 1
gene 1 64 143 0.887543 0 20653 0.887543 1
gene 1 72 143 0.54161 0 20661 0.54161 1
gene 1 74 143 0.454125 0 20663 0.454125 1
gene 1 75 143 -0.408969 0 20664 -0.408969 1
gene 1 83 143 0.841059 0 20672 0.841059 1
gene 1 88 143 -0.49667 0 20677 -0.49667 1
gene 1 89 143 0.360099 0 20678 0.360099 1
gene 1 90 143 -0.602167 0 20679 -0.602167 1
gene 1 91 143 0.308947 0 20680 0.308947 1
gene 1 93 143 0.853682 0 20682 0.853682 1
gene 1 95 143 0.555348 0 20684 0.555348 1
gene 1 96 143 -0.462711 0 20685 -0.462711 1
gene 1 97 143 -0.576356 0 20686 -0.576356 1
gene 1 98 143 0.370667 0 20687 0.370667 1
gene 1 100 143 -0.460159 0 20689 -0.460159 1
gene 1 102 143 0.12409 0 20691 0.12409 1
gene 1 104 143 -0.231474 0 20693 -0.231474 1
gene 1 105 143 -0.807795 0 20694 -0.807795 1
gene 1 141 143 -0.973066 0 20730 -0.973066 1
gene 1 143 143 0.3576 1 20732 0.3576 1
gene 1 2 144 -0.911334 0 20736 -0.911334 1
gene 1 4 144 -0.0372998 0 20738 -0.0372998 1
gene 1 9 144 0.661206 0 20743 0.661206 1
gene 1 11 144 0.481288 0 20745 0.481288 1
gene 1 19 144 -0.520542 0 20753 -0.520542 1
gene 1 27 144 -0.00303782 0 20761 -0.00303782 1
gene 1 28 144 0.866275 0 20762 0.866275 1
gene 1 32 144 -0.85659 0 20766 -0.85659 1
gene 1 38 144 0.343415 0 20772 0.343415 1
gene 1 41 144 -0.699035 0 20775 -0.699035 1
gene 1 43 144 0.248303 0 20777 0.248303 1
gene 1 47 144 0.687947 0 20781 0.687947 1
gene 1 49 144 0.319711 0 20783 0.319711 1
gene 1 50 144 -0.304447 0 20784 -0.304447 1
gene 1 54 144 -0.30342 0 20788 -0.30342 1
gene 1 56 144 0.53499 0 20790 0.53499 1
gene 1 57 144 -0.822168 0 20791 -0.822168 1
gene 1 63 144 0.024678 0 20797 0.024678 1
gene 1 64 144 -0.191229 0 20798 -0.191229 1
gene 1 67 144 -0.269559 0 20801 -0.269559 1
gene 1 71 144 -0.68174 0 20805 -0.68174 1
gene 1 75 144 0.335799 0 20809 0.335799 1
gene 1 78 144 -0.305551 0 20812 -0.305551 1
gene 1 79 144 -0.68361 0 20813 -0.68361 1
gene 1 81 144 -0.382449 0 20815 -0.382449 1
gene 1 85 144 0.927538 0 20819 0.927538 1
gene 1 87 144 0.661982 0 20821 0.661982 1
gene 1 96 144 0.823488 0 20830 0.823488 1
gene 1 100 144 0.622318 0 20834 0.622318 1
gene 1 102 144 0.17325 0 20836 0.17325 1
gene 1 105 144 -0.422862 0 20839 -0.422862 1
gene 1 112 144 -0.200983 0 20846 -0.200983 1
gene 1 142 144 0.635323 0 20876 0.635323 1
gene 1 144 144 -0.0198535 1 20878 -0.0198535 1
gene 1 145 144 0.717935 1 20879 0.717935 1
gene 1 5 145 0.531133 0 20884 0.531133 1
gene 1 8 145 -0.705667 0 20887 -0.705667 1
gene 1 14 145 -0.839431 0 20893 -0.839431 1
gene 1 17 145 0.340922 0 20896 0.340922 1
gene 1 18 145 0.042922 0 20897 0.042922 1
gene 1 27 145 0.776876 0 20906 0.776876 1
gene 1 29 145 -0.869336 0 20908 -0.869336 1
gene 1 35 145 0.00664665 0 20914 0.00664665 1
gene 1 36 145 -0.270516 0 20915 -0.270516 1
gene 1 37 145 -0.837292 0 20916 -0.837292 1
gene 1 38 145 0.385199 0 20917 0.385199 1
gene 1 39 145 -0.936746 0 20918 -0.936746 1
gene 1 40 145 -0.0685967 0 20919 -0.0685967 1
gene 1 45 145 0.593783 0 20924 0.593783 1
gene 1 47 145 -0.184465 0 20926 -0.184465 1
gene 1 61 145 -0.192833 0 20940 -0.192833 1
gene 1 64 145 -0.699083 0 20943 -0.699083 1
gene 1 72 145 -0.0339799 0 20951 -0.0339799 1
gene 1 74 145 -0.621218 0 20953 -0.621218 1
gene 1 81 145 0.368466 0 20960 0.368466 1
gene 1 84 145 -0.129153 0 20963 -0.129153 1
gene 1 85 145 0.0889241 0 20964 0.0889241 1
gene 1 88 145 -0.815308 0 20967 -0.815308 1
gene 1 97 145 -0.439113 0 20976 -0.439113 1
gene 1 105 145 0.555089 0 20984 0.555089 1
gene 1 109 145 -0.658641 0 20988 -0.658641 1
gene 1 144 145 -0.767715 0 21023 -0.767715 1
gene 1 145 145 -0.77944 1 21024 -0.77944 1
genomeend 0
