genomestart 1273611072
trait 1 0 0 0 0 0 0 0 0 
node 1 1 1 1
node 2 1 1 1
node 3 1 1 1
node 4 1 1 1
node 5 1 1 1
node 6 1 1 1
node 7 1 1 1
node 8 1 1 1
node 9 1 1 1
node 10 1 1 1
node 11 1 1 1
node 12 1 1 1
node 13 1 1 1
node 14 1 1 1
node 15 1 1 1
node 16 1 1 1
node 17 1 1 1
node 18 1 1 1
node 19 1 1 1
node 20 1 1 1
node 21 1 1 1
node 22 1 1 1
node 23 1 1 1
node 24 1 1 1
node 25 1 1 1
node 26 1 1 1
node 27 1 1 1
node 28 1 1 1
node 29 1 1 1
node 30 1 1 1
node 31 1 1 1
node 32 1 1 1
node 33 1 1 1
node 34 1 1 1
node 35 1 1 1
node 36 1 1 1
node 37 1 1 1
node 38 1 1 1
node 39 1 1 1
node 40 1 1 1
node 41 1 1 1
node 42 1 1 1
node 43 1 1 1
node 44 1 1 1
node 45 1 1 1
node 46 1 1 1
node 47 1 1 1
node 48 1 1 1
node 49 1 1 1
node 50 1 1 1
node 51 1 1 1
node 52 1 1 1
node 53 1 1 1
node 54 1 1 1
node 55 1 1 1
node 56 1 1 1
node 57 1 1 1
node 58 1 1 1
node 59 1 1 1
node 60 1 1 1
node 61 1 1 1
node 62 1 1 1
node 63 1 1 1
node 64 1 1 1
node 65 1 1 1
node 66 1 1 1
node 67 1 1 1
node 68 1 1 1
node 69 1 1 1
node 70 1 1 1
node 71 1 1 1
node 72 1 1 1
node 73 1 1 1
node 74 1 1 1
node 75 1 1 1
node 76 1 1 1
node 77 1 1 1
node 78 1 1 1
node 79 1 1 1
node 80 1 1 1
node 81 1 1 1
node 82 1 1 1
node 83 1 1 1
node 84 1 1 1
node 85 1 1 1
node 86 1 1 1
node 87 1 1 1
node 88 1 1 1
node 89 1 1 1
node 90 1 1 1
node 91 1 1 1
node 92 1 1 1
node 93 1 1 1
node 94 1 1 1
node 95 1 1 1
node 96 1 1 1
node 97 1 1 1
node 98 1 1 1
node 99 1 1 1
node 100 1 1 1
node 101 1 1 1
node 102 1 1 1
node 103 1 1 1
node 104 1 1 1
node 105 1 1 1
node 106 1 1 1
node 107 1 1 1
node 108 1 1 1
node 109 1 1 1
node 110 1 1 1
node 111 1 1 3
node 112 1 0 0
node 140 1 0 2
node 141 1 0 2
node 142 1 0 2
node 143 1 0 2
node 144 1 0 2
node 145 1 0 2
gene 1 5 112 3.77677 0 16099 3.77677 1
gene 1 6 112 -3.06928 0 16100 -3.06928 1
gene 1 7 112 0.579602 0 16101 0.579602 1
gene 1 11 112 4.23603 0 16105 4.23603 1
gene 1 14 112 1.95576 0 16108 1.95576 1
gene 1 16 112 -1.91797 0 16110 -1.91797 1
gene 1 21 112 -0.563917 0 16115 -0.563917 1
gene 1 24 112 -1.11653 0 16118 -1.11653 1
gene 1 25 112 2.03514 0 16119 2.03514 1
gene 1 28 112 1.3848 0 16122 1.3848 1
gene 1 31 112 -2.053 0 16125 -2.053 1
gene 1 35 112 -1.08029 0 16129 -1.08029 1
gene 1 42 112 0.797941 0 16136 0.797941 1
gene 1 43 112 -1.17759 0 16137 -1.17759 1
gene 1 44 112 2.34103 0 16138 2.34103 1
gene 1 50 112 3.27842 0 16144 3.27842 1
gene 1 56 112 0.742334 0 16150 0.742334 1
gene 1 58 112 -4.10058 0 16152 -4.10058 1
gene 1 60 112 -0.906066 0 16154 -0.906066 1
gene 1 66 112 -1.54329 0 16160 -1.54329 1
gene 1 75 112 -1.07185 0 16169 -1.07185 1
gene 1 78 112 1.75336 0 16172 1.75336 1
gene 1 79 112 -1.47435 0 16173 -1.47435 1
gene 1 80 112 -0.500458 0 16174 -0.500458 1
gene 1 84 112 2.84907 0 16178 2.84907 1
gene 1 85 112 -0.714308 0 16179 -0.714308 1
gene 1 86 112 1.99178 0 16180 1.99178 1
gene 1 88 112 -1.23275 0 16182 -1.23275 1
gene 1 91 112 0.613966 0 16185 0.613966 1
gene 1 96 112 2.25434 0 16190 2.25434 1
gene 1 99 112 -1.09107 0 16193 -1.09107 1
gene 1 108 112 -0.0781688 0 16202 -0.0781688 1
gene 1 111 112 -3.43531 0 16205 -3.43531 1
gene 1 140 112 1.5047 1 16234 1.5047 1
gene 1 144 112 3.00436 1 16238 3.00436 1
gene 1 3 140 -0.695004 0 20157 -0.695004 1
gene 1 5 140 0.557529 0 20159 0.557529 1
gene 1 6 140 0.937657 0 20160 0.937657 1
gene 1 7 140 -1.94024 0 20161 -1.94024 1
gene 1 9 140 0.449194 0 20163 0.449194 1
gene 1 11 140 2.1331 0 20165 2.1331 1
gene 1 13 140 -0.114664 0 20167 -0.114664 1
gene 1 14 140 -0.48242 0 20168 -0.48242 1
gene 1 18 140 -3.15057 0 20172 -3.15057 1
gene 1 19 140 -3.86591 0 20173 -3.86591 1
gene 1 20 140 1.01492 0 20174 1.01492 1
gene 1 25 140 1.95244 0 20179 1.95244 1
gene 1 28 140 -3.49739 0 20182 -3.49739 1
gene 1 29 140 -2.46481 0 20183 -2.46481 1
gene 1 33 140 -1.92373 0 20187 -1.92373 1
gene 1 34 140 0.525406 0 20188 0.525406 1
gene 1 36 140 2.02718 0 20190 2.02718 1
gene 1 37 140 1.97663 0 20191 1.97663 1
gene 1 38 140 1.47911 0 20192 1.47911 1
gene 1 43 140 2.64739 0 20197 2.64739 1
gene 1 49 140 -0.753318 0 20203 -0.753318 1
gene 1 51 140 2.61089 0 20205 2.61089 1
gene 1 52 140 0.818029 0 20206 0.818029 1
gene 1 55 140 -0.624358 0 20209 -0.624358 1
gene 1 56 140 -1.90876 0 20210 -1.90876 1
gene 1 59 140 -1.65596 0 20213 -1.65596 1
gene 1 60 140 2.95918 0 20214 2.95918 1
gene 1 62 140 3.8818 0 20216 3.8818 1
gene 1 63 140 1.23655 0 20217 1.23655 1
gene 1 71 140 -1.15541 0 20225 -1.15541 1
gene 1 72 140 -0.668074 0 20226 -0.668074 1
gene 1 75 140 0.327961 0 20229 0.327961 1
gene 1 79 140 -0.286733 0 20233 -0.286733 1
gene 1 84 140 0.212368 0 20238 0.212368 1
gene 1 85 140 0.0331026 0 20239 0.0331026 1
gene 1 88 140 -2.65878 0 20242 -2.65878 1
gene 1 89 140 -2.45695 0 20243 -2.45695 1
gene 1 90 140 -3.99448 0 20244 -3.99448 1
gene 1 92 140 -1.9133 0 20246 -1.9133 1
gene 1 96 140 3.00154 0 20250 3.00154 1
gene 1 100 140 1.65238 0 20254 1.65238 1
gene 1 101 140 -0.109572 0 20255 -0.109572 1
gene 1 103 140 -3.14562 0 20257 -3.14562 1
gene 1 104 140 -1.53503 0 20258 -1.53503 1
gene 1 106 140 0.173126 0 20260 0.173126 1
gene 1 107 140 2.05117 0 20261 2.05117 1
gene 1 144 140 3.87283 1 20298 3.87283 1
gene 1 1 141 -0.0368662 0 20300 -0.0368662 1
gene 1 2 141 5.13131 0 20301 5.13131 1
gene 1 3 141 -0.623779 0 20302 -0.623779 1
gene 1 7 141 -4.86166 0 20306 -4.86166 1
gene 1 9 141 5.05453 0 20308 5.05453 1
gene 1 11 141 -2.36887 0 20310 -2.36887 1
gene 1 12 141 2.79975 0 20311 2.79975 1
gene 1 16 141 -3.07529 0 20315 -3.07529 1
gene 1 22 141 -3.05838 0 20321 -3.05838 1
gene 1 23 141 2.17102 0 20322 2.17102 1
gene 1 26 141 -4.28413 0 20325 -4.28413 1
gene 1 29 141 -1.42896 0 20328 -1.42896 1
gene 1 33 141 -2.62021 0 20332 -2.62021 1
gene 1 42 141 3.60932 0 20341 3.60932 1
gene 1 45 141 -2.25106 0 20344 -2.25106 1
gene 1 49 141 -3.45301 0 20348 -3.45301 1
gene 1 52 141 -0.555501 0 20351 -0.555501 1
gene 1 55 141 1.72585 0 20354 1.72585 1
gene 1 56 141 1.64729 0 20355 1.64729 1
gene 1 62 141 0.818612 0 20361 0.818612 1
gene 1 69 141 -0.318855 0 20368 -0.318855 1
gene 1 72 141 -3.40137 0 20371 -3.40137 1
gene 1 73 141 2.34539 0 20372 2.34539 1
gene 1 74 141 -1.83404 0 20373 -1.83404 1
gene 1 81 141 -1.33259 0 20380 -1.33259 1
gene 1 84 141 -0.900092 0 20383 -0.900092 1
gene 1 95 141 1.34413 0 20394 1.34413 1
gene 1 104 141 -2.50299 0 20403 -2.50299 1
gene 1 105 141 -1.35816 0 20404 -1.35816 1
gene 1 111 141 -1.74216 0 20410 -1.74216 1
gene 1 112 141 3.51549 0 20411 3.51549 1
gene 1 144 141 1.72399 1 20443 1.72399 1
gene 1 145 141 -2.5622 1 20444 -2.5622 1
gene 1 2 142 2.04287 0 20446 2.04287 1
gene 1 6 142 0.396343 0 20450 0.396343 1
gene 1 7 142 -1.31999 0 20451 -1.31999 1
gene 1 9 142 -0.726061 0 20453 -0.726061 1
gene 1 18 142 -0.235717 0 20462 -0.235717 1
gene 1 19 142 3.15734 0 20463 3.15734 1
gene 1 23 142 -4.54307 0 20467 -4.54307 1
gene 1 24 142 3.57497 0 20468 3.57497 1
gene 1 28 142 -2.22341 0 20472 -2.22341 1
gene 1 35 142 3.77933 0 20479 3.77933 1
gene 1 38 142 -1.01527 0 20482 -1.01527 1
gene 1 40 142 -1.2798 0 20484 -1.2798 1
gene 1 47 142 0.634229 0 20491 0.634229 1
gene 1 48 142 -3.96586 0 20492 -3.96586 1
gene 1 53 142 -1.46534 0 20497 -1.46534 1
gene 1 55 142 4.0306 0 20499 4.0306 1
gene 1 56 142 -0.667927 0 20500 -0.667927 1
gene 1 58 142 -0.395447 0 20502 -0.395447 1
gene 1 61 142 4.55351 0 20505 4.55351 1
gene 1 63 142 2.06477 0 20507 2.06477 1
gene 1 65 142 -1.06645 0 20509 -1.06645 1
gene 1 66 142 1.33057 0 20510 1.33057 1
gene 1 67 142 -2.93501 0 20511 -2.93501 1
gene 1 77 142 -2.52758 0 20521 -2.52758 1
gene 1 79 142 0.81325 0 20523 0.81325 1
gene 1 81 142 3.69641 0 20525 3.69641 1
gene 1 84 142 -0.7553 0 20528 -0.7553 1
gene 1 89 142 -1.1634 0 20533 -1.1634 1
gene 1 90 142 0.529221 0 20534 0.529221 1
gene 1 94 142 1.0844 0 20538 1.0844 1
gene 1 100 142 -0.575021 0 20544 -0.575021 1
gene 1 102 142 0.864161 0 20546 0.864161 1
gene 1 106 142 -1.17764 0 20550 -1.17764 1
gene 1 110 142 2.98064 0 20554 2.98064 1
gene 1 111 142 3.39686 0 20555 3.39686 1
gene 1 145 142 -3.13929 1 20589 -3.13929 1
gene 1 3 143 2.33648 0 20592 2.33648 1
gene 1 5 143 0.0215141 0 20594 0.0215141 1
gene 1 6 143 0.293585 0 20595 0.293585 1
gene 1 7 143 -0.206086 0 20596 -0.206086 1
gene 1 10 143 -0.211721 0 20599 -0.211721 1
gene 1 13 143 -1.03043 0 20602 -1.03043 1
gene 1 14 143 3.1166 0 20603 3.1166 1
gene 1 16 143 -1.63196 0 20605 -1.63196 1
gene 1 19 143 0.977841 0 20608 0.977841 1
gene 1 21 143 -3.23881 0 20610 -3.23881 1
gene 1 36 143 1.70612 0 20625 1.70612 1
gene 1 38 143 -1.22191 0 20627 -1.22191 1
gene 1 39 143 -0.574801 0 20628 -0.574801 1
gene 1 41 143 0.841959 0 20630 0.841959 1
gene 1 48 143 -0.924267 0 20637 -0.924267 1
gene 1 51 143 -2.928 0 20640 -2.928 1
gene 1 53 143 2.10425 0 20642 2.10425 1
gene 1 55 143 -1.69528 0 20644 -1.69528 1
gene 1 56 143 2.03163 0 20645 2.03163 1
gene 1 62 143 -0.143164 0 20651 -0.143164 1
gene 1 64 143 -1.34445 0 20653 -1.34445 1
gene 1 72 143 0.336938 0 20661 0.336938 1
gene 1 74 143 -1.68706 0 20663 -1.68706 1
gene 1 75 143 -3.04762 0 20664 -3.04762 1
gene 1 83 143 0.974344 0 20672 0.974344 1
gene 1 88 143 -2.61145 0 20677 -2.61145 1
gene 1 89 143 -0.262568 0 20678 -0.262568 1
gene 1 90 143 3.51198 0 20679 3.51198 1
gene 1 91 143 -0.354377 0 20680 -0.354377 1
gene 1 93 143 0.903966 0 20682 0.903966 1
gene 1 95 143 -0.768223 0 20684 -0.768223 1
gene 1 96 143 2.01624 0 20685 2.01624 1
gene 1 97 143 1.5021 0 20686 1.5021 1
gene 1 98 143 1.82637 0 20687 1.82637 1
gene 1 100 143 5.51473 0 20689 5.51473 1
gene 1 102 143 -2.12451 0 20691 -2.12451 1
gene 1 104 143 3.1028 0 20693 3.1028 1
gene 1 105 143 -6.98851 0 20694 -6.98851 1
gene 1 141 143 -2.59882 0 20730 -2.59882 1
gene 1 143 143 -1.38938 1 20732 -1.38938 1
gene 1 2 144 -3.5279 0 20736 -3.5279 1
gene 1 4 144 -2.35214 0 20738 -2.35214 1
gene 1 9 144 -0.712839 0 20743 -0.712839 1
gene 1 11 144 -1.84689 0 20745 -1.84689 1
gene 1 19 144 -1.42039 0 20753 -1.42039 1
gene 1 27 144 -0.626126 0 20761 -0.626126 1
gene 1 28 144 1.34007 0 20762 1.34007 1
gene 1 32 144 -3.3935 0 20766 -3.3935 1
gene 1 38 144 -3.77268 0 20772 -3.77268 1
gene 1 41 144 3.48041 0 20775 3.48041 1
gene 1 43 144 -4.71829 0 20777 -4.71829 1
gene 1 47 144 2.77213 0 20781 2.77213 1
gene 1 49 144 3.20313 0 20783 3.20313 1
gene 1 50 144 -0.192367 0 20784 -0.192367 1
gene 1 54 144 -1.02396 0 20788 -1.02396 1
gene 1 56 144 2.17439 0 20790 2.17439 1
gene 1 57 144 -0.505957 0 20791 -0.505957 1
gene 1 63 144 -0.392688 0 20797 -0.392688 1
gene 1 64 144 -0.528011 0 20798 -0.528011 1
gene 1 67 144 -0.293775 0 20801 -0.293775 1
gene 1 71 144 1.21861 0 20805 1.21861 1
gene 1 75 144 -1.85603 0 20809 -1.85603 1
gene 1 78 144 -0.18415 0 20812 -0.18415 1
gene 1 79 144 -0.558968 0 20813 -0.558968 1
gene 1 81 144 -2.94731 0 20815 -2.94731 1
gene 1 85 144 -0.641119 0 20819 -0.641119 1
gene 1 87 144 2.97694 0 20821 2.97694 1
gene 1 96 144 0.418006 0 20830 0.418006 1
gene 1 100 144 -0.876962 0 20834 -0.876962 1
gene 1 102 144 1.5441 0 20836 1.5441 1
gene 1 105 144 1.99866 0 20839 1.99866 1
gene 1 112 144 2.28356 0 20846 2.28356 1
gene 1 142 144 1.94616 0 20876 1.94616 1
gene 1 144 144 -2.74316 1 20878 -2.74316 1
gene 1 145 144 3.74882 1 20879 3.74882 1
gene 1 5 145 -2.05763 0 20884 -2.05763 1
gene 1 8 145 -1.65617 0 20887 -1.65617 1
gene 1 14 145 0.461256 0 20893 0.461256 1
gene 1 17 145 1.35906 0 20896 1.35906 1
gene 1 18 145 2.87882 0 20897 2.87882 1
gene 1 27 145 0.685578 0 20906 0.685578 1
gene 1 29 145 -0.17221 0 20908 -0.17221 1
gene 1 35 145 4.5543 0 20914 4.5543 1
gene 1 36 145 -0.525468 0 20915 -0.525468 1
gene 1 37 145 1.41499 0 20916 1.41499 1
gene 1 38 145 -3.22666 0 20917 -3.22666 1
gene 1 39 145 2.47683 0 20918 2.47683 1
gene 1 40 145 2.51452 0 20919 2.51452 1
gene 1 45 145 -0.267605 0 20924 -0.267605 1
gene 1 47 145 -0.131715 0 20926 -0.131715 1
gene 1 61 145 -0.847281 0 20940 -0.847281 1
gene 1 64 145 -0.689365 0 20943 -0.689365 1
gene 1 72 145 -2.6628 0 20951 -2.6628 1
gene 1 74 145 1.12667 0 20953 1.12667 1
gene 1 81 145 0.248607 0 20960 0.248607 1
gene 1 84 145 -0.00781621 0 20963 -0.00781621 1
gene 1 85 145 -0.0614472 0 20964 -0.0614472 1
gene 1 88 145 1.15191 0 20967 1.15191 1
gene 1 97 145 -0.711226 0 20976 -0.711226 1
gene 1 105 145 2.92089 0 20984 2.92089 1
gene 1 109 145 1.69176 0 20988 1.69176 1
gene 1 144 145 -1.71601 0 21023 -1.71601 1
gene 1 145 145 3.10613 1 21024 3.10613 1
genomeend 1273611072
