genomestart 0
trait 1 0 0 0 0 0 0 0 0 
node 1 1 1 1
node 2 1 1 1
node 3 1 1 1
node 4 1 1 1
node 5 1 1 1
node 6 1 1 1
node 7 1 1 1
node 8 1 1 1
node 9 1 1 1
node 10 1 1 1
node 11 1 1 1
node 12 1 1 1
node 13 1 1 1
node 14 1 1 1
node 15 1 1 1
node 16 1 1 1
node 17 1 1 1
node 18 1 1 1
node 19 1 1 1
node 20 1 1 1
node 21 1 1 1
node 22 1 1 1
node 23 1 1 1
node 24 1 1 1
node 25 1 1 1
node 26 1 1 1
node 27 1 1 1
node 28 1 1 1
node 29 1 1 1
node 30 1 1 1
node 31 1 1 1
node 32 1 1 1
node 33 1 1 1
node 34 1 1 1
node 35 1 1 1
node 36 1 1 1
node 37 1 1 1
node 38 1 1 1
node 39 1 1 1
node 40 1 1 1
node 41 1 1 1
node 42 1 1 1
node 43 1 1 1
node 44 1 1 1
node 45 1 1 1
node 46 1 1 1
node 47 1 1 1
node 48 1 1 1
node 49 1 1 1
node 50 1 1 1
node 51 1 1 1
node 52 1 1 1
node 53 1 1 1
node 54 1 1 1
node 55 1 1 1
node 56 1 1 1
node 57 1 1 1
node 58 1 1 1
node 59 1 1 1
node 60 1 1 1
node 61 1 1 1
node 62 1 1 1
node 63 1 1 1
node 64 1 1 1
node 65 1 1 1
node 66 1 1 1
node 67 1 1 1
node 68 1 1 1
node 69 1 1 1
node 70 1 1 1
node 71 1 1 1
node 72 1 1 1
node 73 1 1 1
node 74 1 1 1
node 75 1 1 1
node 76 1 1 1
node 77 1 1 1
node 78 1 1 1
node 79 1 1 1
node 80 1 1 1
node 81 1 1 1
node 82 1 1 1
node 83 1 1 1
node 84 1 1 1
node 85 1 1 1
node 86 1 1 1
node 87 1 1 1
node 88 1 1 1
node 89 1 1 1
node 90 1 1 1
node 91 1 1 1
node 92 1 1 1
node 93 1 1 1
node 94 1 1 1
node 95 1 1 1
node 96 1 1 1
node 97 1 1 1
node 98 1 1 1
node 99 1 1 1
node 100 1 1 1
node 101 1 1 1
node 102 1 1 1
node 103 1 1 1
node 104 1 1 1
node 105 1 1 1
node 106 1 1 1
node 107 1 1 1
node 108 1 1 1
node 109 1 1 1
node 110 1 1 1
node 111 1 1 3
node 112 1 0 0
node 136 1 0 2
node 137 1 0 2
node 138 1 0 2
node 139 1 0 2
gene 1 3 112 0.452636 0 15431 0.452636 1
gene 1 7 112 -0.436539 0 15435 -0.436539 1
gene 1 8 112 -0.457461 0 15436 -0.457461 1
gene 1 12 112 -0.480717 0 15440 -0.480717 1
gene 1 22 112 -0.507644 0 15450 -0.507644 1
gene 1 23 112 0.963687 0 15451 0.963687 1
gene 1 24 112 0.693943 0 15452 0.693943 1
gene 1 29 112 -0.434288 0 15457 -0.434288 1
gene 1 30 112 -0.484538 0 15458 -0.484538 1
gene 1 31 112 -0.780898 0 15459 -0.780898 1
gene 1 32 112 -0.555786 0 15460 -0.555786 1
gene 1 33 112 0.0051363 0 15461 0.0051363 1
gene 1 34 112 0.634194 0 15462 0.634194 1
gene 1 37 112 0.268734 0 15465 0.268734 1
gene 1 38 112 -0.359099 0 15466 -0.359099 1
gene 1 42 112 0.163529 0 15470 0.163529 1
gene 1 44 112 -0.319099 0 15472 -0.319099 1
gene 1 48 112 0.0908695 0 15476 0.0908695 1
gene 1 49 112 -0.734243 0 15477 -0.734243 1
gene 1 50 112 -0.884481 0 15478 -0.884481 1
gene 1 51 112 0.0998333 0 15479 0.0998333 1
gene 1 52 112 -0.970619 0 15480 -0.970619 1
gene 1 53 112 -0.0459294 0 15481 -0.0459294 1
gene 1 54 112 -0.680663 0 15482 -0.680663 1
gene 1 58 112 0.730286 0 15486 0.730286 1
gene 1 68 112 -0.52054 0 15496 -0.52054 1
gene 1 71 112 0.174176 0 15499 0.174176 1
gene 1 73 112 -0.887978 0 15501 -0.887978 1
gene 1 76 112 -0.204601 0 15504 -0.204601 1
gene 1 77 112 -0.66313 0 15505 -0.66313 1
gene 1 79 112 -0.00558905 0 15507 -0.00558905 1
gene 1 80 112 -0.379902 0 15508 -0.379902 1
gene 1 82 112 0.387459 0 15510 0.387459 1
gene 1 84 112 0.030728 0 15512 0.030728 1
gene 1 90 112 0.267868 0 15518 0.267868 1
gene 1 91 112 -0.843593 0 15519 -0.843593 1
gene 1 101 112 0.687118 0 15529 0.687118 1
gene 1 102 112 0.402752 0 15530 0.402752 1
gene 1 104 112 -0.472581 0 15532 -0.472581 1
gene 1 106 112 0.162873 0 15534 0.162873 1
gene 1 108 112 0.966971 0 15536 0.966971 1
gene 1 139 112 -0.170445 1 15567 -0.170445 1
gene 1 1 136 -0.809389 0 18765 -0.809389 1
gene 1 3 136 -0.476925 0 18767 -0.476925 1
gene 1 5 136 -0.853337 0 18769 -0.853337 1
gene 1 16 136 0.56396 0 18780 0.56396 1
gene 1 25 136 -0.962856 0 18789 -0.962856 1
gene 1 31 136 -0.118195 0 18795 -0.118195 1
gene 1 33 136 0.81783 0 18797 0.81783 1
gene 1 42 136 -0.81143 0 18806 -0.81143 1
gene 1 47 136 0.0804203 0 18811 0.0804203 1
gene 1 49 136 -0.939243 0 18813 -0.939243 1
gene 1 51 136 0.0102356 0 18815 0.0102356 1
gene 1 53 136 -0.948299 0 18817 -0.948299 1
gene 1 55 136 -0.530882 0 18819 -0.530882 1
gene 1 57 136 -0.357249 0 18821 -0.357249 1
gene 1 58 136 0.46402 0 18822 0.46402 1
gene 1 64 136 -0.845758 0 18828 -0.845758 1
gene 1 66 136 0.59385 0 18830 0.59385 1
gene 1 69 136 -0.116585 0 18833 -0.116585 1
gene 1 71 136 -0.685892 0 18835 -0.685892 1
gene 1 74 136 -0.351297 0 18838 -0.351297 1
gene 1 75 136 -0.630831 0 18839 -0.630831 1
gene 1 76 136 0.852092 0 18840 0.852092 1
gene 1 78 136 -0.958633 0 18842 -0.958633 1
gene 1 84 136 0.605835 0 18848 0.605835 1
gene 1 89 136 0.277428 0 18853 0.277428 1
gene 1 90 136 0.522917 0 18854 0.522917 1
gene 1 93 136 0.078206 0 18857 0.078206 1
gene 1 97 136 -0.415352 0 18861 -0.415352 1
gene 1 103 136 -0.25218 0 18867 -0.25218 1
gene 1 110 136 -0.82845 0 18874 -0.82845 1
gene 1 111 136 -0.286194 0 18875 -0.286194 1
gene 1 136 136 0.44463 1 18900 0.44463 1
gene 1 137 136 0.77773 1 18901 0.77773 1
gene 1 1 137 0.337886 0 18904 0.337886 1
gene 1 3 137 0.318437 0 18906 0.318437 1
gene 1 4 137 0.259373 0 18907 0.259373 1
gene 1 12 137 0.387976 0 18915 0.387976 1
gene 1 14 137 0.879426 0 18917 0.879426 1
gene 1 16 137 -0.608354 0 18919 -0.608354 1
gene 1 17 137 -0.240443 0 18920 -0.240443 1
gene 1 22 137 -0.809787 0 18925 -0.809787 1
gene 1 24 137 0.172316 0 18927 0.172316 1
gene 1 25 137 0.431498 0 18928 0.431498 1
gene 1 28 137 0.795927 0 18931 0.795927 1
gene 1 30 137 -0.113442 0 18933 -0.113442 1
gene 1 36 137 -0.702812 0 18939 -0.702812 1
gene 1 37 137 0.133066 0 18940 0.133066 1
gene 1 41 137 -0.283691 0 18944 -0.283691 1
gene 1 44 137 0.538749 0 18947 0.538749 1
gene 1 45 137 -0.651119 0 18948 -0.651119 1
gene 1 50 137 0.291322 0 18953 0.291322 1
gene 1 53 137 0.542717 0 18956 0.542717 1
gene 1 54 137 -0.0724157 0 18957 -0.0724157 1
gene 1 55 137 -0.445392 0 18958 -0.445392 1
gene 1 61 137 0.72733 0 18964 0.72733 1
gene 1 62 137 -0.781809 0 18965 -0.781809 1
gene 1 70 137 -0.325671 0 18973 -0.325671 1
gene 1 73 137 -0.112475 0 18976 -0.112475 1
gene 1 77 137 0.375336 0 18980 0.375336 1
gene 1 79 137 -0.826054 0 18982 -0.826054 1
gene 1 84 137 0.457903 0 18987 0.457903 1
gene 1 85 137 -0.280114 0 18988 -0.280114 1
gene 1 88 137 -0.0572968 0 18991 -0.0572968 1
gene 1 92 137 0.801168 0 18995 0.801168 1
gene 1 96 137 -0.268606 0 18999 -0.268606 1
gene 1 100 137 -0.852643 0 19003 -0.852643 1
gene 1 109 137 0.685933 0 19012 0.685933 1
gene 1 110 137 0.278466 0 19013 0.278466 1
gene 1 137 137 -0.099626 1 19040 -0.099626 1
gene 1 1 138 -0.2653 0 19043 -0.2653 1
gene 1 5 138 -0.995661 0 19047 -0.995661 1
gene 1 9 138 0.570708 0 19051 0.570708 1
gene 1 11 138 -0.291474 0 19053 -0.291474 1
gene 1 26 138 -0.616489 0 19068 -0.616489 1
gene 1 27 138 -0.797504 0 19069 -0.797504 1
gene 1 30 138 0.169343 0 19072 0.169343 1
gene 1 34 138 -0.504603 0 19076 -0.504603 1
gene 1 35 138 -0.957841 0 19077 -0.957841 1
gene 1 50 138 0.253696 0 19092 0.253696 1
gene 1 52 138 -0.41941 0 19094 -0.41941 1
gene 1 60 138 0.545379 0 19102 0.545379 1
gene 1 61 138 -0.663359 0 19103 -0.663359 1
gene 1 67 138 -0.573895 0 19109 -0.573895 1
gene 1 69 138 0.0953622 0 19111 0.0953622 1
gene 1 71 138 -0.105238 0 19113 -0.105238 1
gene 1 75 138 -0.893358 0 19117 -0.893358 1
gene 1 77 138 -0.642656 0 19119 -0.642656 1
gene 1 85 138 0.927677 0 19127 0.927677 1
gene 1 86 138 -0.0589125 0 19128 -0.0589125 1
gene 1 109 138 0.945143 0 19151 0.945143 1
gene 1 110 138 -0.651812 0 19152 -0.651812 1
gene 1 112 138 -0.615119 0 19154 -0.615119 1
gene 1 136 138 -0.021869 0 19178 -0.021869 1
gene 1 4 139 0.124388 0 19185 0.124388 1
gene 1 8 139 0.0153783 0 19189 0.0153783 1
gene 1 9 139 -0.859798 0 19190 -0.859798 1
gene 1 10 139 -0.374265 0 19191 -0.374265 1
gene 1 12 139 -0.936969 0 19193 -0.936969 1
gene 1 27 139 0.269442 0 19208 0.269442 1
gene 1 28 139 -0.258624 0 19209 -0.258624 1
gene 1 32 139 -0.812015 0 19213 -0.812015 1
gene 1 34 139 0.741443 0 19215 0.741443 1
gene 1 35 139 -0.752509 0 19216 -0.752509 1
gene 1 39 139 0.829721 0 19220 0.829721 1
gene 1 45 139 0.803424 0 19226 0.803424 1
gene 1 60 139 -0.679692 0 19241 -0.679692 1
gene 1 70 139 -0.405178 0 19251 -0.405178 1
gene 1 83 139 0.695897 0 19264 0.695897 1
gene 1 84 139 0.42536 0 19265 0.42536 1
gene 1 87 139 -0.910144 0 19268 -0.910144 1
gene 1 92 139 0.60761 0 19273 0.60761 1
gene 1 93 139 -0.154146 0 19274 -0.154146 1
gene 1 94 139 -0.4021 0 19275 -0.4021 1
gene 1 96 139 -0.845966 0 19277 -0.845966 1
gene 1 97 139 -0.447559 0 19278 -0.447559 1
gene 1 98 139 0.428545 0 19279 0.428545 1
gene 1 100 139 -0.380651 0 19281 -0.380651 1
gene 1 106 139 0.65922 0 19287 0.65922 1
gene 1 139 139 0.780187 1 19320 0.780187 1
genomeend 0
