genomestart 14
trait 1 0 0 0 0 0 0 0 0 
node 1 1 1 1
node 2 1 1 1
node 3 1 1 1
node 4 1 1 1
node 5 1 1 1
node 6 1 1 1
node 7 1 1 1
node 8 1 1 1
node 9 1 1 1
node 10 1 1 1
node 11 1 1 1
node 12 1 1 1
node 13 1 1 1
node 14 1 1 1
node 15 1 1 1
node 16 1 1 1
node 17 1 1 1
node 18 1 1 1
node 19 1 1 1
node 20 1 1 1
node 21 1 1 1
node 22 1 1 1
node 23 1 1 1
node 24 1 1 1
node 25 1 1 1
node 26 1 1 1
node 27 1 1 1
node 28 1 1 1
node 29 1 1 1
node 30 1 1 1
node 31 1 1 1
node 32 1 1 1
node 33 1 1 1
node 34 1 1 1
node 35 1 1 1
node 36 1 1 1
node 37 1 1 1
node 38 1 1 1
node 39 1 1 1
node 40 1 1 1
node 41 1 1 1
node 42 1 1 1
node 43 1 1 1
node 44 1 1 1
node 45 1 1 1
node 46 1 1 1
node 47 1 1 1
node 48 1 1 1
node 49 1 1 1
node 50 1 1 1
node 51 1 1 1
node 52 1 1 1
node 53 1 1 1
node 54 1 1 1
node 55 1 1 1
node 56 1 1 1
node 57 1 1 1
node 58 1 1 1
node 59 1 1 1
node 60 1 1 1
node 61 1 1 1
node 62 1 1 1
node 63 1 1 1
node 64 1 1 1
node 65 1 1 1
node 66 1 1 1
node 67 1 1 1
node 68 1 1 1
node 69 1 1 1
node 70 1 1 1
node 71 1 1 1
node 72 1 1 1
node 73 1 1 1
node 74 1 1 1
node 75 1 1 1
node 76 1 1 1
node 77 1 1 1
node 78 1 1 1
node 79 1 1 1
node 80 1 1 1
node 81 1 1 1
node 82 1 1 1
node 83 1 1 1
node 84 1 1 1
node 85 1 1 1
node 86 1 1 1
node 87 1 1 1
node 88 1 1 1
node 89 1 1 1
node 90 1 1 1
node 91 1 1 1
node 92 1 1 1
node 93 1 1 1
node 94 1 1 1
node 95 1 1 1
node 96 1 1 1
node 97 1 1 1
node 98 1 1 1
node 99 1 1 1
node 100 1 1 1
node 101 1 1 1
node 102 1 1 1
node 103 1 1 1
node 104 1 1 1
node 105 1 1 1
node 106 1 1 1
node 107 1 1 1
node 108 1 1 1
node 109 1 1 1
node 110 1 1 1
node 111 1 1 3
node 112 1 0 0
node 138 1 0 2
node 139 1 0 2
node 140 1 0 2
node 141 1 0 2
node 142 1 0 2
gene 1 2 112 -0.514435 0 15763 -0.514435 1
gene 1 4 112 -0.749474 0 15765 -0.749474 1
gene 1 5 112 -0.876818 0 15766 -0.876818 1
gene 1 8 112 0.949363 0 15769 0.949363 1
gene 1 19 112 -0.809849 0 15780 -0.809849 1
gene 1 25 112 0.550751 0 15786 0.550751 1
gene 1 27 112 -0.505672 0 15788 -0.505672 1
gene 1 35 112 0.588445 0 15796 0.588445 1
gene 1 37 112 0.178955 0 15798 0.178955 1
gene 1 40 112 0.920124 0 15801 0.920124 1
gene 1 43 112 0.764198 0 15804 0.764198 1
gene 1 52 112 -0.345996 0 15813 -0.345996 1
gene 1 57 112 -0.659052 0 15818 -0.659052 1
gene 1 58 112 0.331899 0 15819 0.331899 1
gene 1 66 112 0.0136433 0 15827 0.0136433 1
gene 1 68 112 0.45231 0 15829 0.45231 1
gene 1 72 112 -0.280151 0 15833 -0.280151 1
gene 1 84 112 0.844964 0 15845 0.844964 1
gene 1 86 112 -0.714331 0 15847 -0.714331 1
gene 1 90 112 -0.184322 0 15851 -0.184322 1
gene 1 93 112 0.344738 0 15854 0.344738 1
gene 1 97 112 0.432111 0 15858 0.432111 1
gene 1 100 112 0.963948 0 15861 0.963948 1
gene 1 102 112 0.493863 0 15863 0.493863 1
gene 1 105 112 0.714318 0 15866 0.714318 1
gene 1 107 112 0.916485 0 15868 0.916485 1
gene 1 108 112 0.73764 0 15869 0.73764 1
gene 1 109 112 0.628817 0 15870 0.628817 1
gene 1 112 112 0.999764 1 15873 0.999764 1
gene 1 139 112 -0.522134 1 15900 -0.522134 1
gene 1 140 112 -0.139806 1 15901 -0.139806 1
gene 1 141 112 0.541486 1 15902 0.541486 1
gene 1 142 112 -0.176228 1 15903 -0.176228 1
gene 1 3 138 0.576925 0 19456 0.576925 1
gene 1 5 138 0.180776 0 19458 0.180776 1
gene 1 12 138 0.414738 0 19465 0.414738 1
gene 1 17 138 -0.49632 0 19470 -0.49632 1
gene 1 25 138 0.375925 0 19478 0.375925 1
gene 1 26 138 -0.867405 0 19479 -0.867405 1
gene 1 32 138 0.603172 0 19485 0.603172 1
gene 1 34 138 0.283775 0 19487 0.283775 1
gene 1 38 138 0.0602396 0 19491 0.0602396 1
gene 1 40 138 0.782138 0 19493 0.782138 1
gene 1 46 138 -0.418107 0 19499 -0.418107 1
gene 1 50 138 -0.649773 0 19503 -0.649773 1
gene 1 52 138 0.795309 0 19505 0.795309 1
gene 1 53 138 0.914686 0 19506 0.914686 1
gene 1 57 138 -0.209536 0 19510 -0.209536 1
gene 1 64 138 0.723244 0 19517 0.723244 1
gene 1 65 138 -0.981471 0 19518 -0.981471 1
gene 1 68 138 -0.547707 0 19521 -0.547707 1
gene 1 70 138 -0.429534 0 19523 -0.429534 1
gene 1 72 138 -0.243058 0 19525 -0.243058 1
gene 1 73 138 0.504295 0 19526 0.504295 1
gene 1 80 138 -0.675247 0 19533 -0.675247 1
gene 1 82 138 -0.692186 0 19535 -0.692186 1
gene 1 83 138 -0.627123 0 19536 -0.627123 1
gene 1 85 138 -0.980438 0 19538 -0.980438 1
gene 1 93 138 0.441482 0 19546 0.441482 1
gene 1 94 138 0.191162 0 19547 0.191162 1
gene 1 96 138 -0.338787 0 19549 -0.338787 1
gene 1 97 138 0.880835 0 19550 0.880835 1
gene 1 101 138 0.323267 0 19554 0.323267 1
gene 1 104 138 0.344386 0 19557 0.344386 1
gene 1 105 138 0.876831 0 19558 0.876831 1
gene 1 106 138 -0.950531 0 19559 -0.950531 1
gene 1 107 138 0.722066 0 19560 0.722066 1
gene 1 110 138 -0.468565 0 19563 -0.468565 1
gene 1 139 138 -0.185524 1 19592 -0.185524 1
gene 1 1 139 0.0755862 0 19596 0.0755862 1
gene 1 2 139 -0.0803263 0 19597 -0.0803263 1
gene 1 7 139 -0.819793 0 19602 -0.819793 1
gene 1 8 139 0.520198 0 19603 0.520198 1
gene 1 12 139 0.11671 0 19607 0.11671 1
gene 1 19 139 0.198777 0 19614 0.198777 1
gene 1 26 139 0.0529355 0 19621 0.0529355 1
gene 1 30 139 -0.294344 0 19625 -0.294344 1
gene 1 32 139 0.791036 0 19627 0.791036 1
gene 1 34 139 -0.0241407 0 19629 -0.0241407 1
gene 1 38 139 -0.664121 0 19633 -0.664121 1
gene 1 39 139 -0.461278 0 19634 -0.461278 1
gene 1 40 139 -0.32551 0 19635 -0.32551 1
gene 1 44 139 0.994717 0 19639 0.994717 1
gene 1 46 139 0.148468 0 19641 0.148468 1
gene 1 48 139 -0.766935 0 19643 -0.766935 1
gene 1 54 139 0.0410117 0 19649 0.0410117 1
gene 1 56 139 -0.991826 0 19651 -0.991826 1
gene 1 63 139 0.554711 0 19658 0.554711 1
gene 1 68 139 0.661037 0 19663 0.661037 1
gene 1 71 139 -0.473704 0 19666 -0.473704 1
gene 1 73 139 0.979293 0 19668 0.979293 1
gene 1 79 139 -0.397377 0 19674 -0.397377 1
gene 1 84 139 -0.46041 0 19679 -0.46041 1
gene 1 88 139 0.891246 0 19683 0.891246 1
gene 1 89 139 -0.323834 0 19684 -0.323834 1
gene 1 91 139 0.385522 0 19686 0.385522 1
gene 1 92 139 0.170019 0 19687 0.170019 1
gene 1 93 139 -0.968457 0 19688 -0.968457 1
gene 1 96 139 -0.505108 0 19691 -0.505108 1
gene 1 97 139 0.344976 0 19692 0.344976 1
gene 1 103 139 -0.340979 0 19698 -0.340979 1
gene 1 105 139 -0.119304 0 19700 -0.119304 1
gene 1 106 139 0.246793 0 19701 0.246793 1
gene 1 140 139 0.844829 1 19735 0.844829 1
gene 1 4 140 -0.345435 0 19741 -0.345435 1
gene 1 7 140 -0.767643 0 19744 -0.767643 1
gene 1 10 140 0.845173 0 19747 0.845173 1
gene 1 16 140 0.598364 0 19753 0.598364 1
gene 1 18 140 0.353432 0 19755 0.353432 1
gene 1 19 140 0.790134 0 19756 0.790134 1
gene 1 25 140 0.0449779 0 19762 0.0449779 1
gene 1 26 140 -0.462378 0 19763 -0.462378 1
gene 1 28 140 0.886689 0 19765 0.886689 1
gene 1 29 140 0.379733 0 19766 0.379733 1
gene 1 45 140 0.547759 0 19782 0.547759 1
gene 1 47 140 0.663839 0 19784 0.663839 1
gene 1 49 140 0.110697 0 19786 0.110697 1
gene 1 50 140 0.221544 0 19787 0.221544 1
gene 1 53 140 0.457158 0 19790 0.457158 1
gene 1 55 140 -0.26532 0 19792 -0.26532 1
gene 1 59 140 -0.384907 0 19796 -0.384907 1
gene 1 65 140 0.127321 0 19802 0.127321 1
gene 1 70 140 -0.197983 0 19807 -0.197983 1
gene 1 81 140 -0.535663 0 19818 -0.535663 1
gene 1 88 140 -0.215296 0 19825 -0.215296 1
gene 1 92 140 -0.228681 0 19829 -0.228681 1
gene 1 101 140 0.501452 0 19838 0.501452 1
gene 1 104 140 0.475271 0 19841 0.475271 1
gene 1 105 140 -0.121894 0 19842 -0.121894 1
gene 1 107 140 -0.779937 0 19844 -0.779937 1
gene 1 138 140 0.579713 0 19875 0.579713 1
gene 1 2 141 0.558391 0 19881 0.558391 1
gene 1 3 141 -0.22692 0 19882 -0.22692 1
gene 1 8 141 0.0479004 0 19887 0.0479004 1
gene 1 9 141 -0.846308 0 19888 -0.846308 1
gene 1 13 141 0.486672 0 19892 0.486672 1
gene 1 14 141 -0.346184 0 19893 -0.346184 1
gene 1 17 141 -0.461294 0 19896 -0.461294 1
gene 1 19 141 -0.339679 0 19898 -0.339679 1
gene 1 23 141 0.0955811 0 19902 0.0955811 1
gene 1 24 141 -0.322753 0 19903 -0.322753 1
gene 1 28 141 0.815249 0 19907 0.815249 1
gene 1 29 141 -0.0153207 0 19908 -0.0153207 1
gene 1 30 141 -0.212347 0 19909 -0.212347 1
gene 1 31 141 0.145524 0 19910 0.145524 1
gene 1 37 141 0.806868 0 19916 0.806868 1
gene 1 39 141 0.436061 0 19918 0.436061 1
gene 1 42 141 -0.415647 0 19921 -0.415647 1
gene 1 44 141 0.145194 0 19923 0.145194 1
gene 1 46 141 -0.347059 0 19925 -0.347059 1
gene 1 49 141 0.776768 0 19928 0.776768 1
gene 1 55 141 -0.222716 0 19934 -0.222716 1
gene 1 56 141 0.447723 0 19935 0.447723 1
gene 1 62 141 -0.667118 0 19941 -0.667118 1
gene 1 64 141 -0.680967 0 19943 -0.680967 1
gene 1 71 141 0.342377 0 19950 0.342377 1
gene 1 76 141 0.0869604 0 19955 0.0869604 1
gene 1 77 141 -0.827926 0 19956 -0.827926 1
gene 1 78 141 0.448145 0 19957 0.448145 1
gene 1 86 141 0.239496 0 19965 0.239496 1
gene 1 87 141 0.0325568 0 19966 0.0325568 1
gene 1 89 141 -0.318906 0 19968 -0.318906 1
gene 1 90 141 -0.411622 0 19969 -0.411622 1
gene 1 92 141 0.131598 0 19971 0.131598 1
gene 1 94 141 -0.198099 0 19973 -0.198099 1
gene 1 98 141 0.548317 0 19977 0.548317 1
gene 1 99 141 0.312387 0 19978 0.312387 1
gene 1 102 141 -0.0978182 0 19981 -0.0978182 1
gene 1 103 141 0.455044 0 19982 0.455044 1
gene 1 105 141 -0.547512 0 19984 -0.547512 1
gene 1 107 141 -0.527634 0 19986 -0.527634 1
gene 1 108 141 -0.139731 0 19987 -0.139731 1
gene 1 141 141 -0.0475144 1 20020 -0.0475144 1
gene 1 3 142 0.716876 0 20024 0.716876 1
gene 1 4 142 0.00792979 0 20025 0.00792979 1
gene 1 6 142 0.089329 0 20027 0.089329 1
gene 1 10 142 -0.00273459 0 20031 -0.00273459 1
gene 1 14 142 0.509104 0 20035 0.509104 1
gene 1 16 142 -0.142787 0 20037 -0.142787 1
gene 1 17 142 0.971172 0 20038 0.971172 1
gene 1 18 142 -0.119358 0 20039 -0.119358 1
gene 1 21 142 0.315753 0 20042 0.315753 1
gene 1 23 142 -0.290523 0 20044 -0.290523 1
gene 1 32 142 0.191855 0 20053 0.191855 1
gene 1 34 142 -0.178508 0 20055 -0.178508 1
gene 1 41 142 0.881578 0 20062 0.881578 1
gene 1 45 142 0.629256 0 20066 0.629256 1
gene 1 49 142 0.320737 0 20070 0.320737 1
gene 1 50 142 -0.988967 0 20071 -0.988967 1
gene 1 51 142 0.17243 0 20072 0.17243 1
gene 1 53 142 0.993985 0 20074 0.993985 1
gene 1 56 142 -0.0373829 0 20077 -0.0373829 1
gene 1 57 142 -0.669994 0 20078 -0.669994 1
gene 1 58 142 0.411076 0 20079 0.411076 1
gene 1 59 142 0.187189 0 20080 0.187189 1
gene 1 61 142 -0.153667 0 20082 -0.153667 1
gene 1 64 142 -0.901738 0 20085 -0.901738 1
gene 1 66 142 -0.738292 0 20087 -0.738292 1
gene 1 67 142 0.882993 0 20088 0.882993 1
gene 1 69 142 -0.937828 0 20090 -0.937828 1
gene 1 72 142 -0.669514 0 20093 -0.669514 1
gene 1 78 142 0.767642 0 20099 0.767642 1
gene 1 79 142 0.840716 0 20100 0.840716 1
gene 1 80 142 -0.975541 0 20101 -0.975541 1
gene 1 82 142 0.125992 0 20103 0.125992 1
gene 1 83 142 0.826579 0 20104 0.826579 1
gene 1 87 142 -0.40973 0 20108 -0.40973 1
gene 1 92 142 0.116696 0 20113 0.116696 1
gene 1 95 142 -0.410449 0 20116 -0.410449 1
gene 1 96 142 0.892505 0 20117 0.892505 1
gene 1 103 142 -0.910019 0 20124 -0.910019 1
gene 1 105 142 -0.904185 0 20126 -0.904185 1
gene 1 108 142 0.515593 0 20129 0.515593 1
gene 1 110 142 0.00401793 0 20131 0.00401793 1
gene 1 111 142 0.572624 0 20132 0.572624 1
gene 1 141 142 0.460086 0 20162 0.460086 1
gene 1 142 142 -0.761253 1 20163 -0.761253 1
genomeend 14
