genomestart 0
trait 1 0 0 0 0 0 0 0 0 
node 1 1 1 1
node 2 1 1 1
node 3 1 1 1
node 4 1 1 1
node 5 1 1 1
node 6 1 1 1
node 7 1 1 1
node 8 1 1 1
node 9 1 1 1
node 10 1 1 1
node 11 1 1 1
node 12 1 1 1
node 13 1 1 1
node 14 1 1 1
node 15 1 1 1
node 16 1 1 1
node 17 1 1 1
node 18 1 1 1
node 19 1 1 1
node 20 1 1 1
node 21 1 1 1
node 22 1 1 1
node 23 1 1 1
node 24 1 1 1
node 25 1 1 1
node 26 1 1 1
node 27 1 1 1
node 28 1 1 1
node 29 1 1 1
node 30 1 1 1
node 31 1 1 1
node 32 1 1 1
node 33 1 1 1
node 34 1 1 1
node 35 1 1 1
node 36 1 1 1
node 37 1 1 1
node 38 1 1 1
node 39 1 1 1
node 40 1 1 1
node 41 1 1 1
node 42 1 1 1
node 43 1 1 1
node 44 1 1 1
node 45 1 1 1
node 46 1 1 1
node 47 1 1 1
node 48 1 1 1
node 49 1 1 1
node 50 1 1 1
node 51 1 1 1
node 52 1 1 1
node 53 1 1 1
node 54 1 1 1
node 55 1 1 1
node 56 1 1 1
node 57 1 1 1
node 58 1 1 1
node 59 1 1 1
node 60 1 1 1
node 61 1 1 1
node 62 1 1 1
node 63 1 1 1
node 64 1 1 1
node 65 1 1 1
node 66 1 1 1
node 67 1 1 1
node 68 1 1 1
node 69 1 1 1
node 70 1 1 1
node 71 1 1 1
node 72 1 1 1
node 73 1 1 1
node 74 1 1 1
node 75 1 1 1
node 76 1 1 1
node 77 1 1 1
node 78 1 1 1
node 79 1 1 1
node 80 1 1 1
node 81 1 1 1
node 82 1 1 1
node 83 1 1 1
node 84 1 1 1
node 85 1 1 1
node 86 1 1 1
node 87 1 1 1
node 88 1 1 1
node 89 1 1 1
node 90 1 1 1
node 91 1 1 1
node 92 1 1 1
node 93 1 1 1
node 94 1 1 1
node 95 1 1 1
node 96 1 1 1
node 97 1 1 1
node 98 1 1 1
node 99 1 1 1
node 100 1 1 1
node 101 1 1 1
node 102 1 1 1
node 103 1 1 1
node 104 1 1 1
node 105 1 1 1
node 106 1 1 1
node 107 1 1 1
node 108 1 1 1
node 109 1 1 1
node 110 1 1 1
node 111 1 1 3
node 112 1 0 0
node 138 1 0 2
node 139 1 0 2
node 140 1 0 2
node 141 1 0 2
node 142 1 0 2
gene 1 2 112 0.155332 0 15763 0.155332 1
gene 1 4 112 0.303347 0 15765 0.303347 1
gene 1 5 112 -0.343212 0 15766 -0.343212 1
gene 1 8 112 -0.867662 0 15769 -0.867662 1
gene 1 19 112 0.446692 0 15780 0.446692 1
gene 1 25 112 -0.575118 0 15786 -0.575118 1
gene 1 27 112 -0.413845 0 15788 -0.413845 1
gene 1 35 112 0.175471 0 15796 0.175471 1
gene 1 37 112 -0.546278 0 15798 -0.546278 1
gene 1 40 112 -0.00674195 0 15801 -0.00674195 1
gene 1 43 112 -0.636993 0 15804 -0.636993 1
gene 1 52 112 0.373297 0 15813 0.373297 1
gene 1 57 112 -0.275491 0 15818 -0.275491 1
gene 1 58 112 -0.304908 0 15819 -0.304908 1
gene 1 66 112 -0.262728 0 15827 -0.262728 1
gene 1 68 112 0.832574 0 15829 0.832574 1
gene 1 72 112 0.253629 0 15833 0.253629 1
gene 1 84 112 0.688274 0 15845 0.688274 1
gene 1 86 112 0.911962 0 15847 0.911962 1
gene 1 90 112 -0.380345 0 15851 -0.380345 1
gene 1 93 112 0.521123 0 15854 0.521123 1
gene 1 97 112 0.701091 0 15858 0.701091 1
gene 1 100 112 0.14096 0 15861 0.14096 1
gene 1 102 112 -0.55875 0 15863 -0.55875 1
gene 1 105 112 -0.154265 0 15866 -0.154265 1
gene 1 107 112 -0.939975 0 15868 -0.939975 1
gene 1 108 112 -0.602643 0 15869 -0.602643 1
gene 1 109 112 0.424642 0 15870 0.424642 1
gene 1 112 112 -0.658449 1 15873 -0.658449 1
gene 1 139 112 -0.435739 1 15900 -0.435739 1
gene 1 140 112 -0.210313 1 15901 -0.210313 1
gene 1 141 112 0.562432 1 15902 0.562432 1
gene 1 142 112 -0.882049 1 15903 -0.882049 1
gene 1 3 138 -0.6559 0 19456 -0.6559 1
gene 1 5 138 0.688662 0 19458 0.688662 1
gene 1 12 138 0.547716 0 19465 0.547716 1
gene 1 17 138 -0.109154 0 19470 -0.109154 1
gene 1 25 138 -0.712553 0 19478 -0.712553 1
gene 1 26 138 0.0673336 0 19479 0.0673336 1
gene 1 32 138 0.492099 0 19485 0.492099 1
gene 1 34 138 0.42328 0 19487 0.42328 1
gene 1 38 138 0.647959 0 19491 0.647959 1
gene 1 40 138 -0.951421 0 19493 -0.951421 1
gene 1 46 138 -0.745003 0 19499 -0.745003 1
gene 1 50 138 -0.687592 0 19503 -0.687592 1
gene 1 52 138 -0.262061 0 19505 -0.262061 1
gene 1 53 138 -0.875734 0 19506 -0.875734 1
gene 1 57 138 0.209146 0 19510 0.209146 1
gene 1 64 138 0.200954 0 19517 0.200954 1
gene 1 65 138 -0.183862 0 19518 -0.183862 1
gene 1 68 138 0.060656 0 19521 0.060656 1
gene 1 70 138 0.429029 0 19523 0.429029 1
gene 1 72 138 -0.836493 0 19525 -0.836493 1
gene 1 73 138 0.163618 0 19526 0.163618 1
gene 1 80 138 -0.136866 0 19533 -0.136866 1
gene 1 82 138 0.36878 0 19535 0.36878 1
gene 1 83 138 -0.35014 0 19536 -0.35014 1
gene 1 85 138 0.660074 0 19538 0.660074 1
gene 1 93 138 0.0420416 0 19546 0.0420416 1
gene 1 94 138 0.530361 0 19547 0.530361 1
gene 1 96 138 -0.780474 0 19549 -0.780474 1
gene 1 97 138 0.238943 0 19550 0.238943 1
gene 1 101 138 0.00498907 0 19554 0.00498907 1
gene 1 104 138 0.732826 0 19557 0.732826 1
gene 1 105 138 0.381968 0 19558 0.381968 1
gene 1 106 138 -0.688659 0 19559 -0.688659 1
gene 1 107 138 0.647251 0 19560 0.647251 1
gene 1 110 138 -0.313187 0 19563 -0.313187 1
gene 1 139 138 -0.582612 1 19592 -0.582612 1
gene 1 1 139 -0.125504 0 19596 -0.125504 1
gene 1 2 139 0.804303 0 19597 0.804303 1
gene 1 7 139 0.276685 0 19602 0.276685 1
gene 1 8 139 -0.176604 0 19603 -0.176604 1
gene 1 12 139 -0.499063 0 19607 -0.499063 1
gene 1 19 139 -0.576601 0 19614 -0.576601 1
gene 1 26 139 0.141062 0 19621 0.141062 1
gene 1 30 139 -0.991108 0 19625 -0.991108 1
gene 1 32 139 0.729757 0 19627 0.729757 1
gene 1 34 139 -0.160363 0 19629 -0.160363 1
gene 1 38 139 0.417577 0 19633 0.417577 1
gene 1 39 139 -0.329676 0 19634 -0.329676 1
gene 1 40 139 0.577936 0 19635 0.577936 1
gene 1 44 139 0.985406 0 19639 0.985406 1
gene 1 46 139 -0.63532 0 19641 -0.63532 1
gene 1 48 139 0.00297825 0 19643 0.00297825 1
gene 1 54 139 -0.423609 0 19649 -0.423609 1
gene 1 56 139 0.513247 0 19651 0.513247 1
gene 1 63 139 0.426251 0 19658 0.426251 1
gene 1 68 139 -0.39583 0 19663 -0.39583 1
gene 1 71 139 0.735798 0 19666 0.735798 1
gene 1 73 139 0.832134 0 19668 0.832134 1
gene 1 79 139 -0.267759 0 19674 -0.267759 1
gene 1 84 139 0.343624 0 19679 0.343624 1
gene 1 88 139 0.926431 0 19683 0.926431 1
gene 1 89 139 -0.327468 0 19684 -0.327468 1
gene 1 91 139 -0.63337 0 19686 -0.63337 1
gene 1 92 139 -0.621074 0 19687 -0.621074 1
gene 1 93 139 0.142468 0 19688 0.142468 1
gene 1 96 139 -0.993172 0 19691 -0.993172 1
gene 1 97 139 0.764113 0 19692 0.764113 1
gene 1 103 139 0.658661 0 19698 0.658661 1
gene 1 105 139 -0.153192 0 19700 -0.153192 1
gene 1 106 139 -0.647901 0 19701 -0.647901 1
gene 1 140 139 -0.748562 1 19735 -0.748562 1
gene 1 4 140 0.426131 0 19741 0.426131 1
gene 1 7 140 -0.157447 0 19744 -0.157447 1
gene 1 10 140 0.269251 0 19747 0.269251 1
gene 1 16 140 -0.109357 0 19753 -0.109357 1
gene 1 18 140 0.231383 0 19755 0.231383 1
gene 1 19 140 0.250479 0 19756 0.250479 1
gene 1 25 140 0.365586 0 19762 0.365586 1
gene 1 26 140 -0.818301 0 19763 -0.818301 1
gene 1 28 140 -0.28989 0 19765 -0.28989 1
gene 1 29 140 -0.8406 0 19766 -0.8406 1
gene 1 45 140 0.0360068 0 19782 0.0360068 1
gene 1 47 140 0.783705 0 19784 0.783705 1
gene 1 49 140 0.569414 0 19786 0.569414 1
gene 1 50 140 0.430247 0 19787 0.430247 1
gene 1 53 140 -0.246038 0 19790 -0.246038 1
gene 1 55 140 0.402231 0 19792 0.402231 1
gene 1 59 140 -0.878952 0 19796 -0.878952 1
gene 1 65 140 -0.7063 0 19802 -0.7063 1
gene 1 70 140 -0.939655 0 19807 -0.939655 1
gene 1 81 140 -0.463164 0 19818 -0.463164 1
gene 1 88 140 -0.341218 0 19825 -0.341218 1
gene 1 92 140 -0.889646 0 19829 -0.889646 1
gene 1 101 140 -0.0292806 0 19838 -0.0292806 1
gene 1 104 140 0.789946 0 19841 0.789946 1
gene 1 105 140 -0.370013 0 19842 -0.370013 1
gene 1 107 140 -0.424437 0 19844 -0.424437 1
gene 1 138 140 -0.301937 0 19875 -0.301937 1
gene 1 2 141 0.134219 0 19881 0.134219 1
gene 1 3 141 0.980907 0 19882 0.980907 1
gene 1 8 141 -0.918143 0 19887 -0.918143 1
gene 1 9 141 0.329101 0 19888 0.329101 1
gene 1 13 141 0.85534 0 19892 0.85534 1
gene 1 14 141 0.0101085 0 19893 0.0101085 1
gene 1 17 141 0.618029 0 19896 0.618029 1
gene 1 19 141 -0.370194 0 19898 -0.370194 1
gene 1 23 141 0.742659 0 19902 0.742659 1
gene 1 24 141 0.912031 0 19903 0.912031 1
gene 1 28 141 0.0839683 0 19907 0.0839683 1
gene 1 29 141 -0.232572 0 19908 -0.232572 1
gene 1 30 141 0.797198 0 19909 0.797198 1
gene 1 31 141 -0.149351 0 19910 -0.149351 1
gene 1 37 141 0.503508 0 19916 0.503508 1
gene 1 39 141 0.822414 0 19918 0.822414 1
gene 1 42 141 0.465221 0 19921 0.465221 1
gene 1 44 141 -0.861435 0 19923 -0.861435 1
gene 1 46 141 0.00459302 0 19925 0.00459302 1
gene 1 49 141 -0.0236648 0 19928 -0.0236648 1
gene 1 55 141 -0.886516 0 19934 -0.886516 1
gene 1 56 141 0.355423 0 19935 0.355423 1
gene 1 62 141 0.709603 0 19941 0.709603 1
gene 1 64 141 0.606973 0 19943 0.606973 1
gene 1 71 141 0.803553 0 19950 0.803553 1
gene 1 76 141 -0.236612 0 19955 -0.236612 1
gene 1 77 141 0.484064 0 19956 0.484064 1
gene 1 78 141 0.920358 0 19957 0.920358 1
gene 1 86 141 -0.776779 0 19965 -0.776779 1
gene 1 87 141 0.872597 0 19966 0.872597 1
gene 1 89 141 0.0381535 0 19968 0.0381535 1
gene 1 90 141 -0.856558 0 19969 -0.856558 1
gene 1 92 141 0.296636 0 19971 0.296636 1
gene 1 94 141 -0.118 0 19973 -0.118 1
gene 1 98 141 0.587489 0 19977 0.587489 1
gene 1 99 141 -0.71685 0 19978 -0.71685 1
gene 1 102 141 -0.276877 0 19981 -0.276877 1
gene 1 103 141 -0.714025 0 19982 -0.714025 1
gene 1 105 141 -0.0386016 0 19984 -0.0386016 1
gene 1 107 141 -0.858893 0 19986 -0.858893 1
gene 1 108 141 -0.0740259 0 19987 -0.0740259 1
gene 1 141 141 -0.165148 1 20020 -0.165148 1
gene 1 3 142 0.363424 0 20024 0.363424 1
gene 1 4 142 0.355107 0 20025 0.355107 1
gene 1 6 142 0.0813001 0 20027 0.0813001 1
gene 1 10 142 -0.16843 0 20031 -0.16843 1
gene 1 14 142 0.901343 0 20035 0.901343 1
gene 1 16 142 0.487338 0 20037 0.487338 1
gene 1 17 142 -0.0718697 0 20038 -0.0718697 1
gene 1 18 142 -0.746296 0 20039 -0.746296 1
gene 1 21 142 -0.262129 0 20042 -0.262129 1
gene 1 23 142 -0.306665 0 20044 -0.306665 1
gene 1 32 142 -0.142385 0 20053 -0.142385 1
gene 1 34 142 0.554664 0 20055 0.554664 1
gene 1 41 142 -0.177125 0 20062 -0.177125 1
gene 1 45 142 0.685869 0 20066 0.685869 1
gene 1 49 142 0.850276 0 20070 0.850276 1
gene 1 50 142 -0.968505 0 20071 -0.968505 1
gene 1 51 142 0.675485 0 20072 0.675485 1
gene 1 53 142 -0.820202 0 20074 -0.820202 1
gene 1 56 142 -0.498492 0 20077 -0.498492 1
gene 1 57 142 0.763844 0 20078 0.763844 1
gene 1 58 142 -0.0441334 0 20079 -0.0441334 1
gene 1 59 142 0.159116 0 20080 0.159116 1
gene 1 61 142 0.92816 0 20082 0.92816 1
gene 1 64 142 0.103736 0 20085 0.103736 1
gene 1 66 142 0.286347 0 20087 0.286347 1
gene 1 67 142 0.176584 0 20088 0.176584 1
gene 1 69 142 0.783838 0 20090 0.783838 1
gene 1 72 142 -0.582518 0 20093 -0.582518 1
gene 1 78 142 -0.115 0 20099 -0.115 1
gene 1 79 142 0.932798 0 20100 0.932798 1
gene 1 80 142 -0.733749 0 20101 -0.733749 1
gene 1 82 142 -0.268957 0 20103 -0.268957 1
gene 1 83 142 0.905227 0 20104 0.905227 1
gene 1 87 142 -0.684698 0 20108 -0.684698 1
gene 1 92 142 -0.683982 0 20113 -0.683982 1
gene 1 95 142 -0.0853629 0 20116 -0.0853629 1
gene 1 96 142 -0.94645 0 20117 -0.94645 1
gene 1 103 142 0.516826 0 20124 0.516826 1
gene 1 105 142 0.999362 0 20126 0.999362 1
gene 1 108 142 -0.219247 0 20129 -0.219247 1
gene 1 110 142 0.0340442 0 20131 0.0340442 1
gene 1 111 142 -0.842035 0 20132 -0.842035 1
gene 1 141 142 0.60948 0 20162 0.60948 1
gene 1 142 142 -0.616079 1 20163 -0.616079 1
genomeend 0
