genomestart 0
trait 1 0 0 0 0 0 0 0 0 
node 1 1 1 1
node 2 1 1 1
node 3 1 1 1
node 4 1 1 1
node 5 1 1 1
node 6 1 1 1
node 7 1 1 1
node 8 1 1 1
node 9 1 1 1
node 10 1 1 1
node 11 1 1 1
node 12 1 1 1
node 13 1 1 1
node 14 1 1 1
node 15 1 1 1
node 16 1 1 1
node 17 1 1 1
node 18 1 1 1
node 19 1 1 1
node 20 1 1 1
node 21 1 1 1
node 22 1 1 1
node 23 1 1 1
node 24 1 1 1
node 25 1 1 1
node 26 1 1 1
node 27 1 1 1
node 28 1 1 1
node 29 1 1 1
node 30 1 1 1
node 31 1 1 1
node 32 1 1 1
node 33 1 1 1
node 34 1 1 1
node 35 1 1 1
node 36 1 1 1
node 37 1 1 1
node 38 1 1 1
node 39 1 1 1
node 40 1 1 1
node 41 1 1 1
node 42 1 1 1
node 43 1 1 1
node 44 1 1 1
node 45 1 1 1
node 46 1 1 1
node 47 1 1 1
node 48 1 1 1
node 49 1 1 1
node 50 1 1 1
node 51 1 1 1
node 52 1 1 1
node 53 1 1 1
node 54 1 1 1
node 55 1 1 1
node 56 1 1 1
node 57 1 1 1
node 58 1 1 1
node 59 1 1 1
node 60 1 1 1
node 61 1 1 1
node 62 1 1 1
node 63 1 1 1
node 64 1 1 1
node 65 1 1 1
node 66 1 1 1
node 67 1 1 1
node 68 1 1 1
node 69 1 1 1
node 70 1 1 1
node 71 1 1 1
node 72 1 1 1
node 73 1 1 1
node 74 1 1 1
node 75 1 1 1
node 76 1 1 1
node 77 1 1 1
node 78 1 1 1
node 79 1 1 1
node 80 1 1 1
node 81 1 1 1
node 82 1 1 1
node 83 1 1 1
node 84 1 1 1
node 85 1 1 1
node 86 1 1 1
node 87 1 1 1
node 88 1 1 1
node 89 1 1 1
node 90 1 1 1
node 91 1 1 1
node 92 1 1 1
node 93 1 1 1
node 94 1 1 1
node 95 1 1 1
node 96 1 1 1
node 97 1 1 1
node 98 1 1 1
node 99 1 1 1
node 100 1 1 1
node 101 1 1 1
node 102 1 1 1
node 103 1 1 1
node 104 1 1 1
node 105 1 1 1
node 106 1 1 1
node 107 1 1 1
node 108 1 1 1
node 109 1 1 1
node 110 1 1 1
node 111 1 1 3
node 112 1 0 0
node 136 1 0 2
node 137 1 0 2
node 138 1 0 2
node 139 1 0 2
gene 1 1 112 -0.774759 0 15429 -0.774759 1
gene 1 5 112 -0.475697 0 15433 -0.475697 1
gene 1 6 112 0.566791 0 15434 0.566791 1
gene 1 7 112 -0.316283 0 15435 -0.316283 1
gene 1 12 112 -0.406122 0 15440 -0.406122 1
gene 1 15 112 0.973099 0 15443 0.973099 1
gene 1 19 112 0.145916 0 15447 0.145916 1
gene 1 21 112 -0.839657 0 15449 -0.839657 1
gene 1 22 112 0.586719 0 15450 0.586719 1
gene 1 24 112 -0.711411 0 15452 -0.711411 1
gene 1 28 112 0.309284 0 15456 0.309284 1
gene 1 29 112 0.245331 0 15457 0.245331 1
gene 1 30 112 0.980796 0 15458 0.980796 1
gene 1 39 112 0.633967 0 15467 0.633967 1
gene 1 46 112 0.0340117 0 15474 0.0340117 1
gene 1 47 112 0.309034 0 15475 0.309034 1
gene 1 48 112 0.281579 0 15476 0.281579 1
gene 1 51 112 -0.645373 0 15479 -0.645373 1
gene 1 53 112 0.135528 0 15481 0.135528 1
gene 1 57 112 -0.540301 0 15485 -0.540301 1
gene 1 60 112 -0.317511 0 15488 -0.317511 1
gene 1 62 112 0.672544 0 15490 0.672544 1
gene 1 71 112 0.240667 0 15499 0.240667 1
gene 1 78 112 0.280552 0 15506 0.280552 1
gene 1 80 112 -0.103703 0 15508 -0.103703 1
gene 1 92 112 -0.0119362 0 15520 -0.0119362 1
gene 1 93 112 0.727726 0 15521 0.727726 1
gene 1 97 112 -0.212655 0 15525 -0.212655 1
gene 1 101 112 0.254903 0 15529 0.254903 1
gene 1 103 112 -0.352844 0 15531 -0.352844 1
gene 1 106 112 -0.066851 0 15534 -0.066851 1
gene 1 111 112 0.405522 0 15539 0.405522 1
gene 1 112 112 -0.173133 1 15540 -0.173133 1
gene 1 5 136 0.229397 0 18769 0.229397 1
gene 1 7 136 0.419881 0 18771 0.419881 1
gene 1 12 136 -0.639688 0 18776 -0.639688 1
gene 1 19 136 -0.87359 0 18783 -0.87359 1
gene 1 20 136 0.712284 0 18784 0.712284 1
gene 1 27 136 -0.559438 0 18791 -0.559438 1
gene 1 30 136 0.508729 0 18794 0.508729 1
gene 1 40 136 0.757253 0 18804 0.757253 1
gene 1 42 136 -0.233817 0 18806 -0.233817 1
gene 1 49 136 -0.975888 0 18813 -0.975888 1
gene 1 51 136 -0.5185 0 18815 -0.5185 1
gene 1 53 136 0.133249 0 18817 0.133249 1
gene 1 60 136 -0.538373 0 18824 -0.538373 1
gene 1 61 136 -0.539983 0 18825 -0.539983 1
gene 1 63 136 0.735439 0 18827 0.735439 1
gene 1 64 136 -0.627226 0 18828 -0.627226 1
gene 1 66 136 0.488068 0 18830 0.488068 1
gene 1 69 136 -0.328594 0 18833 -0.328594 1
gene 1 72 136 -0.331791 0 18836 -0.331791 1
gene 1 80 136 -0.524637 0 18844 -0.524637 1
gene 1 81 136 -0.0547894 0 18845 -0.0547894 1
gene 1 85 136 0.937488 0 18849 0.937488 1
gene 1 86 136 -0.214729 0 18850 -0.214729 1
gene 1 88 136 -0.501853 0 18852 -0.501853 1
gene 1 89 136 0.0878178 0 18853 0.0878178 1
gene 1 91 136 -0.940405 0 18855 -0.940405 1
gene 1 99 136 0.561886 0 18863 0.561886 1
gene 1 101 136 -0.394851 0 18865 -0.394851 1
gene 1 105 136 0.69286 0 18869 0.69286 1
gene 1 112 136 0.373587 0 18876 0.373587 1
gene 1 138 136 0.919049 1 18902 0.919049 1
gene 1 1 137 0.554731 0 18904 0.554731 1
gene 1 4 137 -0.131554 0 18907 -0.131554 1
gene 1 7 137 0.338009 0 18910 0.338009 1
gene 1 8 137 0.0643174 0 18911 0.0643174 1
gene 1 9 137 0.678581 0 18912 0.678581 1
gene 1 12 137 0.36448 0 18915 0.36448 1
gene 1 14 137 0.688025 0 18917 0.688025 1
gene 1 15 137 -0.209323 0 18918 -0.209323 1
gene 1 17 137 -0.566077 0 18920 -0.566077 1
gene 1 18 137 -0.473628 0 18921 -0.473628 1
gene 1 21 137 -0.265337 0 18924 -0.265337 1
gene 1 22 137 0.448449 0 18925 0.448449 1
gene 1 25 137 -0.0843811 0 18928 -0.0843811 1
gene 1 30 137 0.383469 0 18933 0.383469 1
gene 1 32 137 0.190585 0 18935 0.190585 1
gene 1 34 137 -0.359987 0 18937 -0.359987 1
gene 1 35 137 0.257206 0 18938 0.257206 1
gene 1 39 137 0.106483 0 18942 0.106483 1
gene 1 40 137 -0.00864987 0 18943 -0.00864987 1
gene 1 41 137 -0.978757 0 18944 -0.978757 1
gene 1 42 137 -0.0616035 0 18945 -0.0616035 1
gene 1 44 137 -0.0729883 0 18947 -0.0729883 1
gene 1 46 137 -0.101625 0 18949 -0.101625 1
gene 1 47 137 0.127735 0 18950 0.127735 1
gene 1 48 137 0.372063 0 18951 0.372063 1
gene 1 50 137 -0.189482 0 18953 -0.189482 1
gene 1 52 137 -0.994497 0 18955 -0.994497 1
gene 1 55 137 0.375238 0 18958 0.375238 1
gene 1 56 137 -0.829539 0 18959 -0.829539 1
gene 1 64 137 -0.615644 0 18967 -0.615644 1
gene 1 67 137 -0.11569 0 18970 -0.11569 1
gene 1 69 137 0.130252 0 18972 0.130252 1
gene 1 71 137 0.885198 0 18974 0.885198 1
gene 1 73 137 -0.625763 0 18976 -0.625763 1
gene 1 76 137 -0.963793 0 18979 -0.963793 1
gene 1 86 137 -0.923751 0 18989 -0.923751 1
gene 1 87 137 -0.104096 0 18990 -0.104096 1
gene 1 90 137 -0.319146 0 18993 -0.319146 1
gene 1 96 137 -0.510169 0 18999 -0.510169 1
gene 1 103 137 -0.405596 0 19006 -0.405596 1
gene 1 104 137 0.0379046 0 19007 0.0379046 1
gene 1 107 137 -0.554118 0 19010 -0.554118 1
gene 1 110 137 0.102401 0 19013 0.102401 1
gene 1 138 137 0.475688 1 19041 0.475688 1
gene 1 3 138 -0.627873 0 19045 -0.627873 1
gene 1 5 138 -0.652486 0 19047 -0.652486 1
gene 1 7 138 -0.942315 0 19049 -0.942315 1
gene 1 13 138 -0.997833 0 19055 -0.997833 1
gene 1 14 138 0.452615 0 19056 0.452615 1
gene 1 20 138 -0.63876 0 19062 -0.63876 1
gene 1 23 138 0.678907 0 19065 0.678907 1
gene 1 25 138 0.189909 0 19067 0.189909 1
gene 1 27 138 0.915445 0 19069 0.915445 1
gene 1 32 138 0.624394 0 19074 0.624394 1
gene 1 33 138 0.251974 0 19075 0.251974 1
gene 1 36 138 0.728871 0 19078 0.728871 1
gene 1 40 138 0.0689004 0 19082 0.0689004 1
gene 1 47 138 0.074743 0 19089 0.074743 1
gene 1 51 138 -0.222657 0 19093 -0.222657 1
gene 1 55 138 -0.217146 0 19097 -0.217146 1
gene 1 56 138 -0.48584 0 19098 -0.48584 1
gene 1 57 138 0.796048 0 19099 0.796048 1
gene 1 59 138 0.432722 0 19101 0.432722 1
gene 1 60 138 0.438862 0 19102 0.438862 1
gene 1 62 138 -0.801162 0 19104 -0.801162 1
gene 1 67 138 -0.249499 0 19109 -0.249499 1
gene 1 71 138 -0.288218 0 19113 -0.288218 1
gene 1 72 138 -0.91688 0 19114 -0.91688 1
gene 1 78 138 -0.987277 0 19120 -0.987277 1
gene 1 86 138 0.91237 0 19128 0.91237 1
gene 1 91 138 -0.669686 0 19133 -0.669686 1
gene 1 93 138 -0.876821 0 19135 -0.876821 1
gene 1 97 138 -0.35727 0 19139 -0.35727 1
gene 1 101 138 0.480191 0 19143 0.480191 1
gene 1 102 138 0.615056 0 19144 0.615056 1
gene 1 108 138 0.597646 0 19150 0.597646 1
gene 1 138 138 0.744089 1 19180 0.744089 1
gene 1 14 139 0.269564 0 19195 0.269564 1
gene 1 18 139 -0.186685 0 19199 -0.186685 1
gene 1 19 139 -0.0680042 0 19200 -0.0680042 1
gene 1 21 139 0.297562 0 19202 0.297562 1
gene 1 25 139 0.651125 0 19206 0.651125 1
gene 1 32 139 0.222135 0 19213 0.222135 1
gene 1 33 139 -0.152734 0 19214 -0.152734 1
gene 1 36 139 -0.0909575 0 19217 -0.0909575 1
gene 1 39 139 0.979465 0 19220 0.979465 1
gene 1 46 139 0.817427 0 19227 0.817427 1
gene 1 54 139 -0.343846 0 19235 -0.343846 1
gene 1 64 139 -0.873631 0 19245 -0.873631 1
gene 1 67 139 -0.374029 0 19248 -0.374029 1
gene 1 70 139 0.895006 0 19251 0.895006 1
gene 1 71 139 -0.292918 0 19252 -0.292918 1
gene 1 78 139 -0.124088 0 19259 -0.124088 1
gene 1 79 139 0.712705 0 19260 0.712705 1
gene 1 80 139 -0.933888 0 19261 -0.933888 1
gene 1 84 139 0.262571 0 19265 0.262571 1
gene 1 86 139 -0.184937 0 19267 -0.184937 1
gene 1 90 139 -0.955381 0 19271 -0.955381 1
gene 1 91 139 0.846638 0 19272 0.846638 1
gene 1 95 139 -0.325074 0 19276 -0.325074 1
gene 1 96 139 -0.911338 0 19277 -0.911338 1
gene 1 97 139 0.771197 0 19278 0.771197 1
gene 1 102 139 -0.848626 0 19283 -0.848626 1
gene 1 107 139 -0.342855 0 19288 -0.342855 1
genomeend 0
