genomestart 0
trait 1 0 0 0 0 0 0 0 0 
node 1 1 1 1
node 2 1 1 1
node 3 1 1 1
node 4 1 1 1
node 5 1 1 1
node 6 1 1 1
node 7 1 1 1
node 8 1 1 1
node 9 1 1 1
node 10 1 1 1
node 11 1 1 1
node 12 1 1 1
node 13 1 1 1
node 14 1 1 1
node 15 1 1 1
node 16 1 1 1
node 17 1 1 1
node 18 1 1 1
node 19 1 1 1
node 20 1 1 1
node 21 1 1 1
node 22 1 1 1
node 23 1 1 1
node 24 1 1 1
node 25 1 1 1
node 26 1 1 1
node 27 1 1 1
node 28 1 1 1
node 29 1 1 1
node 30 1 1 1
node 31 1 1 1
node 32 1 1 1
node 33 1 1 1
node 34 1 1 1
node 35 1 1 1
node 36 1 1 1
node 37 1 1 1
node 38 1 1 1
node 39 1 1 1
node 40 1 1 1
node 41 1 1 1
node 42 1 1 1
node 43 1 1 1
node 44 1 1 1
node 45 1 1 1
node 46 1 1 1
node 47 1 1 1
node 48 1 1 1
node 49 1 1 1
node 50 1 1 1
node 51 1 1 1
node 52 1 1 1
node 53 1 1 1
node 54 1 1 1
node 55 1 1 1
node 56 1 1 1
node 57 1 1 1
node 58 1 1 1
node 59 1 1 1
node 60 1 1 1
node 61 1 1 1
node 62 1 1 1
node 63 1 1 1
node 64 1 1 1
node 65 1 1 1
node 66 1 1 1
node 67 1 1 1
node 68 1 1 1
node 69 1 1 1
node 70 1 1 1
node 71 1 1 1
node 72 1 1 1
node 73 1 1 1
node 74 1 1 1
node 75 1 1 1
node 76 1 1 1
node 77 1 1 1
node 78 1 1 1
node 79 1 1 1
node 80 1 1 1
node 81 1 1 1
node 82 1 1 1
node 83 1 1 1
node 84 1 1 1
node 85 1 1 1
node 86 1 1 1
node 87 1 1 1
node 88 1 1 1
node 89 1 1 1
node 90 1 1 1
node 91 1 1 1
node 92 1 1 1
node 93 1 1 1
node 94 1 1 1
node 95 1 1 1
node 96 1 1 1
node 97 1 1 1
node 98 1 1 1
node 99 1 1 1
node 100 1 1 1
node 101 1 1 1
node 102 1 1 1
node 103 1 1 1
node 104 1 1 1
node 105 1 1 1
node 106 1 1 1
node 107 1 1 1
node 108 1 1 1
node 109 1 1 1
node 110 1 1 1
node 111 1 1 3
node 112 1 0 0
node 150 1 0 2
node 151 1 0 2
node 152 1 0 2
node 153 1 0 2
node 154 1 0 2
node 155 1 0 2
node 156 1 0 2
node 157 1 0 2
node 158 1 0 2
node 159 1 0 2
node 160 1 0 2
gene 1 1 112 -0.531444 0 17760 -0.531444 1
gene 1 4 112 -0.757623 0 17763 -0.757623 1
gene 1 11 112 -0.339632 0 17770 -0.339632 1
gene 1 18 112 -0.994628 0 17777 -0.994628 1
gene 1 19 112 0.224498 0 17778 0.224498 1
gene 1 21 112 -0.923057 0 17780 -0.923057 1
gene 1 23 112 -0.373584 0 17782 -0.373584 1
gene 1 27 112 0.8793 0 17786 0.8793 1
gene 1 28 112 -0.0335399 0 17787 -0.0335399 1
gene 1 29 112 -0.710766 0 17788 -0.710766 1
gene 1 30 112 0.381004 0 17789 0.381004 1
gene 1 31 112 0.951023 0 17790 0.951023 1
gene 1 36 112 -0.660234 0 17795 -0.660234 1
gene 1 42 112 0.471645 0 17801 0.471645 1
gene 1 45 112 0.332434 0 17804 0.332434 1
gene 1 48 112 -0.728996 0 17807 -0.728996 1
gene 1 49 112 0.377697 0 17808 0.377697 1
gene 1 51 112 -0.758148 0 17810 -0.758148 1
gene 1 55 112 0.456947 0 17814 0.456947 1
gene 1 56 112 0.174967 0 17815 0.174967 1
gene 1 60 112 -0.336418 0 17819 -0.336418 1
gene 1 62 112 0.0564388 0 17821 0.0564388 1
gene 1 64 112 -0.571315 0 17823 -0.571315 1
gene 1 65 112 0.668591 0 17824 0.668591 1
gene 1 70 112 0.06334 0 17829 0.06334 1
gene 1 71 112 -0.39318 0 17830 -0.39318 1
gene 1 77 112 -0.148363 0 17836 -0.148363 1
gene 1 96 112 0.595611 0 17855 0.595611 1
gene 1 97 112 0.397987 0 17856 0.397987 1
gene 1 99 112 0.156128 0 17858 0.156128 1
gene 1 105 112 -0.474665 0 17864 -0.474665 1
gene 1 109 112 -0.192699 0 17868 -0.192699 1
gene 1 110 112 -0.363273 0 17869 -0.363273 1
gene 1 154 112 0.561793 1 17913 0.561793 1
gene 1 157 112 -0.900072 1 17916 -0.900072 1
gene 1 158 112 -0.931188 1 17917 -0.931188 1
gene 1 159 112 0.164813 1 17918 0.164813 1
gene 1 5 150 -0.765108 0 23844 -0.765108 1
gene 1 6 150 -0.0842966 0 23845 -0.0842966 1
gene 1 7 150 -0.246842 0 23846 -0.246842 1
gene 1 9 150 0.644102 0 23848 0.644102 1
gene 1 10 150 0.93383 0 23849 0.93383 1
gene 1 12 150 0.198118 0 23851 0.198118 1
gene 1 19 150 -0.550237 0 23858 -0.550237 1
gene 1 20 150 -0.624852 0 23859 -0.624852 1
gene 1 21 150 0.7675 0 23860 0.7675 1
gene 1 24 150 0.0503671 0 23863 0.0503671 1
gene 1 25 150 -0.397318 0 23864 -0.397318 1
gene 1 31 150 0.257281 0 23870 0.257281 1
gene 1 35 150 -0.973811 0 23874 -0.973811 1
gene 1 36 150 0.780813 0 23875 0.780813 1
gene 1 39 150 0.895142 0 23878 0.895142 1
gene 1 43 150 0.742774 0 23882 0.742774 1
gene 1 44 150 -0.372893 0 23883 -0.372893 1
gene 1 45 150 -0.627568 0 23884 -0.627568 1
gene 1 49 150 -0.23296 0 23888 -0.23296 1
gene 1 51 150 -0.731607 0 23890 -0.731607 1
gene 1 57 150 -0.25202 0 23896 -0.25202 1
gene 1 60 150 -0.709586 0 23899 -0.709586 1
gene 1 61 150 0.688407 0 23900 0.688407 1
gene 1 62 150 0.678421 0 23901 0.678421 1
gene 1 65 150 -0.648854 0 23904 -0.648854 1
gene 1 66 150 -0.911915 0 23905 -0.911915 1
gene 1 67 150 -0.961158 0 23906 -0.961158 1
gene 1 70 150 -0.860663 0 23909 -0.860663 1
gene 1 74 150 -0.568211 0 23913 -0.568211 1
gene 1 80 150 0.73237 0 23919 0.73237 1
gene 1 86 150 0.723519 0 23925 0.723519 1
gene 1 88 150 -0.326946 0 23927 -0.326946 1
gene 1 90 150 -0.98039 0 23929 -0.98039 1
gene 1 94 150 -0.977376 0 23933 -0.977376 1
gene 1 95 150 0.151901 0 23934 0.151901 1
gene 1 96 150 0.293224 0 23935 0.293224 1
gene 1 98 150 0.349014 0 23937 0.349014 1
gene 1 104 150 -0.810499 0 23943 -0.810499 1
gene 1 106 150 -0.748299 0 23945 -0.748299 1
gene 1 110 150 0.29622 0 23949 0.29622 1
gene 1 111 150 0.448545 0 23950 0.448545 1
gene 1 153 150 0.851362 1 23992 0.851362 1
gene 1 156 150 -0.0588871 1 23995 -0.0588871 1
gene 1 159 150 -0.369765 1 23998 -0.369765 1
gene 1 1 151 -0.144871 0 24000 -0.144871 1
gene 1 8 151 0.4186 0 24007 0.4186 1
gene 1 11 151 -0.997817 0 24010 -0.997817 1
gene 1 13 151 -0.495778 0 24012 -0.495778 1
gene 1 14 151 -0.367623 0 24013 -0.367623 1
gene 1 18 151 0.832533 0 24017 0.832533 1
gene 1 21 151 0.124617 0 24020 0.124617 1
gene 1 23 151 0.172681 0 24022 0.172681 1
gene 1 25 151 -0.611987 0 24024 -0.611987 1
gene 1 36 151 -0.734521 0 24035 -0.734521 1
gene 1 45 151 -0.545268 0 24044 -0.545268 1
gene 1 47 151 -0.894042 0 24046 -0.894042 1
gene 1 52 151 0.272122 0 24051 0.272122 1
gene 1 58 151 0.972256 0 24057 0.972256 1
gene 1 59 151 0.375738 0 24058 0.375738 1
gene 1 61 151 -0.0404314 0 24060 -0.0404314 1
gene 1 62 151 -0.837968 0 24061 -0.837968 1
gene 1 65 151 0.5817 0 24064 0.5817 1
gene 1 66 151 -0.0311814 0 24065 -0.0311814 1
gene 1 70 151 0.67546 0 24069 0.67546 1
gene 1 75 151 0.218979 0 24074 0.218979 1
gene 1 77 151 -0.0810574 0 24076 -0.0810574 1
gene 1 78 151 -0.654301 0 24077 -0.654301 1
gene 1 83 151 0.10525 0 24082 0.10525 1
gene 1 84 151 -0.97534 0 24083 -0.97534 1
gene 1 86 151 -0.438263 0 24085 -0.438263 1
gene 1 87 151 0.722909 0 24086 0.722909 1
gene 1 88 151 0.965356 0 24087 0.965356 1
gene 1 89 151 0.0869377 0 24088 0.0869377 1
gene 1 90 151 0.8524 0 24089 0.8524 1
gene 1 92 151 0.228913 0 24091 0.228913 1
gene 1 95 151 -0.719108 0 24094 -0.719108 1
gene 1 96 151 0.603736 0 24095 0.603736 1
gene 1 97 151 -0.454348 0 24096 -0.454348 1
gene 1 99 151 0.466094 0 24098 0.466094 1
gene 1 101 151 0.456418 0 24100 0.456418 1
gene 1 105 151 0.331514 0 24104 0.331514 1
gene 1 108 151 0.0866813 0 24107 0.0866813 1
gene 1 150 151 0.505753 0 24149 0.505753 1
gene 1 159 151 -0.902019 1 24158 -0.902019 1
gene 1 1 152 0.767973 0 24160 0.767973 1
gene 1 3 152 -0.690356 0 24162 -0.690356 1
gene 1 7 152 -0.136656 0 24166 -0.136656 1
gene 1 10 152 -0.635603 0 24169 -0.635603 1
gene 1 19 152 -0.109897 0 24178 -0.109897 1
gene 1 20 152 -0.0174394 0 24179 -0.0174394 1
gene 1 21 152 -0.53173 0 24180 -0.53173 1
gene 1 23 152 -0.149292 0 24182 -0.149292 1
gene 1 28 152 0.95422 0 24187 0.95422 1
gene 1 36 152 0.172888 0 24195 0.172888 1
gene 1 37 152 -0.904383 0 24196 -0.904383 1
gene 1 39 152 0.842591 0 24198 0.842591 1
gene 1 42 152 -0.543949 0 24201 -0.543949 1
gene 1 43 152 -0.857906 0 24202 -0.857906 1
gene 1 54 152 -0.969569 0 24213 -0.969569 1
gene 1 58 152 -0.0386894 0 24217 -0.0386894 1
gene 1 63 152 -0.0887795 0 24222 -0.0887795 1
gene 1 65 152 -0.330677 0 24224 -0.330677 1
gene 1 67 152 -0.19631 0 24226 -0.19631 1
gene 1 70 152 0.0594767 0 24229 0.0594767 1
gene 1 74 152 0.85996 0 24233 0.85996 1
gene 1 76 152 -0.368209 0 24235 -0.368209 1
gene 1 78 152 -0.445948 0 24237 -0.445948 1
gene 1 81 152 -0.0534132 0 24240 -0.0534132 1
gene 1 82 152 0.69241 0 24241 0.69241 1
gene 1 87 152 -0.388675 0 24246 -0.388675 1
gene 1 88 152 -0.91839 0 24247 -0.91839 1
gene 1 90 152 -0.104962 0 24249 -0.104962 1
gene 1 94 152 -0.949795 0 24253 -0.949795 1
gene 1 98 152 0.960289 0 24257 0.960289 1
gene 1 105 152 -0.847847 0 24264 -0.847847 1
gene 1 108 152 -0.85118 0 24267 -0.85118 1
gene 1 111 152 -0.316318 0 24270 -0.316318 1
gene 1 151 152 0.833397 0 24310 0.833397 1
gene 1 154 152 0.476334 1 24313 0.476334 1
gene 1 156 152 -0.753566 1 24315 -0.753566 1
gene 1 158 152 -0.258211 1 24317 -0.258211 1
gene 1 1 153 0.0778083 0 24320 0.0778083 1
gene 1 2 153 -0.487636 0 24321 -0.487636 1
gene 1 17 153 -0.832063 0 24336 -0.832063 1
gene 1 22 153 -0.0427555 0 24341 -0.0427555 1
gene 1 26 153 0.585271 0 24345 0.585271 1
gene 1 32 153 0.649602 0 24351 0.649602 1
gene 1 41 153 -0.190151 0 24360 -0.190151 1
gene 1 42 153 -0.534252 0 24361 -0.534252 1
gene 1 49 153 0.78072 0 24368 0.78072 1
gene 1 52 153 -0.292956 0 24371 -0.292956 1
gene 1 57 153 -0.257063 0 24376 -0.257063 1
gene 1 64 153 0.872261 0 24383 0.872261 1
gene 1 67 153 0.493033 0 24386 0.493033 1
gene 1 68 153 0.635148 0 24387 0.635148 1
gene 1 69 153 -0.111065 0 24388 -0.111065 1
gene 1 70 153 0.609436 0 24389 0.609436 1
gene 1 72 153 -0.0974309 0 24391 -0.0974309 1
gene 1 73 153 0.521881 0 24392 0.521881 1
gene 1 74 153 0.314268 0 24393 0.314268 1
gene 1 79 153 0.959781 0 24398 0.959781 1
gene 1 95 153 0.6697 0 24414 0.6697 1
gene 1 96 153 -0.808434 0 24415 -0.808434 1
gene 1 98 153 -0.664138 0 24417 -0.664138 1
gene 1 101 153 -0.700676 0 24420 -0.700676 1
gene 1 105 153 -0.250482 0 24424 -0.250482 1
gene 1 107 153 -0.175878 0 24426 -0.175878 1
gene 1 153 153 0.388699 1 24472 0.388699 1
gene 1 154 153 0.621919 1 24473 0.621919 1
gene 1 155 153 0.488254 1 24474 0.488254 1
gene 1 1 154 -0.167089 0 24480 -0.167089 1
gene 1 4 154 0.249526 0 24483 0.249526 1
gene 1 6 154 0.500389 0 24485 0.500389 1
gene 1 8 154 -0.783025 0 24487 -0.783025 1
gene 1 12 154 0.501529 0 24491 0.501529 1
gene 1 16 154 -0.334299 0 24495 -0.334299 1
gene 1 17 154 0.536157 0 24496 0.536157 1
gene 1 19 154 0.216536 0 24498 0.216536 1
gene 1 20 154 -0.246297 0 24499 -0.246297 1
gene 1 22 154 0.950525 0 24501 0.950525 1
gene 1 31 154 -0.228605 0 24510 -0.228605 1
gene 1 32 154 -0.381939 0 24511 -0.381939 1
gene 1 38 154 -0.955549 0 24517 -0.955549 1
gene 1 39 154 0.740711 0 24518 0.740711 1
gene 1 41 154 0.308783 0 24520 0.308783 1
gene 1 42 154 -0.763742 0 24521 -0.763742 1
gene 1 45 154 -0.743131 0 24524 -0.743131 1
gene 1 50 154 -0.996944 0 24529 -0.996944 1
gene 1 52 154 0.60102 0 24531 0.60102 1
gene 1 53 154 -0.277887 0 24532 -0.277887 1
gene 1 59 154 0.975105 0 24538 0.975105 1
gene 1 64 154 0.00232751 0 24543 0.00232751 1
gene 1 65 154 -0.320282 0 24544 -0.320282 1
gene 1 66 154 0.304151 0 24545 0.304151 1
gene 1 73 154 -0.378506 0 24552 -0.378506 1
gene 1 80 154 0.151988 0 24559 0.151988 1
gene 1 82 154 -0.0314844 0 24561 -0.0314844 1
gene 1 91 154 0.97174 0 24570 0.97174 1
gene 1 93 154 0.0655245 0 24572 0.0655245 1
gene 1 95 154 0.40124 0 24574 0.40124 1
gene 1 96 154 -0.183724 0 24575 -0.183724 1
gene 1 98 154 -0.105935 0 24577 -0.105935 1
gene 1 100 154 0.878876 0 24579 0.878876 1
gene 1 103 154 0.225739 0 24582 0.225739 1
gene 1 107 154 -0.0561765 0 24586 -0.0561765 1
gene 1 108 154 0.159366 0 24587 0.159366 1
gene 1 151 154 -0.308964 0 24630 -0.308964 1
gene 1 156 154 0.377999 1 24635 0.377999 1
gene 1 2 155 0.992086 0 24641 0.992086 1
gene 1 3 155 0.192958 0 24642 0.192958 1
gene 1 8 155 0.593988 0 24647 0.593988 1
gene 1 11 155 -0.0229294 0 24650 -0.0229294 1
gene 1 14 155 -0.658409 0 24653 -0.658409 1
gene 1 18 155 -0.571478 0 24657 -0.571478 1
gene 1 19 155 0.629256 0 24658 0.629256 1
gene 1 21 155 -0.653224 0 24660 -0.653224 1
gene 1 22 155 -0.503156 0 24661 -0.503156 1
gene 1 23 155 -0.974046 0 24662 -0.974046 1
gene 1 25 155 0.400741 0 24664 0.400741 1
gene 1 32 155 0.89854 0 24671 0.89854 1
gene 1 33 155 -0.606424 0 24672 -0.606424 1
gene 1 36 155 -0.480883 0 24675 -0.480883 1
gene 1 42 155 -0.238629 0 24681 -0.238629 1
gene 1 43 155 -0.847828 0 24682 -0.847828 1
gene 1 44 155 -0.234442 0 24683 -0.234442 1
gene 1 45 155 -0.156094 0 24684 -0.156094 1
gene 1 46 155 0.39519 0 24685 0.39519 1
gene 1 47 155 -0.690576 0 24686 -0.690576 1
gene 1 50 155 -0.810385 0 24689 -0.810385 1
gene 1 51 155 -0.324787 0 24690 -0.324787 1
gene 1 53 155 -0.860143 0 24692 -0.860143 1
gene 1 54 155 0.69873 0 24693 0.69873 1
gene 1 55 155 0.834121 0 24694 0.834121 1
gene 1 56 155 -0.583292 0 24695 -0.583292 1
gene 1 61 155 0.663695 0 24700 0.663695 1
gene 1 64 155 0.0939085 0 24703 0.0939085 1
gene 1 66 155 -0.777817 0 24705 -0.777817 1
gene 1 68 155 -0.713515 0 24707 -0.713515 1
gene 1 69 155 0.784246 0 24708 0.784246 1
gene 1 72 155 -0.849089 0 24711 -0.849089 1
gene 1 74 155 0.776248 0 24713 0.776248 1
gene 1 77 155 0.583468 0 24716 0.583468 1
gene 1 80 155 -0.369007 0 24719 -0.369007 1
gene 1 88 155 -0.501115 0 24727 -0.501115 1
gene 1 89 155 0.217765 0 24728 0.217765 1
gene 1 91 155 0.517907 0 24730 0.517907 1
gene 1 92 155 -0.797479 0 24731 -0.797479 1
gene 1 96 155 -0.476185 0 24735 -0.476185 1
gene 1 100 155 -0.117949 0 24739 -0.117949 1
gene 1 105 155 -0.4228 0 24744 -0.4228 1
gene 1 107 155 -0.706334 0 24746 -0.706334 1
gene 1 108 155 0.934501 0 24747 0.934501 1
gene 1 109 155 0.431616 0 24748 0.431616 1
gene 1 150 155 0.214467 0 24789 0.214467 1
gene 1 154 155 0.734944 0 24793 0.734944 1
gene 1 155 155 0.674692 1 24794 0.674692 1
gene 1 160 155 0.471901 1 24799 0.471901 1
gene 1 1 156 0.0406955 0 24800 0.0406955 1
gene 1 2 156 0.19695 0 24801 0.19695 1
gene 1 3 156 0.896725 0 24802 0.896725 1
gene 1 4 156 0.0517022 0 24803 0.0517022 1
gene 1 10 156 -0.688794 0 24809 -0.688794 1
gene 1 14 156 0.0743258 0 24813 0.0743258 1
gene 1 17 156 0.507123 0 24816 0.507123 1
gene 1 24 156 0.207812 0 24823 0.207812 1
gene 1 27 156 -0.826237 0 24826 -0.826237 1
gene 1 28 156 -0.511474 0 24827 -0.511474 1
gene 1 29 156 -0.744422 0 24828 -0.744422 1
gene 1 32 156 0.666134 0 24831 0.666134 1
gene 1 34 156 0.722759 0 24833 0.722759 1
gene 1 35 156 0.826851 0 24834 0.826851 1
gene 1 36 156 -0.935322 0 24835 -0.935322 1
gene 1 38 156 -0.920582 0 24837 -0.920582 1
gene 1 50 156 -0.274968 0 24849 -0.274968 1
gene 1 52 156 0.770228 0 24851 0.770228 1
gene 1 53 156 0.508673 0 24852 0.508673 1
gene 1 55 156 -0.618624 0 24854 -0.618624 1
gene 1 56 156 -0.887901 0 24855 -0.887901 1
gene 1 60 156 0.208252 0 24859 0.208252 1
gene 1 61 156 -0.425882 0 24860 -0.425882 1
gene 1 65 156 0.109156 0 24864 0.109156 1
gene 1 66 156 0.398723 0 24865 0.398723 1
gene 1 74 156 -0.272899 0 24873 -0.272899 1
gene 1 76 156 0.916836 0 24875 0.916836 1
gene 1 87 156 0.514042 0 24886 0.514042 1
gene 1 91 156 -0.005551 0 24890 -0.005551 1
gene 1 96 156 0.409443 0 24895 0.409443 1
gene 1 98 156 -0.846905 0 24897 -0.846905 1
gene 1 99 156 0.517411 0 24898 0.517411 1
gene 1 106 156 0.220442 0 24905 0.220442 1
gene 1 110 156 -0.0828246 0 24909 -0.0828246 1
gene 1 151 156 -0.68094 0 24950 -0.68094 1
gene 1 152 156 0.41291 0 24951 0.41291 1
gene 1 155 156 -0.181802 0 24954 -0.181802 1
gene 1 160 156 0.450828 1 24959 0.450828 1
gene 1 7 157 -0.312479 0 24966 -0.312479 1
gene 1 16 157 -0.415677 0 24975 -0.415677 1
gene 1 18 157 -0.039144 0 24977 -0.039144 1
gene 1 19 157 0.0512857 0 24978 0.0512857 1
gene 1 20 157 -0.877199 0 24979 -0.877199 1
gene 1 22 157 0.0796609 0 24981 0.0796609 1
gene 1 23 157 -0.151526 0 24982 -0.151526 1
gene 1 24 157 -0.814786 0 24983 -0.814786 1
gene 1 25 157 0.853293 0 24984 0.853293 1
gene 1 26 157 -0.967223 0 24985 -0.967223 1
gene 1 27 157 0.866313 0 24986 0.866313 1
gene 1 30 157 0.933053 0 24989 0.933053 1
gene 1 32 157 0.418126 0 24991 0.418126 1
gene 1 37 157 -0.679122 0 24996 -0.679122 1
gene 1 48 157 0.738875 0 25007 0.738875 1
gene 1 53 157 0.526658 0 25012 0.526658 1
gene 1 54 157 0.165669 0 25013 0.165669 1
gene 1 56 157 0.44716 0 25015 0.44716 1
gene 1 60 157 -0.982554 0 25019 -0.982554 1
gene 1 63 157 -0.434789 0 25022 -0.434789 1
gene 1 65 157 -0.181765 0 25024 -0.181765 1
gene 1 66 157 0.711921 0 25025 0.711921 1
gene 1 67 157 -0.130843 0 25026 -0.130843 1
gene 1 68 157 -0.814189 0 25027 -0.814189 1
gene 1 70 157 0.185825 0 25029 0.185825 1
gene 1 71 157 0.18039 0 25030 0.18039 1
gene 1 72 157 0.411242 0 25031 0.411242 1
gene 1 73 157 -0.571539 0 25032 -0.571539 1
gene 1 74 157 -0.280706 0 25033 -0.280706 1
gene 1 77 157 0.461319 0 25036 0.461319 1
gene 1 80 157 0.834308 0 25039 0.834308 1
gene 1 81 157 0.63767 0 25040 0.63767 1
gene 1 83 157 -0.820025 0 25042 -0.820025 1
gene 1 92 157 -0.359209 0 25051 -0.359209 1
gene 1 96 157 0.722855 0 25055 0.722855 1
gene 1 100 157 0.802161 0 25059 0.802161 1
gene 1 101 157 -0.195324 0 25060 -0.195324 1
gene 1 103 157 -0.509856 0 25062 -0.509856 1
gene 1 104 157 0.114183 0 25063 0.114183 1
gene 1 106 157 0.466705 0 25065 0.466705 1
gene 1 109 157 -0.803224 0 25068 -0.803224 1
gene 1 151 157 0.108773 0 25110 0.108773 1
gene 1 152 157 0.438388 0 25111 0.438388 1
gene 1 155 157 0.290963 0 25114 0.290963 1
gene 1 156 157 0.029972 0 25115 0.029972 1
gene 1 9 158 -0.693139 0 25128 -0.693139 1
gene 1 17 158 0.859742 0 25136 0.859742 1
gene 1 20 158 0.903314 0 25139 0.903314 1
gene 1 22 158 0.327641 0 25141 0.327641 1
gene 1 23 158 -0.00851526 0 25142 -0.00851526 1
gene 1 27 158 -0.861528 0 25146 -0.861528 1
gene 1 28 158 -0.518709 0 25147 -0.518709 1
gene 1 29 158 0.946426 0 25148 0.946426 1
gene 1 37 158 -0.908651 0 25156 -0.908651 1
gene 1 46 158 -0.666485 0 25165 -0.666485 1
gene 1 47 158 0.333813 0 25166 0.333813 1
gene 1 54 158 0.747114 0 25173 0.747114 1
gene 1 64 158 -0.468564 0 25183 -0.468564 1
gene 1 66 158 0.905827 0 25185 0.905827 1
gene 1 75 158 -0.560325 0 25194 -0.560325 1
gene 1 82 158 -0.854324 0 25201 -0.854324 1
gene 1 83 158 0.208528 0 25202 0.208528 1
gene 1 86 158 -0.920914 0 25205 -0.920914 1
gene 1 87 158 0.952204 0 25206 0.952204 1
gene 1 88 158 -0.291869 0 25207 -0.291869 1
gene 1 89 158 0.621041 0 25208 0.621041 1
gene 1 97 158 0.863729 0 25216 0.863729 1
gene 1 99 158 0.877829 0 25218 0.877829 1
gene 1 108 158 0.662632 0 25227 0.662632 1
gene 1 109 158 -0.295466 0 25228 -0.295466 1
gene 1 157 158 -0.304 0 25276 -0.304 1
gene 1 5 159 0.454561 0 25284 0.454561 1
gene 1 6 159 -0.290195 0 25285 -0.290195 1
gene 1 10 159 -0.435455 0 25289 -0.435455 1
gene 1 11 159 0.557688 0 25290 0.557688 1
gene 1 13 159 0.663938 0 25292 0.663938 1
gene 1 14 159 -0.787852 0 25293 -0.787852 1
gene 1 17 159 0.629145 0 25296 0.629145 1
gene 1 20 159 0.854694 0 25299 0.854694 1
gene 1 26 159 -0.675721 0 25305 -0.675721 1
gene 1 27 159 0.857307 0 25306 0.857307 1
gene 1 30 159 0.324112 0 25309 0.324112 1
gene 1 31 159 0.38859 0 25310 0.38859 1
gene 1 32 159 0.833265 0 25311 0.833265 1
gene 1 35 159 -0.142642 0 25314 -0.142642 1
gene 1 40 159 0.555387 0 25319 0.555387 1
gene 1 42 159 -0.026337 0 25321 -0.026337 1
gene 1 43 159 0.645369 0 25322 0.645369 1
gene 1 44 159 -0.345946 0 25323 -0.345946 1
gene 1 45 159 0.286245 0 25324 0.286245 1
gene 1 49 159 0.921881 0 25328 0.921881 1
gene 1 53 159 0.912748 0 25332 0.912748 1
gene 1 55 159 -0.461452 0 25334 -0.461452 1
gene 1 57 159 0.910667 0 25336 0.910667 1
gene 1 68 159 0.494982 0 25347 0.494982 1
gene 1 70 159 0.198946 0 25349 0.198946 1
gene 1 71 159 0.0270395 0 25350 0.0270395 1
gene 1 72 159 0.367132 0 25351 0.367132 1
gene 1 74 159 0.296139 0 25353 0.296139 1
gene 1 80 159 -0.549654 0 25359 -0.549654 1
gene 1 81 159 -0.526437 0 25360 -0.526437 1
gene 1 82 159 -0.149076 0 25361 -0.149076 1
gene 1 83 159 -0.308233 0 25362 -0.308233 1
gene 1 85 159 0.608596 0 25364 0.608596 1
gene 1 86 159 0.450502 0 25365 0.450502 1
gene 1 92 159 0.599657 0 25371 0.599657 1
gene 1 100 159 0.370848 0 25379 0.370848 1
gene 1 101 159 0.35302 0 25380 0.35302 1
gene 1 103 159 -0.606017 0 25382 -0.606017 1
gene 1 106 159 0.906361 0 25385 0.906361 1
gene 1 107 159 -0.764949 0 25386 -0.764949 1
gene 1 108 159 0.919277 0 25387 0.919277 1
gene 1 111 159 -0.694922 0 25390 -0.694922 1
gene 1 152 159 -0.369265 0 25431 -0.369265 1
gene 1 158 159 -0.618784 0 25437 -0.618784 1
gene 1 5 160 0.531372 0 25444 0.531372 1
gene 1 9 160 -0.178886 0 25448 -0.178886 1
gene 1 10 160 0.774821 0 25449 0.774821 1
gene 1 12 160 0.658822 0 25451 0.658822 1
gene 1 13 160 -0.00391769 0 25452 -0.00391769 1
gene 1 18 160 0.219167 0 25457 0.219167 1
gene 1 21 160 0.0178034 0 25460 0.0178034 1
gene 1 27 160 -0.78231 0 25466 -0.78231 1
gene 1 35 160 0.504844 0 25474 0.504844 1
gene 1 36 160 -0.75654 0 25475 -0.75654 1
gene 1 39 160 -0.632494 0 25478 -0.632494 1
gene 1 54 160 -0.671193 0 25493 -0.671193 1
gene 1 55 160 0.00796736 0 25494 0.00796736 1
gene 1 61 160 0.24753 0 25500 0.24753 1
gene 1 63 160 -0.196142 0 25502 -0.196142 1
gene 1 65 160 0.720848 0 25504 0.720848 1
gene 1 66 160 0.57208 0 25505 0.57208 1
gene 1 84 160 0.306541 0 25523 0.306541 1
gene 1 85 160 0.868887 0 25524 0.868887 1
gene 1 89 160 0.229213 0 25528 0.229213 1
gene 1 92 160 -0.0564696 0 25531 -0.0564696 1
gene 1 101 160 0.521794 0 25540 0.521794 1
gene 1 102 160 0.708454 0 25541 0.708454 1
gene 1 103 160 0.147516 0 25542 0.147516 1
gene 1 105 160 -0.0203414 0 25544 -0.0203414 1
gene 1 106 160 0.385263 0 25545 0.385263 1
gene 1 107 160 0.996295 0 25546 0.996295 1
gene 1 153 160 0.523368 0 25592 0.523368 1
gene 1 154 160 0.0647493 0 25593 0.0647493 1
gene 1 155 160 0.807148 0 25594 0.807148 1
gene 1 156 160 0.0812717 0 25595 0.0812717 1
genomeend 0
