genomestart 1273611072
trait 1 0 0 0 0 0 0 0 0 
node 1 1 1 1
node 2 1 1 1
node 3 1 1 1
node 4 1 1 1
node 5 1 1 1
node 6 1 1 1
node 7 1 1 1
node 8 1 1 1
node 9 1 1 1
node 10 1 1 1
node 11 1 1 1
node 12 1 1 1
node 13 1 1 1
node 14 1 1 1
node 15 1 1 1
node 16 1 1 1
node 17 1 1 1
node 18 1 1 1
node 19 1 1 1
node 20 1 1 1
node 21 1 1 1
node 22 1 1 1
node 23 1 1 1
node 24 1 1 1
node 25 1 1 1
node 26 1 1 1
node 27 1 1 1
node 28 1 1 1
node 29 1 1 1
node 30 1 1 1
node 31 1 1 1
node 32 1 1 1
node 33 1 1 1
node 34 1 1 1
node 35 1 1 1
node 36 1 1 1
node 37 1 1 1
node 38 1 1 1
node 39 1 1 1
node 40 1 1 1
node 41 1 1 1
node 42 1 1 1
node 43 1 1 1
node 44 1 1 1
node 45 1 1 1
node 46 1 1 1
node 47 1 1 1
node 48 1 1 1
node 49 1 1 1
node 50 1 1 1
node 51 1 1 1
node 52 1 1 1
node 53 1 1 1
node 54 1 1 1
node 55 1 1 1
node 56 1 1 1
node 57 1 1 1
node 58 1 1 1
node 59 1 1 1
node 60 1 1 1
node 61 1 1 1
node 62 1 1 1
node 63 1 1 1
node 64 1 1 1
node 65 1 1 1
node 66 1 1 1
node 67 1 1 1
node 68 1 1 1
node 69 1 1 1
node 70 1 1 1
node 71 1 1 1
node 72 1 1 1
node 73 1 1 1
node 74 1 1 1
node 75 1 1 1
node 76 1 1 1
node 77 1 1 1
node 78 1 1 1
node 79 1 1 1
node 80 1 1 1
node 81 1 1 1
node 82 1 1 1
node 83 1 1 1
node 84 1 1 1
node 85 1 1 1
node 86 1 1 1
node 87 1 1 1
node 88 1 1 1
node 89 1 1 1
node 90 1 1 1
node 91 1 1 1
node 92 1 1 1
node 93 1 1 1
node 94 1 1 1
node 95 1 1 1
node 96 1 1 1
node 97 1 1 1
node 98 1 1 1
node 99 1 1 1
node 100 1 1 1
node 101 1 1 1
node 102 1 1 1
node 103 1 1 1
node 104 1 1 1
node 105 1 1 1
node 106 1 1 1
node 107 1 1 1
node 108 1 1 1
node 109 1 1 1
node 110 1 1 1
node 111 1 1 3
node 112 1 0 0
node 134 1 0 2
node 135 1 0 2
node 136 1 0 2
gene 1 2 112 0.126378 0 15097 0.126378 1
gene 1 4 112 0.0856856 0 15099 0.0856856 1
gene 1 8 112 -0.154253 0 15103 -0.154253 1
gene 1 13 112 -2.39251 0 15108 -2.39251 1
gene 1 14 112 -1.41827 0 15109 -1.41827 1
gene 1 15 112 1.37219 0 15110 1.37219 1
gene 1 18 112 -2.32864 0 15113 -2.32864 1
gene 1 21 112 -2.15283 0 15116 -2.15283 1
gene 1 23 112 2.70268 0 15118 2.70268 1
gene 1 27 112 1.2075 0 15122 1.2075 1
gene 1 28 112 -1.86951 0 15123 -1.86951 1
gene 1 30 112 -1.04035 0 15125 -1.04035 1
gene 1 31 112 3.24639 0 15126 3.24639 1
gene 1 32 112 0.825332 0 15127 0.825332 1
gene 1 34 112 2.0838 0 15129 2.0838 1
gene 1 36 112 2.4614 0 15131 2.4614 1
gene 1 37 112 -1.61735 0 15132 -1.61735 1
gene 1 39 112 0.652629 0 15134 0.652629 1
gene 1 43 112 4.51573 0 15138 4.51573 1
gene 1 49 112 -0.537983 0 15144 -0.537983 1
gene 1 50 112 -0.901125 0 15145 -0.901125 1
gene 1 51 112 2.12798 0 15146 2.12798 1
gene 1 60 112 -0.500762 0 15155 -0.500762 1
gene 1 64 112 -1.6449 0 15159 -1.6449 1
gene 1 65 112 1.16654 0 15160 1.16654 1
gene 1 66 112 -1.41734 0 15161 -1.41734 1
gene 1 69 112 -1.16093 0 15164 -1.16093 1
gene 1 71 112 -0.726404 0 15166 -0.726404 1
gene 1 78 112 -1.80605 0 15173 -1.80605 1
gene 1 80 112 -2.12221 0 15175 -2.12221 1
gene 1 81 112 0.418993 0 15176 0.418993 1
gene 1 90 112 -2.10728 0 15185 -2.10728 1
gene 1 93 112 -0.0841864 0 15188 -0.0841864 1
gene 1 95 112 4.3726 0 15190 4.3726 1
gene 1 97 112 0.765922 0 15192 0.765922 1
gene 1 105 112 -0.753826 0 15200 -0.753826 1
gene 1 108 112 -1.66519 0 15203 -1.66519 1
gene 1 135 112 -0.0408849 1 15230 -0.0408849 1
gene 1 2 134 0.569748 0 18089 0.569748 1
gene 1 3 134 1.8573 0 18090 1.8573 1
gene 1 5 134 2.62269 0 18092 2.62269 1
gene 1 6 134 0.779611 0 18093 0.779611 1
gene 1 8 134 -0.378767 0 18095 -0.378767 1
gene 1 9 134 0.760041 0 18096 0.760041 1
gene 1 12 134 0.555216 0 18099 0.555216 1
gene 1 18 134 -2.19411 0 18105 -2.19411 1
gene 1 19 134 -1.37421 0 18106 -1.37421 1
gene 1 21 134 1.49808 0 18108 1.49808 1
gene 1 23 134 -3.97052 0 18110 -3.97052 1
gene 1 29 134 0.0444551 0 18116 0.0444551 1
gene 1 32 134 1.28208 0 18119 1.28208 1
gene 1 34 134 -1.16045 0 18121 -1.16045 1
gene 1 42 134 0.816178 0 18129 0.816178 1
gene 1 43 134 1.88284 0 18130 1.88284 1
gene 1 45 134 -2.40108 0 18132 -2.40108 1
gene 1 50 134 0.797336 0 18137 0.797336 1
gene 1 53 134 -3.01009 0 18140 -3.01009 1
gene 1 56 134 2.80521 0 18143 2.80521 1
gene 1 59 134 -2.81735 0 18146 -2.81735 1
gene 1 64 134 0.695657 0 18151 0.695657 1
gene 1 66 134 2.23756 0 18153 2.23756 1
gene 1 68 134 -1.93218 0 18155 -1.93218 1
gene 1 69 134 -2.26092 0 18156 -2.26092 1
gene 1 73 134 2.34267 0 18160 2.34267 1
gene 1 78 134 0.0251678 0 18165 0.0251678 1
gene 1 81 134 0.84513 0 18168 0.84513 1
gene 1 83 134 3.88841 0 18170 3.88841 1
gene 1 84 134 0.219671 0 18171 0.219671 1
gene 1 86 134 0.230406 0 18173 0.230406 1
gene 1 96 134 2.14194 0 18183 2.14194 1
gene 1 99 134 -0.964663 0 18186 -0.964663 1
gene 1 101 134 1.72027 0 18188 1.72027 1
gene 1 104 134 -1.76533 0 18191 -1.76533 1
gene 1 111 134 0.984686 0 18198 0.984686 1
gene 1 112 134 1.19952 0 18199 1.19952 1
gene 1 3 135 -2.47448 0 18226 -2.47448 1
gene 1 6 135 1.02002 0 18229 1.02002 1
gene 1 7 135 -0.796719 0 18230 -0.796719 1
gene 1 13 135 2.24732 0 18236 2.24732 1
gene 1 20 135 0.612894 0 18243 0.612894 1
gene 1 22 135 2.47746 0 18245 2.47746 1
gene 1 23 135 -0.623625 0 18246 -0.623625 1
gene 1 26 135 -0.713294 0 18249 -0.713294 1
gene 1 27 135 2.35037 0 18250 2.35037 1
gene 1 28 135 0.342953 0 18251 0.342953 1
gene 1 32 135 -1.47947 0 18255 -1.47947 1
gene 1 35 135 3.20862 0 18258 3.20862 1
gene 1 38 135 -1.5803 0 18261 -1.5803 1
gene 1 40 135 -0.411077 0 18263 -0.411077 1
gene 1 45 135 0.196905 0 18268 0.196905 1
gene 1 46 135 -1.54532 0 18269 -1.54532 1
gene 1 48 135 0.914789 0 18271 0.914789 1
gene 1 54 135 1.90513 0 18277 1.90513 1
gene 1 58 135 1.27491 0 18281 1.27491 1
gene 1 59 135 -1.49502 0 18282 -1.49502 1
gene 1 61 135 1.57476 0 18284 1.57476 1
gene 1 68 135 -0.737894 0 18291 -0.737894 1
gene 1 69 135 -2.26785 0 18292 -2.26785 1
gene 1 72 135 0.529816 0 18295 0.529816 1
gene 1 73 135 2.03831 0 18296 2.03831 1
gene 1 77 135 -2.22026 0 18300 -2.22026 1
gene 1 81 135 -3.21375 0 18304 -3.21375 1
gene 1 84 135 -0.443528 0 18307 -0.443528 1
gene 1 89 135 3.62614 0 18312 3.62614 1
gene 1 91 135 -1.22411 0 18314 -1.22411 1
gene 1 93 135 0.503657 0 18316 0.503657 1
gene 1 103 135 -0.271493 0 18326 -0.271493 1
gene 1 104 135 -0.961371 0 18327 -0.961371 1
gene 1 106 135 -2.17599 0 18329 -2.17599 1
gene 1 107 135 -1.06934 0 18330 -1.06934 1
gene 1 110 135 -0.576726 0 18333 -0.576726 1
gene 1 2 136 -2.97515 0 18361 -2.97515 1
gene 1 3 136 0.0575886 0 18362 0.0575886 1
gene 1 4 136 1.16001 0 18363 1.16001 1
gene 1 8 136 -0.891111 0 18367 -0.891111 1
gene 1 11 136 -1.005 0 18370 -1.005 1
gene 1 13 136 -0.481926 0 18372 -0.481926 1
gene 1 15 136 2.92374 0 18374 2.92374 1
gene 1 20 136 0.808875 0 18379 0.808875 1
gene 1 24 136 -0.909452 0 18383 -0.909452 1
gene 1 29 136 2.06276 0 18388 2.06276 1
gene 1 31 136 -0.173867 0 18390 -0.173867 1
gene 1 34 136 -2.53108 0 18393 -2.53108 1
gene 1 35 136 -0.644285 0 18394 -0.644285 1
gene 1 36 136 -2.65286 0 18395 -2.65286 1
gene 1 38 136 -2.41297 0 18397 -2.41297 1
gene 1 40 136 -0.164587 0 18399 -0.164587 1
gene 1 41 136 1.44881 0 18400 1.44881 1
gene 1 48 136 2.14643 0 18407 2.14643 1
gene 1 49 136 0.97577 0 18408 0.97577 1
gene 1 50 136 -1.25923 0 18409 -1.25923 1
gene 1 51 136 2.49546 0 18410 2.49546 1
gene 1 52 136 0.826308 0 18411 0.826308 1
gene 1 56 136 -1.44876 0 18415 -1.44876 1
gene 1 58 136 -0.122861 0 18417 -0.122861 1
gene 1 64 136 -2.08683 0 18423 -2.08683 1
gene 1 66 136 0.39285 0 18425 0.39285 1
gene 1 68 136 -1.25157 0 18427 -1.25157 1
gene 1 72 136 0.987316 0 18431 0.987316 1
gene 1 73 136 1.02621 0 18432 1.02621 1
gene 1 74 136 -0.538223 0 18433 -0.538223 1
gene 1 85 136 -2.43218 0 18444 -2.43218 1
gene 1 91 136 -1.30511 0 18450 -1.30511 1
gene 1 95 136 -1.24135 0 18454 -1.24135 1
gene 1 96 136 2.59308 0 18455 2.59308 1
gene 1 97 136 2.94284 0 18456 2.94284 1
gene 1 98 136 1.99852 0 18457 1.99852 1
gene 1 100 136 -0.612455 0 18459 -0.612455 1
gene 1 104 136 1.55921 0 18463 1.55921 1
gene 1 106 136 0.18199 0 18465 0.18199 1
gene 1 135 136 1.01884 0 18494 1.01884 1
genomeend 1273611072
