genomestart 0
trait 1 0 0 0 0 0 0 0 0 
node 1 1 1 1
node 2 1 1 1
node 3 1 1 1
node 4 1 1 1
node 5 1 1 1
node 6 1 1 1
node 7 1 1 1
node 8 1 1 1
node 9 1 1 1
node 10 1 1 1
node 11 1 1 1
node 12 1 1 1
node 13 1 1 1
node 14 1 1 1
node 15 1 1 1
node 16 1 1 1
node 17 1 1 1
node 18 1 1 1
node 19 1 1 1
node 20 1 1 1
node 21 1 1 1
node 22 1 1 1
node 23 1 1 1
node 24 1 1 1
node 25 1 1 1
node 26 1 1 1
node 27 1 1 1
node 28 1 1 1
node 29 1 1 1
node 30 1 1 1
node 31 1 1 1
node 32 1 1 1
node 33 1 1 1
node 34 1 1 1
node 35 1 1 1
node 36 1 1 1
node 37 1 1 1
node 38 1 1 1
node 39 1 1 1
node 40 1 1 1
node 41 1 1 1
node 42 1 1 1
node 43 1 1 1
node 44 1 1 1
node 45 1 1 1
node 46 1 1 1
node 47 1 1 1
node 48 1 1 1
node 49 1 1 1
node 50 1 1 1
node 51 1 1 1
node 52 1 1 1
node 53 1 1 1
node 54 1 1 1
node 55 1 1 1
node 56 1 1 1
node 57 1 1 1
node 58 1 1 1
node 59 1 1 1
node 60 1 1 1
node 61 1 1 1
node 62 1 1 1
node 63 1 1 1
node 64 1 1 1
node 65 1 1 1
node 66 1 1 1
node 67 1 1 1
node 68 1 1 1
node 69 1 1 1
node 70 1 1 1
node 71 1 1 1
node 72 1 1 1
node 73 1 1 1
node 74 1 1 1
node 75 1 1 1
node 76 1 1 1
node 77 1 1 1
node 78 1 1 1
node 79 1 1 1
node 80 1 1 1
node 81 1 1 1
node 82 1 1 1
node 83 1 1 1
node 84 1 1 1
node 85 1 1 1
node 86 1 1 1
node 87 1 1 1
node 88 1 1 1
node 89 1 1 1
node 90 1 1 1
node 91 1 1 1
node 92 1 1 1
node 93 1 1 1
node 94 1 1 1
node 95 1 1 1
node 96 1 1 1
node 97 1 1 1
node 98 1 1 1
node 99 1 1 1
node 100 1 1 1
node 101 1 1 1
node 102 1 1 1
node 103 1 1 1
node 104 1 1 1
node 105 1 1 1
node 106 1 1 1
node 107 1 1 1
node 108 1 1 1
node 109 1 1 1
node 110 1 1 1
node 111 1 1 3
node 112 1 0 0
node 134 1 0 2
node 135 1 0 2
node 136 1 0 2
gene 1 4 112 -0.245879 0 15099 -0.245879 1
gene 1 6 112 -0.773472 0 15101 -0.773472 1
gene 1 9 112 -0.547567 0 15104 -0.547567 1
gene 1 11 112 0.470029 0 15106 0.470029 1
gene 1 12 112 0.408991 0 15107 0.408991 1
gene 1 13 112 0.237821 0 15108 0.237821 1
gene 1 21 112 0.382216 0 15116 0.382216 1
gene 1 23 112 0.152937 0 15118 0.152937 1
gene 1 24 112 -0.265206 0 15119 -0.265206 1
gene 1 26 112 0.330449 0 15121 0.330449 1
gene 1 27 112 -0.405773 0 15122 -0.405773 1
gene 1 29 112 0.707254 0 15124 0.707254 1
gene 1 30 112 0.734422 0 15125 0.734422 1
gene 1 37 112 -0.544114 0 15132 -0.544114 1
gene 1 39 112 0.84524 0 15134 0.84524 1
gene 1 42 112 -0.968376 0 15137 -0.968376 1
gene 1 45 112 0.0272001 0 15140 0.0272001 1
gene 1 50 112 -0.576132 0 15145 -0.576132 1
gene 1 51 112 -0.192241 0 15146 -0.192241 1
gene 1 63 112 0.74606 0 15158 0.74606 1
gene 1 67 112 0.891019 0 15162 0.891019 1
gene 1 68 112 -0.502616 0 15163 -0.502616 1
gene 1 70 112 -0.777658 0 15165 -0.777658 1
gene 1 71 112 -0.257567 0 15166 -0.257567 1
gene 1 75 112 0.366409 0 15170 0.366409 1
gene 1 76 112 -0.207939 0 15171 -0.207939 1
gene 1 78 112 0.0879687 0 15173 0.0879687 1
gene 1 79 112 -0.185123 0 15174 -0.185123 1
gene 1 80 112 -0.0961565 0 15175 -0.0961565 1
gene 1 85 112 -0.376953 0 15180 -0.376953 1
gene 1 88 112 -0.30763 0 15183 -0.30763 1
gene 1 90 112 0.907906 0 15185 0.907906 1
gene 1 91 112 -0.501307 0 15186 -0.501307 1
gene 1 94 112 0.897518 0 15189 0.897518 1
gene 1 95 112 -0.0284113 0 15190 -0.0284113 1
gene 1 96 112 -0.619244 0 15191 -0.619244 1
gene 1 111 112 0.00636722 0 15206 0.00636722 1
gene 1 135 112 0.871146 1 15230 0.871146 1
gene 1 136 112 -0.554362 1 15231 -0.554362 1
gene 1 4 134 -0.902354 0 18091 -0.902354 1
gene 1 9 134 0.296652 0 18096 0.296652 1
gene 1 13 134 0.245668 0 18100 0.245668 1
gene 1 17 134 0.124264 0 18104 0.124264 1
gene 1 22 134 -0.876115 0 18109 -0.876115 1
gene 1 28 134 -0.636056 0 18115 -0.636056 1
gene 1 32 134 -0.993044 0 18119 -0.993044 1
gene 1 36 134 -0.197361 0 18123 -0.197361 1
gene 1 42 134 -0.228268 0 18129 -0.228268 1
gene 1 43 134 0.950113 0 18130 0.950113 1
gene 1 46 134 0.200503 0 18133 0.200503 1
gene 1 47 134 -0.973555 0 18134 -0.973555 1
gene 1 48 134 -0.681231 0 18135 -0.681231 1
gene 1 51 134 0.240248 0 18138 0.240248 1
gene 1 53 134 -0.526016 0 18140 -0.526016 1
gene 1 54 134 -0.155556 0 18141 -0.155556 1
gene 1 55 134 -0.745915 0 18142 -0.745915 1
gene 1 57 134 -0.754782 0 18144 -0.754782 1
gene 1 59 134 -0.794483 0 18146 -0.794483 1
gene 1 64 134 0.149714 0 18151 0.149714 1
gene 1 65 134 0.121695 0 18152 0.121695 1
gene 1 68 134 0.368953 0 18155 0.368953 1
gene 1 74 134 -0.0304764 0 18161 -0.0304764 1
gene 1 82 134 -0.51298 0 18169 -0.51298 1
gene 1 84 134 0.299779 0 18171 0.299779 1
gene 1 86 134 0.43686 0 18173 0.43686 1
gene 1 90 134 -0.0788581 0 18177 -0.0788581 1
gene 1 91 134 -0.674087 0 18178 -0.674087 1
gene 1 95 134 -0.06367 0 18182 -0.06367 1
gene 1 97 134 -0.131584 0 18184 -0.131584 1
gene 1 98 134 -0.332213 0 18185 -0.332213 1
gene 1 103 134 -0.690208 0 18190 -0.690208 1
gene 1 105 134 -0.976398 0 18192 -0.976398 1
gene 1 106 134 -0.780211 0 18193 -0.780211 1
gene 1 109 134 -0.0178147 0 18196 -0.0178147 1
gene 1 110 134 -0.255902 0 18197 -0.255902 1
gene 1 111 134 0.346543 0 18198 0.346543 1
gene 1 112 134 -0.452287 0 18199 -0.452287 1
gene 1 134 134 -0.772546 1 18221 -0.772546 1
gene 1 1 135 -0.470701 0 18224 -0.470701 1
gene 1 11 135 0.0893575 0 18234 0.0893575 1
gene 1 14 135 0.420442 0 18237 0.420442 1
gene 1 20 135 0.192968 0 18243 0.192968 1
gene 1 21 135 0.601604 0 18244 0.601604 1
gene 1 23 135 0.973183 0 18246 0.973183 1
gene 1 25 135 -0.344895 0 18248 -0.344895 1
gene 1 26 135 -0.439876 0 18249 -0.439876 1
gene 1 29 135 0.942558 0 18252 0.942558 1
gene 1 33 135 -0.048788 0 18256 -0.048788 1
gene 1 34 135 -0.414284 0 18257 -0.414284 1
gene 1 37 135 0.805501 0 18260 0.805501 1
gene 1 39 135 0.252634 0 18262 0.252634 1
gene 1 41 135 -0.48378 0 18264 -0.48378 1
gene 1 44 135 -0.583144 0 18267 -0.583144 1
gene 1 48 135 0.516975 0 18271 0.516975 1
gene 1 56 135 0.802543 0 18279 0.802543 1
gene 1 64 135 -0.593114 0 18287 -0.593114 1
gene 1 67 135 -0.0592592 0 18290 -0.0592592 1
gene 1 70 135 0.992049 0 18293 0.992049 1
gene 1 77 135 0.299769 0 18300 0.299769 1
gene 1 80 135 0.0843776 0 18303 0.0843776 1
gene 1 82 135 0.181635 0 18305 0.181635 1
gene 1 84 135 -0.107049 0 18307 -0.107049 1
gene 1 91 135 -0.884433 0 18314 -0.884433 1
gene 1 92 135 0.768607 0 18315 0.768607 1
gene 1 95 135 0.0474883 0 18318 0.0474883 1
gene 1 96 135 0.235009 0 18319 0.235009 1
gene 1 97 135 -0.0368895 0 18320 -0.0368895 1
gene 1 98 135 -0.744114 0 18321 -0.744114 1
gene 1 100 135 0.429421 0 18323 0.429421 1
gene 1 101 135 -0.788067 0 18324 -0.788067 1
gene 1 102 135 -0.311482 0 18325 -0.311482 1
gene 1 103 135 0.381236 0 18326 0.381236 1
gene 1 104 135 -0.979932 0 18327 -0.979932 1
gene 1 105 135 -0.992192 0 18328 -0.992192 1
gene 1 110 135 0.251227 0 18333 0.251227 1
gene 1 6 136 0.221139 0 18365 0.221139 1
gene 1 9 136 -0.424957 0 18368 -0.424957 1
gene 1 19 136 -0.0327517 0 18378 -0.0327517 1
gene 1 21 136 -0.426848 0 18380 -0.426848 1
gene 1 23 136 -0.259176 0 18382 -0.259176 1
gene 1 24 136 -0.136987 0 18383 -0.136987 1
gene 1 29 136 0.938227 0 18388 0.938227 1
gene 1 33 136 0.494491 0 18392 0.494491 1
gene 1 41 136 0.669854 0 18400 0.669854 1
gene 1 43 136 -0.742046 0 18402 -0.742046 1
gene 1 45 136 0.864725 0 18404 0.864725 1
gene 1 52 136 -0.71993 0 18411 -0.71993 1
gene 1 54 136 0.39682 0 18413 0.39682 1
gene 1 55 136 -0.792026 0 18414 -0.792026 1
gene 1 57 136 -0.744806 0 18416 -0.744806 1
gene 1 58 136 0.43358 0 18417 0.43358 1
gene 1 64 136 -0.965396 0 18423 -0.965396 1
gene 1 71 136 0.605226 0 18430 0.605226 1
gene 1 72 136 0.0434058 0 18431 0.0434058 1
gene 1 76 136 0.434492 0 18435 0.434492 1
gene 1 85 136 0.746078 0 18444 0.746078 1
gene 1 90 136 0.859837 0 18449 0.859837 1
gene 1 93 136 -0.472285 0 18452 -0.472285 1
gene 1 95 136 -0.334566 0 18454 -0.334566 1
gene 1 101 136 -0.998762 0 18460 -0.998762 1
gene 1 103 136 0.363486 0 18462 0.363486 1
gene 1 104 136 -0.0250303 0 18463 -0.0250303 1
gene 1 107 136 0.509933 0 18466 0.509933 1
gene 1 112 136 0.921774 0 18471 0.921774 1
gene 1 135 136 0.885845 0 18494 0.885845 1
gene 1 136 136 -0.745255 1 18495 -0.745255 1
genomeend 0
