genomestart 0
trait 1 0 0 0 0 0 0 0 0 
node 1 1 1 1
node 2 1 1 1
node 3 1 1 1
node 4 1 1 1
node 5 1 1 1
node 6 1 1 1
node 7 1 1 1
node 8 1 1 1
node 9 1 1 1
node 10 1 1 1
node 11 1 1 1
node 12 1 1 1
node 13 1 1 1
node 14 1 1 1
node 15 1 1 1
node 16 1 1 1
node 17 1 1 1
node 18 1 1 1
node 19 1 1 1
node 20 1 1 1
node 21 1 1 1
node 22 1 1 1
node 23 1 1 1
node 24 1 1 1
node 25 1 1 1
node 26 1 1 1
node 27 1 1 1
node 28 1 1 1
node 29 1 1 1
node 30 1 1 1
node 31 1 1 1
node 32 1 1 1
node 33 1 1 1
node 34 1 1 1
node 35 1 1 1
node 36 1 1 1
node 37 1 1 1
node 38 1 1 1
node 39 1 1 1
node 40 1 1 1
node 41 1 1 1
node 42 1 1 1
node 43 1 1 1
node 44 1 1 1
node 45 1 1 1
node 46 1 1 1
node 47 1 1 1
node 48 1 1 1
node 49 1 1 1
node 50 1 1 1
node 51 1 1 1
node 52 1 1 1
node 53 1 1 1
node 54 1 1 1
node 55 1 1 1
node 56 1 1 1
node 57 1 1 1
node 58 1 1 1
node 59 1 1 1
node 60 1 1 1
node 61 1 1 1
node 62 1 1 1
node 63 1 1 1
node 64 1 1 1
node 65 1 1 1
node 66 1 1 1
node 67 1 1 1
node 68 1 1 1
node 69 1 1 1
node 70 1 1 1
node 71 1 1 1
node 72 1 1 1
node 73 1 1 1
node 74 1 1 1
node 75 1 1 1
node 76 1 1 1
node 77 1 1 1
node 78 1 1 1
node 79 1 1 1
node 80 1 1 1
node 81 1 1 1
node 82 1 1 1
node 83 1 1 1
node 84 1 1 1
node 85 1 1 1
node 86 1 1 1
node 87 1 1 1
node 88 1 1 1
node 89 1 1 1
node 90 1 1 1
node 91 1 1 1
node 92 1 1 1
node 93 1 1 1
node 94 1 1 1
node 95 1 1 1
node 96 1 1 1
node 97 1 1 1
node 98 1 1 1
node 99 1 1 1
node 100 1 1 1
node 101 1 1 1
node 102 1 1 1
node 103 1 1 1
node 104 1 1 1
node 105 1 1 1
node 106 1 1 1
node 107 1 1 1
node 108 1 1 1
node 109 1 1 1
node 110 1 1 1
node 111 1 1 3
node 112 1 0 0
node 134 1 0 2
node 135 1 0 2
node 136 1 0 2
gene 1 2 112 0.539416 0 15097 0.539416 1
gene 1 3 112 0.338584 0 15098 0.338584 1
gene 1 8 112 0.171766 0 15103 0.171766 1
gene 1 9 112 -0.968926 0 15104 -0.968926 1
gene 1 11 112 -0.884281 0 15106 -0.884281 1
gene 1 12 112 0.437616 0 15107 0.437616 1
gene 1 20 112 0.853142 0 15115 0.853142 1
gene 1 24 112 -0.583188 0 15119 -0.583188 1
gene 1 26 112 0.266634 0 15121 0.266634 1
gene 1 31 112 0.787045 0 15126 0.787045 1
gene 1 34 112 0.00729708 0 15129 0.00729708 1
gene 1 35 112 0.0511234 0 15130 0.0511234 1
gene 1 40 112 0.958091 0 15135 0.958091 1
gene 1 48 112 0.249165 0 15143 0.249165 1
gene 1 50 112 0.982948 0 15145 0.982948 1
gene 1 52 112 -0.0859548 0 15147 -0.0859548 1
gene 1 55 112 -0.157741 0 15150 -0.157741 1
gene 1 58 112 -0.218476 0 15153 -0.218476 1
gene 1 59 112 0.88334 0 15154 0.88334 1
gene 1 63 112 -0.67612 0 15158 -0.67612 1
gene 1 72 112 -0.276267 0 15167 -0.276267 1
gene 1 75 112 0.41236 0 15170 0.41236 1
gene 1 76 112 0.583599 0 15171 0.583599 1
gene 1 84 112 -0.804976 0 15179 -0.804976 1
gene 1 87 112 -0.895511 0 15182 -0.895511 1
gene 1 88 112 -0.634257 0 15183 -0.634257 1
gene 1 90 112 0.0993698 0 15185 0.0993698 1
gene 1 97 112 0.0553206 0 15192 0.0553206 1
gene 1 98 112 0.685593 0 15193 0.685593 1
gene 1 99 112 -0.849742 0 15194 -0.849742 1
gene 1 109 112 0.638902 0 15204 0.638902 1
gene 1 110 112 -0.582304 0 15205 -0.582304 1
gene 1 136 112 0.353866 1 15231 0.353866 1
gene 1 3 134 0.587025 0 18090 0.587025 1
gene 1 5 134 0.29881 0 18092 0.29881 1
gene 1 8 134 -0.255696 0 18095 -0.255696 1
gene 1 11 134 0.297867 0 18098 0.297867 1
gene 1 14 134 -0.372342 0 18101 -0.372342 1
gene 1 15 134 -0.243963 0 18102 -0.243963 1
gene 1 21 134 0.543109 0 18108 0.543109 1
gene 1 22 134 0.708115 0 18109 0.708115 1
gene 1 24 134 -0.739891 0 18111 -0.739891 1
gene 1 27 134 0.127412 0 18114 0.127412 1
gene 1 28 134 -0.68779 0 18115 -0.68779 1
gene 1 37 134 -0.366609 0 18124 -0.366609 1
gene 1 38 134 0.471692 0 18125 0.471692 1
gene 1 42 134 0.504367 0 18129 0.504367 1
gene 1 45 134 0.099475 0 18132 0.099475 1
gene 1 49 134 -0.262508 0 18136 -0.262508 1
gene 1 52 134 -0.803654 0 18139 -0.803654 1
gene 1 59 134 0.60615 0 18146 0.60615 1
gene 1 60 134 -0.177625 0 18147 -0.177625 1
gene 1 61 134 -0.0650311 0 18148 -0.0650311 1
gene 1 66 134 -0.0500908 0 18153 -0.0500908 1
gene 1 81 134 -0.298674 0 18168 -0.298674 1
gene 1 83 134 -0.926992 0 18170 -0.926992 1
gene 1 86 134 -0.558792 0 18173 -0.558792 1
gene 1 88 134 0.57986 0 18175 0.57986 1
gene 1 89 134 -0.509594 0 18176 -0.509594 1
gene 1 98 134 0.928982 0 18185 0.928982 1
gene 1 100 134 0.617548 0 18187 0.617548 1
gene 1 101 134 0.381669 0 18188 0.381669 1
gene 1 104 134 0.162317 0 18191 0.162317 1
gene 1 105 134 0.00985122 0 18192 0.00985122 1
gene 1 109 134 0.301819 0 18196 0.301819 1
gene 1 111 134 0.0400475 0 18198 0.0400475 1
gene 1 8 135 -0.355705 0 18231 -0.355705 1
gene 1 22 135 -0.0665394 0 18245 -0.0665394 1
gene 1 25 135 -0.939679 0 18248 -0.939679 1
gene 1 27 135 0.129112 0 18250 0.129112 1
gene 1 28 135 0.40481 0 18251 0.40481 1
gene 1 34 135 -0.966354 0 18257 -0.966354 1
gene 1 40 135 0.625729 0 18263 0.625729 1
gene 1 45 135 -0.475898 0 18268 -0.475898 1
gene 1 51 135 0.435343 0 18274 0.435343 1
gene 1 55 135 0.415944 0 18278 0.415944 1
gene 1 57 135 0.518251 0 18280 0.518251 1
gene 1 63 135 -0.909503 0 18286 -0.909503 1
gene 1 66 135 -0.54268 0 18289 -0.54268 1
gene 1 71 135 0.548878 0 18294 0.548878 1
gene 1 73 135 0.44559 0 18296 0.44559 1
gene 1 74 135 -0.729958 0 18297 -0.729958 1
gene 1 75 135 -0.358156 0 18298 -0.358156 1
gene 1 77 135 0.192722 0 18300 0.192722 1
gene 1 83 135 0.934185 0 18306 0.934185 1
gene 1 84 135 0.676279 0 18307 0.676279 1
gene 1 85 135 -0.936497 0 18308 -0.936497 1
gene 1 88 135 -0.92911 0 18311 -0.92911 1
gene 1 90 135 -0.313402 0 18313 -0.313402 1
gene 1 96 135 0.330952 0 18319 0.330952 1
gene 1 97 135 -0.58472 0 18320 -0.58472 1
gene 1 99 135 -0.806877 0 18322 -0.806877 1
gene 1 103 135 -0.412469 0 18326 -0.412469 1
gene 1 108 135 0.0315785 0 18331 0.0315785 1
gene 1 109 135 0.880554 0 18332 0.880554 1
gene 1 112 135 0.599592 0 18335 0.599592 1
gene 1 136 135 -0.54274 1 18359 -0.54274 1
gene 1 1 136 -0.9801 0 18360 -0.9801 1
gene 1 2 136 0.0716355 0 18361 0.0716355 1
gene 1 8 136 -0.512684 0 18367 -0.512684 1
gene 1 9 136 -0.297065 0 18368 -0.297065 1
gene 1 14 136 -0.473032 0 18373 -0.473032 1
gene 1 15 136 0.0268308 0 18374 0.0268308 1
gene 1 16 136 -0.914968 0 18375 -0.914968 1
gene 1 19 136 -0.601845 0 18378 -0.601845 1
gene 1 20 136 0.234168 0 18379 0.234168 1
gene 1 25 136 -0.195345 0 18384 -0.195345 1
gene 1 29 136 -0.612454 0 18388 -0.612454 1
gene 1 32 136 -0.611095 0 18391 -0.611095 1
gene 1 36 136 -0.480027 0 18395 -0.480027 1
gene 1 43 136 0.649704 0 18402 0.649704 1
gene 1 44 136 0.929652 0 18403 0.929652 1
gene 1 47 136 0.119398 0 18406 0.119398 1
gene 1 49 136 0.375845 0 18408 0.375845 1
gene 1 50 136 0.26068 0 18409 0.26068 1
gene 1 51 136 0.827565 0 18410 0.827565 1
gene 1 55 136 0.0935704 0 18414 0.0935704 1
gene 1 58 136 -0.225464 0 18417 -0.225464 1
gene 1 59 136 -0.593131 0 18418 -0.593131 1
gene 1 60 136 0.73156 0 18419 0.73156 1
gene 1 66 136 0.51924 0 18425 0.51924 1
gene 1 67 136 -0.321316 0 18426 -0.321316 1
gene 1 68 136 0.860127 0 18427 0.860127 1
gene 1 69 136 0.748639 0 18428 0.748639 1
gene 1 70 136 0.521806 0 18429 0.521806 1
gene 1 71 136 0.528712 0 18430 0.528712 1
gene 1 75 136 0.506465 0 18434 0.506465 1
gene 1 80 136 0.39295 0 18439 0.39295 1
gene 1 86 136 0.518765 0 18445 0.518765 1
gene 1 89 136 -0.957205 0 18448 -0.957205 1
gene 1 90 136 -0.848393 0 18449 -0.848393 1
gene 1 92 136 0.438106 0 18451 0.438106 1
gene 1 93 136 0.95232 0 18452 0.95232 1
gene 1 96 136 -0.412678 0 18455 -0.412678 1
gene 1 98 136 0.887493 0 18457 0.887493 1
gene 1 108 136 0.427963 0 18467 0.427963 1
genomeend 0
