genomestart 1273611072
trait 1 0 0 0 0 0 0 0 0 
node 1 1 1 1
node 2 1 1 1
node 3 1 1 1
node 4 1 1 1
node 5 1 1 1
node 6 1 1 1
node 7 1 1 1
node 8 1 1 1
node 9 1 1 1
node 10 1 1 1
node 11 1 1 1
node 12 1 1 1
node 13 1 1 1
node 14 1 1 1
node 15 1 1 1
node 16 1 1 1
node 17 1 1 1
node 18 1 1 1
node 19 1 1 1
node 20 1 1 1
node 21 1 1 1
node 22 1 1 1
node 23 1 1 1
node 24 1 1 1
node 25 1 1 1
node 26 1 1 1
node 27 1 1 1
node 28 1 1 1
node 29 1 1 1
node 30 1 1 1
node 31 1 1 1
node 32 1 1 1
node 33 1 1 1
node 34 1 1 1
node 35 1 1 1
node 36 1 1 1
node 37 1 1 1
node 38 1 1 1
node 39 1 1 1
node 40 1 1 1
node 41 1 1 1
node 42 1 1 1
node 43 1 1 1
node 44 1 1 1
node 45 1 1 1
node 46 1 1 1
node 47 1 1 1
node 48 1 1 1
node 49 1 1 1
node 50 1 1 1
node 51 1 1 1
node 52 1 1 1
node 53 1 1 1
node 54 1 1 1
node 55 1 1 1
node 56 1 1 1
node 57 1 1 1
node 58 1 1 1
node 59 1 1 1
node 60 1 1 1
node 61 1 1 1
node 62 1 1 1
node 63 1 1 1
node 64 1 1 1
node 65 1 1 1
node 66 1 1 1
node 67 1 1 1
node 68 1 1 1
node 69 1 1 1
node 70 1 1 1
node 71 1 1 1
node 72 1 1 1
node 73 1 1 1
node 74 1 1 1
node 75 1 1 1
node 76 1 1 1
node 77 1 1 1
node 78 1 1 1
node 79 1 1 1
node 80 1 1 1
node 81 1 1 1
node 82 1 1 1
node 83 1 1 1
node 84 1 1 1
node 85 1 1 1
node 86 1 1 1
node 87 1 1 1
node 88 1 1 1
node 89 1 1 1
node 90 1 1 1
node 91 1 1 1
node 92 1 1 1
node 93 1 1 1
node 94 1 1 1
node 95 1 1 1
node 96 1 1 1
node 97 1 1 1
node 98 1 1 1
node 99 1 1 1
node 100 1 1 1
node 101 1 1 1
node 102 1 1 1
node 103 1 1 1
node 104 1 1 1
node 105 1 1 1
node 106 1 1 1
node 107 1 1 1
node 108 1 1 1
node 109 1 1 1
node 110 1 1 1
node 111 1 1 3
node 112 1 0 0
node 140 1 0 2
node 141 1 0 2
node 142 1 0 2
node 143 1 0 2
node 144 1 0 2
node 145 1 0 2
gene 1 1 112 1.45598 0 16095 1.45598 1
gene 1 2 112 -0.860109 0 16096 -0.860109 1
gene 1 4 112 1.84073 0 16098 1.84073 1
gene 1 10 112 -1.26826 0 16104 -1.26826 1
gene 1 11 112 2.63799 0 16105 2.63799 1
gene 1 21 112 -2.25844 0 16115 -2.25844 1
gene 1 25 112 1.20738 0 16119 1.20738 1
gene 1 26 112 -0.618662 0 16120 -0.618662 1
gene 1 31 112 0.174478 0 16125 0.174478 1
gene 1 32 112 0.0398419 0 16126 0.0398419 1
gene 1 35 112 0.377153 0 16129 0.377153 1
gene 1 37 112 0.526842 0 16131 0.526842 1
gene 1 41 112 0.370992 0 16135 0.370992 1
gene 1 46 112 -5.45903 0 16140 -5.45903 1
gene 1 48 112 5.15049 0 16142 5.15049 1
gene 1 57 112 0.309259 0 16151 0.309259 1
gene 1 59 112 -0.83745 0 16153 -0.83745 1
gene 1 60 112 0.382536 0 16154 0.382536 1
gene 1 64 112 -0.999707 0 16158 -0.999707 1
gene 1 67 112 -0.00242637 0 16161 -0.00242637 1
gene 1 72 112 0.975225 0 16166 0.975225 1
gene 1 74 112 -0.0501732 0 16168 -0.0501732 1
gene 1 75 112 -3.42768 0 16169 -3.42768 1
gene 1 76 112 -3.40003 0 16170 -3.40003 1
gene 1 78 112 0.00423551 0 16172 0.00423551 1
gene 1 80 112 -2.75366 0 16174 -2.75366 1
gene 1 87 112 1.33371 0 16181 1.33371 1
gene 1 94 112 2.33866 0 16188 2.33866 1
gene 1 95 112 0.506264 0 16189 0.506264 1
gene 1 100 112 0.543589 0 16194 0.543589 1
gene 1 103 112 3.53909 0 16197 3.53909 1
gene 1 104 112 -1.94308 0 16198 -1.94308 1
gene 1 105 112 -4.68534 0 16199 -4.68534 1
gene 1 106 112 -1.50219 0 16200 -1.50219 1
gene 1 107 112 1.21643 0 16201 1.21643 1
gene 1 142 112 0.486997 1 16236 0.486997 1
gene 1 3 140 -4.6638 0 20157 -4.6638 1
gene 1 4 140 0.0988749 0 20158 0.0988749 1
gene 1 8 140 -1.92284 0 20162 -1.92284 1
gene 1 9 140 -1.31372 0 20163 -1.31372 1
gene 1 11 140 1.48297 0 20165 1.48297 1
gene 1 12 140 -1.23471 0 20166 -1.23471 1
gene 1 15 140 -0.821925 0 20169 -0.821925 1
gene 1 17 140 0.71666 0 20171 0.71666 1
gene 1 22 140 -1.17159 0 20176 -1.17159 1
gene 1 31 140 -2.78763 0 20185 -2.78763 1
gene 1 41 140 0.463166 0 20195 0.463166 1
gene 1 44 140 -1.26146 0 20198 -1.26146 1
gene 1 57 140 1.72899 0 20211 1.72899 1
gene 1 60 140 -0.0862765 0 20214 -0.0862765 1
gene 1 61 140 3.47035 0 20215 3.47035 1
gene 1 62 140 -1.79933 0 20216 -1.79933 1
gene 1 63 140 -1.25878 0 20217 -1.25878 1
gene 1 64 140 0.218881 0 20218 0.218881 1
gene 1 69 140 5.0709 0 20223 5.0709 1
gene 1 70 140 1.04423 0 20224 1.04423 1
gene 1 74 140 2.46625 0 20228 2.46625 1
gene 1 75 140 -1.79066 0 20229 -1.79066 1
gene 1 77 140 -4.90542 0 20231 -4.90542 1
gene 1 78 140 -2.64051 0 20232 -2.64051 1
gene 1 80 140 -1.51198 0 20234 -1.51198 1
gene 1 84 140 3.05124 0 20238 3.05124 1
gene 1 85 140 0.652775 0 20239 0.652775 1
gene 1 87 140 -1.28496 0 20241 -1.28496 1
gene 1 89 140 1.91829 0 20243 1.91829 1
gene 1 93 140 -3.3565 0 20247 -3.3565 1
gene 1 101 140 1.35305 0 20255 1.35305 1
gene 1 105 140 0.660974 0 20259 0.660974 1
gene 1 106 140 1.70342 0 20260 1.70342 1
gene 1 107 140 -4.68477 0 20261 -4.68477 1
gene 1 108 140 -5.01117 0 20262 -5.01117 1
gene 1 109 140 0.844892 0 20263 0.844892 1
gene 1 111 140 0.304237 0 20265 0.304237 1
gene 1 140 140 -0.729788 1 20294 -0.729788 1
gene 1 141 140 2.75475 1 20295 2.75475 1
gene 1 142 140 -1.18685 1 20296 -1.18685 1
gene 1 143 140 -1.58078 1 20297 -1.58078 1
gene 1 144 140 -1.35673 1 20298 -1.35673 1
gene 1 1 141 1.1306 0 20300 1.1306 1
gene 1 3 141 1.86891 0 20302 1.86891 1
gene 1 4 141 -1.26156 0 20303 -1.26156 1
gene 1 8 141 0.501555 0 20307 0.501555 1
gene 1 10 141 3.35995 0 20309 3.35995 1
gene 1 16 141 1.04851 0 20315 1.04851 1
gene 1 17 141 1.03385 0 20316 1.03385 1
gene 1 22 141 -1.08937 0 20321 -1.08937 1
gene 1 25 141 -4.9051 0 20324 -4.9051 1
gene 1 29 141 -0.780106 0 20328 -0.780106 1
gene 1 30 141 0.0463353 0 20329 0.0463353 1
gene 1 33 141 1.57361 0 20332 1.57361 1
gene 1 51 141 -1.08636 0 20350 -1.08636 1
gene 1 52 141 -1.33665 0 20351 -1.33665 1
gene 1 60 141 -0.142499 0 20359 -0.142499 1
gene 1 64 141 -1.79873 0 20363 -1.79873 1
gene 1 66 141 -1.11308 0 20365 -1.11308 1
gene 1 67 141 -1.53922 0 20366 -1.53922 1
gene 1 69 141 -3.25427 0 20368 -3.25427 1
gene 1 74 141 -1.39938 0 20373 -1.39938 1
gene 1 76 141 -2.13288 0 20375 -2.13288 1
gene 1 77 141 -2.5039 0 20376 -2.5039 1
gene 1 80 141 -3.43675 0 20379 -3.43675 1
gene 1 83 141 3.28402 0 20382 3.28402 1
gene 1 88 141 -1.35792 0 20387 -1.35792 1
gene 1 96 141 4.99238 0 20395 4.99238 1
gene 1 97 141 -1.08564 0 20396 -1.08564 1
gene 1 98 141 5.24812 0 20397 5.24812 1
gene 1 102 141 4.88162 0 20401 4.88162 1
gene 1 107 141 -2.84708 0 20406 -2.84708 1
gene 1 111 141 2.40101 0 20410 2.40101 1
gene 1 2 142 -2.31105 0 20446 -2.31105 1
gene 1 5 142 3.08426 0 20449 3.08426 1
gene 1 7 142 -5.03459 0 20451 -5.03459 1
gene 1 9 142 2.23622 0 20453 2.23622 1
gene 1 10 142 0.300952 0 20454 0.300952 1
gene 1 12 142 -1.41814 0 20456 -1.41814 1
gene 1 14 142 1.27893 0 20458 1.27893 1
gene 1 15 142 1.45133 0 20459 1.45133 1
gene 1 18 142 -2.01134 0 20462 -2.01134 1
gene 1 19 142 -2.28263 0 20463 -2.28263 1
gene 1 31 142 1.72966 0 20475 1.72966 1
gene 1 32 142 -0.156592 0 20476 -0.156592 1
gene 1 36 142 2.20957 0 20480 2.20957 1
gene 1 37 142 -0.428359 0 20481 -0.428359 1
gene 1 39 142 -1.68174 0 20483 -1.68174 1
gene 1 43 142 1.02693 0 20487 1.02693 1
gene 1 44 142 0.80533 0 20488 0.80533 1
gene 1 46 142 1.14077 0 20490 1.14077 1
gene 1 59 142 1.89757 0 20503 1.89757 1
gene 1 60 142 1.4838 0 20504 1.4838 1
gene 1 65 142 -0.234722 0 20509 -0.234722 1
gene 1 66 142 1.73973 0 20510 1.73973 1
gene 1 72 142 -0.0916699 0 20516 -0.0916699 1
gene 1 73 142 4.37019 0 20517 4.37019 1
gene 1 82 142 -4.04022 0 20526 -4.04022 1
gene 1 83 142 -2.75526 0 20527 -2.75526 1
gene 1 86 142 6.9509 0 20530 6.9509 1
gene 1 87 142 -3.14812 0 20531 -3.14812 1
gene 1 97 142 3.47547 0 20541 3.47547 1
gene 1 99 142 0.506148 0 20543 0.506148 1
gene 1 102 142 -0.878169 0 20546 -0.878169 1
gene 1 110 142 -3.35621 0 20554 -3.35621 1
gene 1 111 142 -1.71709 0 20555 -1.71709 1
gene 1 142 142 -4.47659 1 20586 -4.47659 1
gene 1 4 143 -2.91983 0 20593 -2.91983 1
gene 1 5 143 -1.27411 0 20594 -1.27411 1
gene 1 6 143 -2.33848 0 20595 -2.33848 1
gene 1 9 143 -0.574604 0 20598 -0.574604 1
gene 1 11 143 1.71296 0 20600 1.71296 1
gene 1 12 143 -0.303655 0 20601 -0.303655 1
gene 1 13 143 -2.16299 0 20602 -2.16299 1
gene 1 15 143 1.26602 0 20604 1.26602 1
gene 1 20 143 -1.75189 0 20609 -1.75189 1
gene 1 22 143 1.84863 0 20611 1.84863 1
gene 1 23 143 0.747088 0 20612 0.747088 1
gene 1 24 143 2.19611 0 20613 2.19611 1
gene 1 25 143 0.295139 0 20614 0.295139 1
gene 1 35 143 2.29671 0 20624 2.29671 1
gene 1 53 143 -0.190507 0 20642 -0.190507 1
gene 1 65 143 2.61478 0 20654 2.61478 1
gene 1 66 143 1.80982 0 20655 1.80982 1
gene 1 69 143 -3.77486 0 20658 -3.77486 1
gene 1 70 143 -2.89125 0 20659 -2.89125 1
gene 1 81 143 0.356058 0 20670 0.356058 1
gene 1 82 143 -0.77039 0 20671 -0.77039 1
gene 1 91 143 0.257399 0 20680 0.257399 1
gene 1 94 143 -2.16782 0 20683 -2.16782 1
gene 1 95 143 -2.03722 0 20684 -2.03722 1
gene 1 100 143 -0.551722 0 20689 -0.551722 1
gene 1 105 143 4.79198 0 20694 4.79198 1
gene 1 106 143 -1.00613 0 20695 -1.00613 1
gene 1 107 143 -3.91871 0 20696 -3.91871 1
gene 1 111 143 5.09374 0 20700 5.09374 1
gene 1 112 143 -0.291555 0 20701 -0.291555 1
gene 1 5 144 -0.561105 0 20739 -0.561105 1
gene 1 6 144 4.01951 0 20740 4.01951 1
gene 1 8 144 2.18921 0 20742 2.18921 1
gene 1 20 144 1.97586 0 20754 1.97586 1
gene 1 21 144 1.48012 0 20755 1.48012 1
gene 1 23 144 -2.00654 0 20757 -2.00654 1
gene 1 25 144 0.285397 0 20759 0.285397 1
gene 1 28 144 1.51928 0 20762 1.51928 1
gene 1 29 144 1.91041 0 20763 1.91041 1
gene 1 31 144 0.579555 0 20765 0.579555 1
gene 1 32 144 -0.673224 0 20766 -0.673224 1
gene 1 35 144 -0.193489 0 20769 -0.193489 1
gene 1 42 144 -0.800727 0 20776 -0.800727 1
gene 1 48 144 -5.22092 0 20782 -5.22092 1
gene 1 49 144 2.33172 0 20783 2.33172 1
gene 1 53 144 -0.00943998 0 20787 -0.00943998 1
gene 1 57 144 -1.67379 0 20791 -1.67379 1
gene 1 58 144 -1.76982 0 20792 -1.76982 1
gene 1 60 144 -2.61776 0 20794 -2.61776 1
gene 1 65 144 1.41935 0 20799 1.41935 1
gene 1 67 144 -1.30258 0 20801 -1.30258 1
gene 1 68 144 -5.13756 0 20802 -5.13756 1
gene 1 70 144 -2.63535 0 20804 -2.63535 1
gene 1 76 144 0.758506 0 20810 0.758506 1
gene 1 77 144 2.05548 0 20811 2.05548 1
gene 1 79 144 2.43931 0 20813 2.43931 1
gene 1 82 144 2.34722 0 20816 2.34722 1
gene 1 88 144 -2.38045 0 20822 -2.38045 1
gene 1 90 144 0.183972 0 20824 0.183972 1
gene 1 91 144 -1.77792 0 20825 -1.77792 1
gene 1 96 144 -2.35618 0 20830 -2.35618 1
gene 1 104 144 -2.01788 0 20838 -2.01788 1
gene 1 109 144 2.29999 0 20843 2.29999 1
gene 1 112 144 -0.652759 0 20846 -0.652759 1
gene 1 140 144 -1.1462 0 20874 -1.1462 1
gene 1 144 144 0.575681 1 20878 0.575681 1
gene 1 1 145 -0.156596 0 20880 -0.156596 1
gene 1 4 145 1.49494 0 20883 1.49494 1
gene 1 8 145 0.864737 0 20887 0.864737 1
gene 1 9 145 -1.3921 0 20888 -1.3921 1
gene 1 13 145 0.980989 0 20892 0.980989 1
gene 1 15 145 0.104773 0 20894 0.104773 1
gene 1 16 145 2.79583 0 20895 2.79583 1
gene 1 20 145 1.22322 0 20899 1.22322 1
gene 1 25 145 -2.19682 0 20904 -2.19682 1
gene 1 32 145 0.57793 0 20911 0.57793 1
gene 1 37 145 -0.547513 0 20916 -0.547513 1
gene 1 40 145 -0.442118 0 20919 -0.442118 1
gene 1 43 145 -1.55244 0 20922 -1.55244 1
gene 1 48 145 0.886676 0 20927 0.886676 1
gene 1 51 145 -0.700707 0 20930 -0.700707 1
gene 1 54 145 -1.90272 0 20933 -1.90272 1
gene 1 55 145 0.34588 0 20934 0.34588 1
gene 1 56 145 0.892917 0 20935 0.892917 1
gene 1 57 145 -0.99738 0 20936 -0.99738 1
gene 1 62 145 -2.66513 0 20941 -2.66513 1
gene 1 63 145 -1.56718 0 20942 -1.56718 1
gene 1 66 145 1.06673 0 20945 1.06673 1
gene 1 68 145 -2.70427 0 20947 -2.70427 1
gene 1 69 145 -1.15773 0 20948 -1.15773 1
gene 1 71 145 -1.75484 0 20950 -1.75484 1
gene 1 74 145 -0.43832 0 20953 -0.43832 1
gene 1 77 145 3.88512 0 20956 3.88512 1
gene 1 80 145 0.466391 0 20959 0.466391 1
gene 1 81 145 -1.40562 0 20960 -1.40562 1
gene 1 84 145 0.933397 0 20963 0.933397 1
gene 1 85 145 -1.70203 0 20964 -1.70203 1
gene 1 87 145 2.13378 0 20966 2.13378 1
gene 1 106 145 -0.936173 0 20985 -0.936173 1
gene 1 109 145 2.44685 0 20988 2.44685 1
gene 1 110 145 -2.86399 0 20989 -2.86399 1
gene 1 143 145 1.51881 0 21022 1.51881 1
gene 1 145 145 0.00317957 1 21024 0.00317957 1
genomeend 1273611072
