genomestart 0
trait 1 0 0 0 0 0 0 0 0 
node 1 1 1 1
node 2 1 1 1
node 3 1 1 1
node 4 1 1 1
node 5 1 1 1
node 6 1 1 1
node 7 1 1 1
node 8 1 1 1
node 9 1 1 1
node 10 1 1 1
node 11 1 1 1
node 12 1 1 1
node 13 1 1 1
node 14 1 1 1
node 15 1 1 1
node 16 1 1 1
node 17 1 1 1
node 18 1 1 1
node 19 1 1 1
node 20 1 1 1
node 21 1 1 1
node 22 1 1 1
node 23 1 1 1
node 24 1 1 1
node 25 1 1 1
node 26 1 1 1
node 27 1 1 1
node 28 1 1 1
node 29 1 1 1
node 30 1 1 1
node 31 1 1 1
node 32 1 1 1
node 33 1 1 1
node 34 1 1 1
node 35 1 1 1
node 36 1 1 1
node 37 1 1 1
node 38 1 1 1
node 39 1 1 1
node 40 1 1 1
node 41 1 1 1
node 42 1 1 1
node 43 1 1 1
node 44 1 1 1
node 45 1 1 1
node 46 1 1 1
node 47 1 1 1
node 48 1 1 1
node 49 1 1 1
node 50 1 1 1
node 51 1 1 1
node 52 1 1 1
node 53 1 1 1
node 54 1 1 1
node 55 1 1 1
node 56 1 1 1
node 57 1 1 1
node 58 1 1 1
node 59 1 1 1
node 60 1 1 1
node 61 1 1 1
node 62 1 1 1
node 63 1 1 1
node 64 1 1 1
node 65 1 1 1
node 66 1 1 1
node 67 1 1 1
node 68 1 1 1
node 69 1 1 1
node 70 1 1 1
node 71 1 1 1
node 72 1 1 1
node 73 1 1 1
node 74 1 1 1
node 75 1 1 1
node 76 1 1 1
node 77 1 1 1
node 78 1 1 1
node 79 1 1 1
node 80 1 1 1
node 81 1 1 1
node 82 1 1 1
node 83 1 1 1
node 84 1 1 1
node 85 1 1 1
node 86 1 1 1
node 87 1 1 1
node 88 1 1 1
node 89 1 1 1
node 90 1 1 1
node 91 1 1 1
node 92 1 1 1
node 93 1 1 1
node 94 1 1 1
node 95 1 1 1
node 96 1 1 1
node 97 1 1 1
node 98 1 1 1
node 99 1 1 1
node 100 1 1 1
node 101 1 1 1
node 102 1 1 1
node 103 1 1 1
node 104 1 1 1
node 105 1 1 1
node 106 1 1 1
node 107 1 1 1
node 108 1 1 1
node 109 1 1 1
node 110 1 1 1
node 111 1 1 3
node 112 1 0 0
node 150 1 0 2
node 151 1 0 2
node 152 1 0 2
node 153 1 0 2
node 154 1 0 2
node 155 1 0 2
node 156 1 0 2
node 157 1 0 2
node 158 1 0 2
node 159 1 0 2
node 160 1 0 2
gene 1 3 112 -0.664604 0 17762 -0.664604 1
gene 1 6 112 0.0565757 0 17765 0.0565757 1
gene 1 11 112 -0.688628 0 17770 -0.688628 1
gene 1 12 112 0.851783 0 17771 0.851783 1
gene 1 15 112 0.985449 0 17774 0.985449 1
gene 1 16 112 0.778718 0 17775 0.778718 1
gene 1 18 112 -0.581604 0 17777 -0.581604 1
gene 1 19 112 -0.205901 0 17778 -0.205901 1
gene 1 20 112 0.324058 0 17779 0.324058 1
gene 1 21 112 -0.924362 0 17780 -0.924362 1
gene 1 23 112 -0.913879 0 17782 -0.913879 1
gene 1 26 112 -0.959318 0 17785 -0.959318 1
gene 1 27 112 -0.183954 0 17786 -0.183954 1
gene 1 33 112 -0.998027 0 17792 -0.998027 1
gene 1 35 112 0.779922 0 17794 0.779922 1
gene 1 37 112 -0.167217 0 17796 -0.167217 1
gene 1 41 112 0.16245 0 17800 0.16245 1
gene 1 44 112 0.524028 0 17803 0.524028 1
gene 1 48 112 0.33323 0 17807 0.33323 1
gene 1 49 112 0.447886 0 17808 0.447886 1
gene 1 51 112 0.106826 0 17810 0.106826 1
gene 1 54 112 -0.0973909 0 17813 -0.0973909 1
gene 1 55 112 0.611134 0 17814 0.611134 1
gene 1 56 112 0.345867 0 17815 0.345867 1
gene 1 58 112 0.443705 0 17817 0.443705 1
gene 1 60 112 0.150468 0 17819 0.150468 1
gene 1 61 112 -0.957809 0 17820 -0.957809 1
gene 1 62 112 0.0302297 0 17821 0.0302297 1
gene 1 64 112 0.457532 0 17823 0.457532 1
gene 1 70 112 0.174115 0 17829 0.174115 1
gene 1 74 112 0.454099 0 17833 0.454099 1
gene 1 79 112 -0.918924 0 17838 -0.918924 1
gene 1 80 112 -0.11922 0 17839 -0.11922 1
gene 1 83 112 0.954585 0 17842 0.954585 1
gene 1 85 112 -0.306252 0 17844 -0.306252 1
gene 1 88 112 0.163029 0 17847 0.163029 1
gene 1 96 112 -0.0846294 0 17855 -0.0846294 1
gene 1 97 112 -0.862544 0 17856 -0.862544 1
gene 1 101 112 -0.119153 0 17860 -0.119153 1
gene 1 102 112 -0.827082 0 17861 -0.827082 1
gene 1 105 112 -0.994786 0 17864 -0.994786 1
gene 1 109 112 -0.778069 0 17868 -0.778069 1
gene 1 110 112 -0.192982 0 17869 -0.192982 1
gene 1 152 112 0.0194159 1 17911 0.0194159 1
gene 1 153 112 -0.933202 1 17912 -0.933202 1
gene 1 156 112 -0.183608 1 17915 -0.183608 1
gene 1 157 112 -0.833772 1 17916 -0.833772 1
gene 1 158 112 -0.0715004 1 17917 -0.0715004 1
gene 1 159 112 0.0582499 1 17918 0.0582499 1
gene 1 8 150 0.387159 0 23847 0.387159 1
gene 1 10 150 -0.739391 0 23849 -0.739391 1
gene 1 11 150 -0.349502 0 23850 -0.349502 1
gene 1 15 150 0.863089 0 23854 0.863089 1
gene 1 16 150 -0.428216 0 23855 -0.428216 1
gene 1 21 150 -0.170384 0 23860 -0.170384 1
gene 1 22 150 0.259841 0 23861 0.259841 1
gene 1 23 150 -0.752764 0 23862 -0.752764 1
gene 1 30 150 0.088078 0 23869 0.088078 1
gene 1 36 150 0.567702 0 23875 0.567702 1
gene 1 37 150 -0.3262 0 23876 -0.3262 1
gene 1 44 150 0.990892 0 23883 0.990892 1
gene 1 45 150 -0.976448 0 23884 -0.976448 1
gene 1 48 150 -0.227907 0 23887 -0.227907 1
gene 1 51 150 -0.0417697 0 23890 -0.0417697 1
gene 1 56 150 -0.765155 0 23895 -0.765155 1
gene 1 60 150 0.428476 0 23899 0.428476 1
gene 1 62 150 -0.840265 0 23901 -0.840265 1
gene 1 63 150 -0.386094 0 23902 -0.386094 1
gene 1 65 150 -0.339954 0 23904 -0.339954 1
gene 1 68 150 0.422917 0 23907 0.422917 1
gene 1 70 150 0.529605 0 23909 0.529605 1
gene 1 79 150 -0.307635 0 23918 -0.307635 1
gene 1 82 150 0.26712 0 23921 0.26712 1
gene 1 85 150 0.240474 0 23924 0.240474 1
gene 1 87 150 -0.679548 0 23926 -0.679548 1
gene 1 90 150 -0.340546 0 23929 -0.340546 1
gene 1 103 150 0.840111 0 23942 0.840111 1
gene 1 109 150 -0.0986567 0 23948 -0.0986567 1
gene 1 111 150 0.717203 0 23950 0.717203 1
gene 1 152 150 -0.782448 1 23991 -0.782448 1
gene 1 159 150 0.0924077 1 23998 0.0924077 1
gene 1 2 151 0.00543006 0 24001 0.00543006 1
gene 1 9 151 0.639707 0 24008 0.639707 1
gene 1 16 151 0.494484 0 24015 0.494484 1
gene 1 20 151 0.700715 0 24019 0.700715 1
gene 1 21 151 0.39499 0 24020 0.39499 1
gene 1 22 151 0.298571 0 24021 0.298571 1
gene 1 26 151 -0.774312 0 24025 -0.774312 1
gene 1 34 151 -0.649559 0 24033 -0.649559 1
gene 1 37 151 -0.762243 0 24036 -0.762243 1
gene 1 38 151 -0.393181 0 24037 -0.393181 1
gene 1 43 151 0.0130846 0 24042 0.0130846 1
gene 1 50 151 -0.480026 0 24049 -0.480026 1
gene 1 53 151 -0.548988 0 24052 -0.548988 1
gene 1 54 151 -0.537505 0 24053 -0.537505 1
gene 1 56 151 -0.17589 0 24055 -0.17589 1
gene 1 57 151 0.0509679 0 24056 0.0509679 1
gene 1 58 151 -0.883497 0 24057 -0.883497 1
gene 1 68 151 0.73905 0 24067 0.73905 1
gene 1 70 151 0.163613 0 24069 0.163613 1
gene 1 71 151 -0.385258 0 24070 -0.385258 1
gene 1 72 151 0.0869268 0 24071 0.0869268 1
gene 1 74 151 0.152885 0 24073 0.152885 1
gene 1 81 151 -0.213106 0 24080 -0.213106 1
gene 1 86 151 -0.578676 0 24085 -0.578676 1
gene 1 87 151 0.350836 0 24086 0.350836 1
gene 1 88 151 0.527564 0 24087 0.527564 1
gene 1 94 151 -0.174742 0 24093 -0.174742 1
gene 1 97 151 -0.0541516 0 24096 -0.0541516 1
gene 1 98 151 -0.285446 0 24097 -0.285446 1
gene 1 104 151 0.914552 0 24103 0.914552 1
gene 1 106 151 -0.730733 0 24105 -0.730733 1
gene 1 108 151 0.79926 0 24107 0.79926 1
gene 1 111 151 -0.016409 0 24110 -0.016409 1
gene 1 3 152 -0.221133 0 24162 -0.221133 1
gene 1 4 152 0.142544 0 24163 0.142544 1
gene 1 7 152 0.884642 0 24166 0.884642 1
gene 1 8 152 -0.143643 0 24167 -0.143643 1
gene 1 10 152 -0.578386 0 24169 -0.578386 1
gene 1 12 152 0.843722 0 24171 0.843722 1
gene 1 19 152 0.978049 0 24178 0.978049 1
gene 1 20 152 0.0847164 0 24179 0.0847164 1
gene 1 21 152 -0.669887 0 24180 -0.669887 1
gene 1 22 152 -0.514717 0 24181 -0.514717 1
gene 1 23 152 -0.487752 0 24182 -0.487752 1
gene 1 25 152 -0.806765 0 24184 -0.806765 1
gene 1 26 152 0.98697 0 24185 0.98697 1
gene 1 32 152 0.409615 0 24191 0.409615 1
gene 1 36 152 0.520613 0 24195 0.520613 1
gene 1 39 152 0.0325748 0 24198 0.0325748 1
gene 1 43 152 -0.363399 0 24202 -0.363399 1
gene 1 44 152 -0.0462631 0 24203 -0.0462631 1
gene 1 46 152 0.634031 0 24205 0.634031 1
gene 1 51 152 0.4874 0 24210 0.4874 1
gene 1 52 152 0.668769 0 24211 0.668769 1
gene 1 56 152 -0.835135 0 24215 -0.835135 1
gene 1 66 152 0.580566 0 24225 0.580566 1
gene 1 69 152 -0.747854 0 24228 -0.747854 1
gene 1 71 152 -0.0231017 0 24230 -0.0231017 1
gene 1 76 152 -0.584519 0 24235 -0.584519 1
gene 1 79 152 0.739432 0 24238 0.739432 1
gene 1 80 152 0.0366732 0 24239 0.0366732 1
gene 1 83 152 0.991489 0 24242 0.991489 1
gene 1 86 152 -0.0626213 0 24245 -0.0626213 1
gene 1 87 152 -0.311178 0 24246 -0.311178 1
gene 1 89 152 0.153936 0 24248 0.153936 1
gene 1 90 152 -0.016031 0 24249 -0.016031 1
gene 1 97 152 -0.452912 0 24256 -0.452912 1
gene 1 108 152 -0.0861754 0 24267 -0.0861754 1
gene 1 111 152 -0.769841 0 24270 -0.769841 1
gene 1 157 152 -0.958213 1 24316 -0.958213 1
gene 1 2 153 -0.0332456 0 24321 -0.0332456 1
gene 1 3 153 0.097663 0 24322 0.097663 1
gene 1 5 153 -0.340215 0 24324 -0.340215 1
gene 1 6 153 0.793585 0 24325 0.793585 1
gene 1 9 153 0.40478 0 24328 0.40478 1
gene 1 10 153 -0.191733 0 24329 -0.191733 1
gene 1 12 153 -0.29152 0 24331 -0.29152 1
gene 1 27 153 -0.1715 0 24346 -0.1715 1
gene 1 29 153 0.337596 0 24348 0.337596 1
gene 1 34 153 0.0811507 0 24353 0.0811507 1
gene 1 42 153 0.583199 0 24361 0.583199 1
gene 1 44 153 0.482704 0 24363 0.482704 1
gene 1 48 153 -0.954886 0 24367 -0.954886 1
gene 1 51 153 -0.618204 0 24370 -0.618204 1
gene 1 56 153 0.239301 0 24375 0.239301 1
gene 1 57 153 0.424946 0 24376 0.424946 1
gene 1 65 153 -0.984036 0 24384 -0.984036 1
gene 1 69 153 0.968007 0 24388 0.968007 1
gene 1 72 153 0.961553 0 24391 0.961553 1
gene 1 73 153 0.975054 0 24392 0.975054 1
gene 1 76 153 -0.210527 0 24395 -0.210527 1
gene 1 78 153 0.64893 0 24397 0.64893 1
gene 1 79 153 -0.41454 0 24398 -0.41454 1
gene 1 84 153 -0.907158 0 24403 -0.907158 1
gene 1 87 153 0.0849467 0 24406 0.0849467 1
gene 1 89 153 -0.103039 0 24408 -0.103039 1
gene 1 92 153 0.885607 0 24411 0.885607 1
gene 1 99 153 -0.466127 0 24418 -0.466127 1
gene 1 100 153 0.960228 0 24419 0.960228 1
gene 1 112 153 0.24284 0 24431 0.24284 1
gene 1 154 153 0.0393244 1 24473 0.0393244 1
gene 1 160 153 0.213755 1 24479 0.213755 1
gene 1 1 154 -0.624333 0 24480 -0.624333 1
gene 1 2 154 -0.666011 0 24481 -0.666011 1
gene 1 5 154 -0.12105 0 24484 -0.12105 1
gene 1 10 154 -0.484468 0 24489 -0.484468 1
gene 1 13 154 -0.57959 0 24492 -0.57959 1
gene 1 15 154 -0.103563 0 24494 -0.103563 1
gene 1 20 154 0.21281 0 24499 0.21281 1
gene 1 21 154 -0.352363 0 24500 -0.352363 1
gene 1 23 154 -0.171045 0 24502 -0.171045 1
gene 1 28 154 -0.221526 0 24507 -0.221526 1
gene 1 29 154 0.131662 0 24508 0.131662 1
gene 1 38 154 -0.115175 0 24517 -0.115175 1
gene 1 40 154 0.12475 0 24519 0.12475 1
gene 1 47 154 0.163508 0 24526 0.163508 1
gene 1 49 154 -0.382029 0 24528 -0.382029 1
gene 1 52 154 0.787571 0 24531 0.787571 1
gene 1 54 154 -0.283776 0 24533 -0.283776 1
gene 1 68 154 -0.306442 0 24547 -0.306442 1
gene 1 72 154 0.140554 0 24551 0.140554 1
gene 1 73 154 -0.45526 0 24552 -0.45526 1
gene 1 78 154 -0.64781 0 24557 -0.64781 1
gene 1 85 154 -0.876615 0 24564 -0.876615 1
gene 1 94 154 -0.135646 0 24573 -0.135646 1
gene 1 98 154 0.401047 0 24577 0.401047 1
gene 1 103 154 -0.260824 0 24582 -0.260824 1
gene 1 107 154 0.870377 0 24586 0.870377 1
gene 1 110 154 -0.557426 0 24589 -0.557426 1
gene 1 112 154 -0.434986 0 24591 -0.434986 1
gene 1 150 154 0.129263 0 24629 0.129263 1
gene 1 152 154 0.031178 0 24631 0.031178 1
gene 1 156 154 0.217701 1 24635 0.217701 1
gene 1 158 154 0.130378 1 24637 0.130378 1
gene 1 160 154 -0.66309 1 24639 -0.66309 1
gene 1 4 155 0.78722 0 24643 0.78722 1
gene 1 5 155 -0.684444 0 24644 -0.684444 1
gene 1 6 155 -0.09285 0 24645 -0.09285 1
gene 1 7 155 -0.323673 0 24646 -0.323673 1
gene 1 10 155 -0.929598 0 24649 -0.929598 1
gene 1 16 155 0.685961 0 24655 0.685961 1
gene 1 18 155 -0.0923124 0 24657 -0.0923124 1
gene 1 19 155 0.526641 0 24658 0.526641 1
gene 1 22 155 -0.922662 0 24661 -0.922662 1
gene 1 25 155 0.239276 0 24664 0.239276 1
gene 1 38 155 0.296062 0 24677 0.296062 1
gene 1 41 155 -0.100316 0 24680 -0.100316 1
gene 1 48 155 -0.329134 0 24687 -0.329134 1
gene 1 51 155 -0.949741 0 24690 -0.949741 1
gene 1 54 155 -0.285778 0 24693 -0.285778 1
gene 1 56 155 -0.225215 0 24695 -0.225215 1
gene 1 57 155 0.968395 0 24696 0.968395 1
gene 1 63 155 0.564342 0 24702 0.564342 1
gene 1 66 155 0.847005 0 24705 0.847005 1
gene 1 72 155 -0.37403 0 24711 -0.37403 1
gene 1 83 155 -0.0901708 0 24722 -0.0901708 1
gene 1 85 155 0.358794 0 24724 0.358794 1
gene 1 86 155 0.601074 0 24725 0.601074 1
gene 1 87 155 0.38697 0 24726 0.38697 1
gene 1 92 155 0.0314664 0 24731 0.0314664 1
gene 1 94 155 -0.770228 0 24733 -0.770228 1
gene 1 96 155 0.00296749 0 24735 0.00296749 1
gene 1 103 155 0.306812 0 24742 0.306812 1
gene 1 107 155 -0.630213 0 24746 -0.630213 1
gene 1 108 155 -0.421813 0 24747 -0.421813 1
gene 1 112 155 0.927674 0 24751 0.927674 1
gene 1 152 155 0.957354 0 24791 0.957354 1
gene 1 153 155 0.39112 0 24792 0.39112 1
gene 1 154 155 0.83215 0 24793 0.83215 1
gene 1 159 155 -0.755215 1 24798 -0.755215 1
gene 1 160 155 0.961476 1 24799 0.961476 1
gene 1 3 156 0.626266 0 24802 0.626266 1
gene 1 6 156 -0.954003 0 24805 -0.954003 1
gene 1 11 156 0.747963 0 24810 0.747963 1
gene 1 14 156 0.274974 0 24813 0.274974 1
gene 1 15 156 0.499083 0 24814 0.499083 1
gene 1 17 156 -0.165154 0 24816 -0.165154 1
gene 1 20 156 0.857856 0 24819 0.857856 1
gene 1 21 156 -0.848848 0 24820 -0.848848 1
gene 1 24 156 0.539441 0 24823 0.539441 1
gene 1 25 156 -0.831785 0 24824 -0.831785 1
gene 1 37 156 -0.821653 0 24836 -0.821653 1
gene 1 49 156 -0.733477 0 24848 -0.733477 1
gene 1 51 156 -0.796309 0 24850 -0.796309 1
gene 1 53 156 0.790136 0 24852 0.790136 1
gene 1 58 156 0.660869 0 24857 0.660869 1
gene 1 62 156 0.673016 0 24861 0.673016 1
gene 1 64 156 -0.0470764 0 24863 -0.0470764 1
gene 1 70 156 -0.912817 0 24869 -0.912817 1
gene 1 72 156 0.499372 0 24871 0.499372 1
gene 1 73 156 -0.0834802 0 24872 -0.0834802 1
gene 1 74 156 0.84356 0 24873 0.84356 1
gene 1 76 156 -0.212486 0 24875 -0.212486 1
gene 1 77 156 -0.378672 0 24876 -0.378672 1
gene 1 87 156 0.889127 0 24886 0.889127 1
gene 1 88 156 0.953323 0 24887 0.953323 1
gene 1 90 156 0.404778 0 24889 0.404778 1
gene 1 103 156 0.94771 0 24902 0.94771 1
gene 1 107 156 0.528309 0 24906 0.528309 1
gene 1 109 156 0.208536 0 24908 0.208536 1
gene 1 110 156 -0.911979 0 24909 -0.911979 1
gene 1 154 156 0.609618 0 24953 0.609618 1
gene 1 156 156 -0.288586 1 24955 -0.288586 1
gene 1 1 157 0.202594 0 24960 0.202594 1
gene 1 2 157 -0.880676 0 24961 -0.880676 1
gene 1 3 157 -0.215607 0 24962 -0.215607 1
gene 1 6 157 0.329377 0 24965 0.329377 1
gene 1 9 157 0.11233 0 24968 0.11233 1
gene 1 10 157 -0.230194 0 24969 -0.230194 1
gene 1 11 157 0.80646 0 24970 0.80646 1
gene 1 19 157 -0.561258 0 24978 -0.561258 1
gene 1 20 157 -0.835429 0 24979 -0.835429 1
gene 1 28 157 -0.585378 0 24987 -0.585378 1
gene 1 31 157 -0.717141 0 24990 -0.717141 1
gene 1 34 157 0.505292 0 24993 0.505292 1
gene 1 41 157 0.606582 0 25000 0.606582 1
gene 1 47 157 -0.783982 0 25006 -0.783982 1
gene 1 50 157 -0.0769266 0 25009 -0.0769266 1
gene 1 52 157 0.496988 0 25011 0.496988 1
gene 1 54 157 0.696766 0 25013 0.696766 1
gene 1 55 157 0.00154924 0 25014 0.00154924 1
gene 1 58 157 0.442255 0 25017 0.442255 1
gene 1 59 157 -0.226932 0 25018 -0.226932 1
gene 1 62 157 0.623519 0 25021 0.623519 1
gene 1 67 157 -0.674109 0 25026 -0.674109 1
gene 1 72 157 0.260841 0 25031 0.260841 1
gene 1 73 157 0.0232521 0 25032 0.0232521 1
gene 1 75 157 -0.0262555 0 25034 -0.0262555 1
gene 1 77 157 0.186816 0 25036 0.186816 1
gene 1 79 157 0.128462 0 25038 0.128462 1
gene 1 83 157 0.52253 0 25042 0.52253 1
gene 1 90 157 -0.20789 0 25049 -0.20789 1
gene 1 91 157 0.0408479 0 25050 0.0408479 1
gene 1 94 157 -0.779423 0 25053 -0.779423 1
gene 1 96 157 0.475809 0 25055 0.475809 1
gene 1 104 157 -0.322687 0 25063 -0.322687 1
gene 1 106 157 -0.501628 0 25065 -0.501628 1
gene 1 107 157 -0.826951 0 25066 -0.826951 1
gene 1 109 157 0.756011 0 25068 0.756011 1
gene 1 151 157 -0.196368 0 25110 -0.196368 1
gene 1 156 157 0.286845 0 25115 0.286845 1
gene 1 157 157 -0.377322 1 25116 -0.377322 1
gene 1 2 158 0.208516 0 25121 0.208516 1
gene 1 3 158 0.673725 0 25122 0.673725 1
gene 1 4 158 -0.362613 0 25123 -0.362613 1
gene 1 22 158 0.869377 0 25141 0.869377 1
gene 1 25 158 0.872186 0 25144 0.872186 1
gene 1 26 158 -0.150061 0 25145 -0.150061 1
gene 1 29 158 -0.88566 0 25148 -0.88566 1
gene 1 31 158 -0.672265 0 25150 -0.672265 1
gene 1 37 158 0.71083 0 25156 0.71083 1
gene 1 40 158 -0.671604 0 25159 -0.671604 1
gene 1 42 158 0.923033 0 25161 0.923033 1
gene 1 51 158 0.280855 0 25170 0.280855 1
gene 1 53 158 0.457668 0 25172 0.457668 1
gene 1 56 158 -0.0630774 0 25175 -0.0630774 1
gene 1 60 158 0.465845 0 25179 0.465845 1
gene 1 62 158 -0.484708 0 25181 -0.484708 1
gene 1 65 158 0.660605 0 25184 0.660605 1
gene 1 72 158 0.689016 0 25191 0.689016 1
gene 1 73 158 -0.443978 0 25192 -0.443978 1
gene 1 75 158 -0.283911 0 25194 -0.283911 1
gene 1 79 158 0.0902822 0 25198 0.0902822 1
gene 1 82 158 -0.85838 0 25201 -0.85838 1
gene 1 84 158 -0.14896 0 25203 -0.14896 1
gene 1 85 158 0.334352 0 25204 0.334352 1
gene 1 86 158 -0.639473 0 25205 -0.639473 1
gene 1 89 158 0.260884 0 25208 0.260884 1
gene 1 90 158 -0.920919 0 25209 -0.920919 1
gene 1 94 158 0.791268 0 25213 0.791268 1
gene 1 98 158 -0.0860587 0 25217 -0.0860587 1
gene 1 100 158 0.535253 0 25219 0.535253 1
gene 1 103 158 0.269294 0 25222 0.269294 1
gene 1 104 158 -0.355501 0 25223 -0.355501 1
gene 1 105 158 -0.422003 0 25224 -0.422003 1
gene 1 106 158 0.20081 0 25225 0.20081 1
gene 1 108 158 0.613929 0 25227 0.613929 1
gene 1 153 158 -0.785915 0 25272 -0.785915 1
gene 1 154 158 0.445367 0 25273 0.445367 1
gene 1 157 158 -0.644205 0 25276 -0.644205 1
gene 1 158 158 -0.957029 1 25277 -0.957029 1
gene 1 159 158 0.292816 1 25278 0.292816 1
gene 1 5 159 -0.661764 0 25284 -0.661764 1
gene 1 6 159 -0.469416 0 25285 -0.469416 1
gene 1 8 159 -0.840082 0 25287 -0.840082 1
gene 1 14 159 -0.328903 0 25293 -0.328903 1
gene 1 20 159 -0.392114 0 25299 -0.392114 1
gene 1 21 159 0.128957 0 25300 0.128957 1
gene 1 26 159 0.968888 0 25305 0.968888 1
gene 1 28 159 -0.286779 0 25307 -0.286779 1
gene 1 30 159 0.281183 0 25309 0.281183 1
gene 1 37 159 0.299367 0 25316 0.299367 1
gene 1 44 159 0.0668766 0 25323 0.0668766 1
gene 1 46 159 -0.712288 0 25325 -0.712288 1
gene 1 51 159 -0.235955 0 25330 -0.235955 1
gene 1 53 159 -0.0849417 0 25332 -0.0849417 1
gene 1 55 159 0.944717 0 25334 0.944717 1
gene 1 57 159 -0.937844 0 25336 -0.937844 1
gene 1 59 159 0.771312 0 25338 0.771312 1
gene 1 62 159 -0.262341 0 25341 -0.262341 1
gene 1 64 159 0.339919 0 25343 0.339919 1
gene 1 71 159 0.0804446 0 25350 0.0804446 1
gene 1 74 159 0.210889 0 25353 0.210889 1
gene 1 77 159 -0.233269 0 25356 -0.233269 1
gene 1 80 159 -0.298657 0 25359 -0.298657 1
gene 1 81 159 0.743655 0 25360 0.743655 1
gene 1 82 159 0.766156 0 25361 0.766156 1
gene 1 83 159 -0.430225 0 25362 -0.430225 1
gene 1 85 159 -0.730132 0 25364 -0.730132 1
gene 1 88 159 -0.771356 0 25367 -0.771356 1
gene 1 90 159 0.298173 0 25369 0.298173 1
gene 1 93 159 -0.492156 0 25372 -0.492156 1
gene 1 95 159 -0.563417 0 25374 -0.563417 1
gene 1 96 159 0.528482 0 25375 0.528482 1
gene 1 97 159 0.51778 0 25376 0.51778 1
gene 1 99 159 0.130296 0 25378 0.130296 1
gene 1 101 159 0.139307 0 25380 0.139307 1
gene 1 107 159 0.774159 0 25386 0.774159 1
gene 1 109 159 -0.671003 0 25388 -0.671003 1
gene 1 111 159 0.538088 0 25390 0.538088 1
gene 1 112 159 0.539314 0 25391 0.539314 1
gene 1 154 159 0.0220281 0 25433 0.0220281 1
gene 1 157 159 0.106745 0 25436 0.106745 1
gene 1 13 160 0.615672 0 25452 0.615672 1
gene 1 14 160 0.801529 0 25453 0.801529 1
gene 1 15 160 0.153948 0 25454 0.153948 1
gene 1 16 160 0.146492 0 25455 0.146492 1
gene 1 19 160 -0.280248 0 25458 -0.280248 1
gene 1 23 160 -0.399984 0 25462 -0.399984 1
gene 1 25 160 0.389692 0 25464 0.389692 1
gene 1 30 160 -0.221285 0 25469 -0.221285 1
gene 1 38 160 -0.861762 0 25477 -0.861762 1
gene 1 41 160 0.505737 0 25480 0.505737 1
gene 1 44 160 0.153396 0 25483 0.153396 1
gene 1 47 160 -0.74105 0 25486 -0.74105 1
gene 1 48 160 0.317783 0 25487 0.317783 1
gene 1 56 160 0.317797 0 25495 0.317797 1
gene 1 57 160 -0.361943 0 25496 -0.361943 1
gene 1 63 160 0.97177 0 25502 0.97177 1
gene 1 64 160 -0.250485 0 25503 -0.250485 1
gene 1 70 160 -0.285094 0 25509 -0.285094 1
gene 1 73 160 0.0368467 0 25512 0.0368467 1
gene 1 74 160 0.941939 0 25513 0.941939 1
gene 1 76 160 0.303975 0 25515 0.303975 1
gene 1 82 160 0.537662 0 25521 0.537662 1
gene 1 85 160 -0.750535 0 25524 -0.750535 1
gene 1 86 160 -0.318191 0 25525 -0.318191 1
gene 1 91 160 0.710449 0 25530 0.710449 1
gene 1 94 160 -0.415717 0 25533 -0.415717 1
gene 1 97 160 0.689949 0 25536 0.689949 1
gene 1 101 160 -0.474356 0 25540 -0.474356 1
gene 1 102 160 0.298157 0 25541 0.298157 1
gene 1 103 160 -0.491937 0 25542 -0.491937 1
gene 1 105 160 -0.667495 0 25544 -0.667495 1
gene 1 106 160 0.121323 0 25545 0.121323 1
gene 1 150 160 0.536817 0 25589 0.536817 1
gene 1 157 160 -0.384432 0 25596 -0.384432 1
genomeend 0
